AAAAAA -11.673646 30.308983 -8.01075 20.012726 17.664757 31.946537 24.428778 29.347338 7.6436186 39.06172 4.733983 55.037117
AAAAAC -12.20895 25.194065 -5.7180686 26.283165 32.28539 42.519573 27.790655 26.47651 9.646124 15.2841835 5.726942 47.399757
AAAAAG -13.472494 33.032337 -7.9803295 14.438301 28.95333 46.24669 27.214273 26.570951 13.773728 36.49958 5.8242555 51.251823
AAAAAT -10.537922 23.68951 -6.0016108 27.468182 20.178728 29.068243 24.338314 28.045769 4.7302423 21.980888 4.5817018 49.8758
AAAACA -8.2709055 30.594654 -7.8972974 13.674816 20.144768 10.778921 13.051959 22.546114 17.290422 41.07146 6.3947372 34.048687
AAAACC -9.118727 25.156473 -5.8851476 19.295887 37.887486 22.449787 15.9491 20.355352 22.917757 17.712042 5.9471374 23.356504
AAAACG -10.553496 32.892483 -8.204029 7.7705956 35.232162 26.545687 15.861672 20.340712 27.50583 40.1127 6.241264 27.009026
AAAACT -6.6160226 24.136646 -5.900144 21.115356 21.673592 6.4065814 12.591599 21.20526 13.673979 22.410368 6.304275 29.904411
AAAAGA -9.177233 27.18424 -6.1767206 11.0622015 27.745352 18.807592 14.776962 23.184788 20.175232 36.881527 6.0011525 39.5954
AAAAGC -10.087099 21.487257 -4.082767 16.74813 45.904484 30.935751 18.121202 21.154716 26.124447 13.334921 5.508834 29.092306
AAAAGG -11.514122 29.080856 -6.4700894 5.5938115 42.594173 34.966232 17.942259 21.705797 30.76104 35.417675 5.4453278 32.40165
AAAAGT -7.5114098 20.520102 -4.068957 18.646652 29.261995 14.632854 14.79231 21.91121 16.436516 17.90853 6.0476484 35.997864
AAAATA -8.821396 29.085333 -7.4661646 9.041513 43.650864 7.902417 9.5720215 22.219809 40.568348 46.750454 5.866806 21.196218
AAAATC -9.775185 23.404997 -5.5245442 14.939548 61.21153 20.598433 14.207702 20.44102 46.45745 24.148567 5.3941216 11.413024
AAAATG -11.1487255 31.251686 -7.6676745 3.1065474 59.051647 23.976042 12.287722 20.034197 50.823757 45.009434 5.599072 13.946431
AAAATT -7.32135 22.346703 -5.398699 16.79243 44.414696 4.6505404 9.769264 21.641575 36.331192 27.520094 5.4080205 18.074402
AAACAA -9.846024 18.99302 -10.716237 24.484776 5.538144 45.348118 57.665222 24.347176 10.245523 51.581318 5.92151 43.341335
AAACAC -10.624483 13.42894 -8.567558 30.318432 22.785152 57.00495 61.022278 22.122137 15.200957 27.82518 5.7940063 33.639023
AAACAG -12.057618 21.29893 -10.857706 18.44632 19.69166 61.128677 60.410427 22.18318 19.49706 49.677334 5.8659196 37.04082
AAACAT -8.225662 12.282901 -8.627406 32.018112 7.3703423 41.336437 57.67613 23.141045 6.850608 32.68082 5.8417993 39.466755
AAACCA -6.793981 19.120047 -10.856479 17.617977 10.466683 25.203623 45.801014 17.997648 22.691875 54.436398 6.481121 19.64858
AAACCC -7.7038493 13.423064 -8.762525 23.303905 28.625816 37.331768 49.145252 15.967579 28.64109 30.8898 5.9888034 9.145489
AAACCG -9.136983 21.293055 -11.052673 11.4317875 25.532324 41.455498 48.533405 16.02862 32.937195 52.74195 6.06072 12.547285
AAACCT -5.630497 12.702802 -8.901153 24.745094 12.685164 22.755873 45.000187 16.938528 18.903269 36.561996 5.880763 16.10017
AAACGA -7.762355 15.450833 -9.054098 15.07022 18.483686 33.689583 47.973118 18.797012 25.898565 50.05928 6.0428195 25.384392
AAACGC -8.736133 10.071 -7.070952 20.585709 36.628246 45.729435 51.36404 16.907177 32.073086 27.64744 5.6016045 15.347309
AAACGG -10.105356 17.623842 -9.250292 8.88403 33.54933 49.941456 50.705498 16.827988 36.143887 48.364838 5.6224155 18.283096
AAACGT -6.2398586 8.857136 -6.989827 22.524181 20.200577 30.007586 47.755592 17.584623 22.145615 31.399738 5.9047556 21.800865
AAACTA -7.4511604 17.306662 -10.371183 13.585539 34.672157 22.865482 42.818096 17.741749 46.08932 59.72845 5.9654055 6.922853
AAACTC -8.219213 11.700452 -8.224736 18.601875 52.953983 34.383892 46.005722 15.414735 52.53806 36.542034 5.698178 -3.782765
AAACTG -9.86932 19.431564 -10.595199 7.7542295 49.67277 39.440517 45.63348 15.93009 56.069897 57.84312 5.425714 -0.07111351
AAACTT -6.058251 10.806474 -8.329101 20.405617 36.091038 19.793829 42.378254 16.856949 42.405552 41.502148 5.4677277 3.538111
AAAGAA -9.139214 19.89918 -9.094358 19.236736 5.464733 38.491253 44.11786 22.182648 6.9291587 43.651325 5.136545 41.32652
AAAGAC -9.62087 14.635275 -6.8220744 25.404083 20.651564 49.083538 47.503887 19.517242 9.639979 19.4219 5.8330193 33.432896
AAAGAG -11.054004 22.505268 -9.112222 13.531964 17.558077 53.207256 46.892036 19.578283 13.936089 41.274055 5.9049377 36.83469
AAAGAT -7.5971 13.227516 -7.0292726 26.698837 7.406254 34.74858 44.00164 21.009918 3.5264778 24.921947 4.9560733 37.45959
AAAGCA -5.790368 20.326384 -9.110995 12.703621 8.3330965 17.282206 32.28263 15.392751 17.1309 46.033123 6.520138 19.442455
AAAGCC -6.7002344 14.629403 -7.017041 18.38955 26.492228 29.41036 35.626865 13.36268 23.080114 22.486523 6.027822 8.9393635
AAAGCG -8.194695 22.46014 -9.329889 6.8069887 23.34568 33.797752 35.082737 13.552131 27.16021 44.182922 6.0024014 12.428736
AAAGCT -4.836454 14.012145 -7.219264 19.63995 10.844373 15.554945 31.141298 14.423107 13.32148 28.617037 5.649919 15.914537
AAAGGA -6.7587414 16.65717 -7.308614 10.15587 16.350096 25.768166 34.454727 16.192123 20.337585 41.656002 6.081831 25.17826
AAAGGC -7.749653 11.362369 -5.3551764 15.625657 34.490746 37.784344 37.858166 14.339878 26.572514 19.548395 5.6543245 15.266122
AAAGGG -9.101743 18.83018 -7.504808 3.9696774 31.41574 42.02004 37.18711 14.22309 30.582909 39.961555 5.661433 18.076965
AAAGGT -5.445816 10.166481 -5.3079386 17.419037 18.359787 22.806658 33.896698 15.069199 16.563826 23.45478 5.673911 21.615238
AAAGTA -6.779848 18.327953 -8.730282 9.701324 31.718225 16.556534 29.665646 16.137142 39.432602 50.624313 5.2652497 7.400248
AAAGTC -7.396215 12.842987 -6.5291095 13.880537 50.03903 27.43579 32.6843 13.546833 46.453117 27.918264 5.209447 -3.4648056
AAAGTG -9.047507 20.521538 -8.917007 3.6982708 47.3819 32.30077 32.31586 13.705868 49.868557 48.978104 5.1761775 -0.017601773
AAAGTT -5.448983 12.031489 -6.6929936 15.511319 33.436195 13.612889 28.722147 15.102255 36.26469 33.26361 4.6836386 3.8728983
AAATAA -9.2355175 23.060633 -7.7958965 15.889911 8.042525 32.64485 31.278868 22.450216 4.955541 37.72473 4.7847595 43.814865
AAATAC -9.55311 17.962664 -5.4552855 22.241707 22.090555 42.64868 34.680916 19.541397 6.4256105 13.233698 5.936712 36.92104
AAATAG -10.986244 25.832655 -7.745433 10.369588 18.997063 46.772404 34.069065 19.602438 10.721717 35.08585 6.0086293 40.322838
AAATAT -7.86005 16.396318 -5.747335 23.383896 10.21923 29.205885 31.238552 21.195864 1.8039522 19.743729 4.6683764 39.29009
AAATCA -5.8498807 23.25999 -7.6516757 9.580154 10.636241 11.621217 20.059893 15.698531 14.679837 39.661026 6.4429173 22.921848
AAATCC -6.632476 17.956789 -5.6502533 15.227176 27.931215 22.975504 22.803886 13.386835 19.865746 16.298317 6.1315107 12.4275055
AAATCG -8.124251 25.66943 -7.9874606 3.9375958 25.183224 27.319935 22.727865 13.499362 24.22366 38.499687 6.3129845 16.136942
AAATCT -4.791209 17.189735 -5.8714037 16.434185 12.908241 9.213422 18.445204 14.5699835 10.924988 22.414669 5.5652914 18.742138
AAATGA -6.6909814 19.984556 -5.941826 6.993495 17.789083 19.33331 21.631748 16.216276 17.123215 35.4678 6.185523 28.666407
AAATGC -7.666853 14.615122 -3.9623125 12.503394 35.933163 31.370268 25.024199 14.331032 23.305122 13.093148 5.745986 18.64459
AAATGG -9.033982 22.157568 -6.13802 0.8073025 32.85473 35.585175 24.364134 14.247242 27.36854 33.773357 5.765126 21.565115
AAATGT -5.293534 13.452324 -3.9155025 14.33361 19.680683 16.081219 21.211054 15.057268 13.357848 17.08173 5.8864374 25.095112
AAATTA -6.72697 21.649313 -7.3666716 6.541045 33.076935 10.208897 16.858974 16.230972 36.17527 44.41642 5.318533 10.936074
AAATTC -7.368686 16.077034 -5.181714 10.772145 51.337227 21.166925 19.875105 13.718222 43.122387 21.786798 5.1307306 0.1330468
AAATTG -8.975591 23.851585 -7.5486803 0.5162673 48.82449 25.848034 19.48829 13.721312 46.66883 42.800465 5.286466 3.4646008
AAATTT -5.3157396 15.308645 -5.3052735 12.447619 34.673214 6.992548 16.057396 15.168703 33.00111 26.860312 4.8391647 7.4063983
AACAAA -12.724122 29.431482 -8.574429 21.780365 21.813877 34.99353 23.703777 25.611328 4.9351134 43.237778 4.6002164 55.425594
AACAAC -13.061309 24.313698 -6.241977 28.110126 35.997917 45.067642 27.103912 22.731583 6.553374 18.777987 5.69777 48.412357
AACAAG -14.494446 32.183685 -8.532127 16.23801 32.904427 49.191364 26.492058 22.792622 10.849479 40.630142 5.7696834 51.81415
AACAAT -11.07755 22.888655 -6.501019 29.078197 23.654991 31.111343 24.122688 24.43962 2.082761 24.618853 4.7623024 51.12705
AACACA -9.302255 29.813654 -8.4953785 15.410974 24.166744 13.664926 12.150475 18.754717 14.49528 45.329636 6.2638683 34.33047
AACACC -10.1406765 24.307821 -6.436946 21.0956 41.83858 25.394468 15.226885 16.577017 19.993504 21.842611 5.8925676 23.918825
AACACG -11.573809 32.177807 -8.727094 9.223476 38.74509 29.518183 14.615033 16.63806 24.289614 43.694767 5.9644847 27.320616
AACACT -7.652428 23.252226 -6.459552 22.89581 25.803045 9.405203 11.889461 17.463245 10.966869 26.55565 6.1886253 30.29151
AACAGA -10.199181 26.33559 -6.728519 12.861915 31.696447 21.752272 14.054747 19.406454 17.25098 41.01209 5.946581 40.157722
AACAGC -11.109048 20.638609 -4.6345634 18.54784 49.85559 33.880417 17.398983 17.376383 23.200197 17.46549 5.4542656 29.654634
AACAGG -12.530372 27.974503 -7.112487 8.062771 46.34312 37.82398 17.623676 18.384357 28.154259 39.76324 5.2644935 32.87776
AACAGT -8.533358 19.67145 -4.6207542 20.446358 33.213093 17.577526 14.070095 18.132875 13.512267 22.0391 5.99308 36.56018
AACATA -9.922458 28.196512 -8.040273 11.010782 47.331814 11.256782 8.936781 18.722393 37.393734 50.734264 5.6065164 21.950624
AACATC -10.85978 22.536308 -6.1260843 16.855183 64.79459 23.965351 13.853366 16.934465 43.360405 28.422234 5.1904945 12.293118
AACATG -12.192818 30.388863 -8.227668 5.010808 62.983597 27.015926 11.589952 16.302233 47.821518 49.083767 5.509357 14.540373
AACATT -8.402071 21.473942 -5.975912 18.673298 48.07768 7.9438844 9.20643 18.109596 33.234432 31.63424 5.189698 18.847075
AACCAA -10.8965 18.115513 -11.279915 26.25241 9.68726 48.39512 56.940216 20.611172 7.5370145 55.757374 5.7877417 43.7298
AACCAC -11.646432 12.580286 -9.119355 32.118153 26.73625 59.949623 60.300064 18.343807 12.276705 31.955746 5.7394333 34.201344
AACCAG -13.079567 20.45028 -11.409503 20.246029 23.64276 64.07335 59.68821 18.404848 16.572813 53.807896 5.811354 37.603134
AACCAT -9.276138 11.405398 -9.191084 33.78575 11.519459 44.383434 56.951126 19.405039 4.142101 36.856876 5.7080297 39.85523
AACCCA -7.81593 18.271395 -11.408275 19.41769 14.417782 28.14829 45.078804 14.2193165 19.767626 58.56696 6.4265523 20.210901
AACCCC -8.725798 12.574413 -9.314323 25.103615 32.576916 40.276443 48.423042 12.189244 25.716839 35.02037 5.9342337 9.707812
AACCCG -10.158934 20.444403 -11.604469 13.231498 29.483423 44.400173 47.811188 12.250288 30.012949 56.872524 6.00615 13.109605
AACCCT -6.473929 11.76641 -9.398778 26.707329 16.386848 25.086824 44.56802 13.083983 15.996748 40.302155 6.056066 16.64503
AACCGA -8.784304 14.602181 -9.605896 16.869934 22.434784 36.63425 47.2509 15.018683 22.974314 54.18985 5.9882455 25.94671
AACCGC -9.736939 9.1174345 -7.5860934 22.4418 40.58416 48.703312 50.626377 13.082458 29.074305 31.40263 5.5301285 15.755471
AACCGG -11.127305 16.77519 -9.80209 10.6837435 37.500427 52.88613 49.983284 13.049653 33.21964 52.495403 5.5678463 18.84541
AACCGT -7.1184797 7.93804 -7.498131 24.45438 23.95143 32.459515 47.26625 13.7451 19.235598 35.216854 6.0347443 22.349169
AACCTA -8.517949 16.43348 -10.936797 15.515693 38.504097 26.030651 42.14524 14.103223 43.0184 63.76672 5.8077326 7.58072
AACCTC -9.290536 10.829265 -8.788766 20.457928 56.687557 37.601124 45.337696 11.839681 49.464417 40.594147 5.4957724 -3.0813785
AACCTG -10.913412 18.56874 -11.15519 9.658481 53.60472 42.480392 44.93572 12.198122 53.067665 61.917454 5.336 0.5228283
AACCTT -6.9586535 9.844081 -8.840842 22.432865 39.541733 22.439268 42.00861 13.236955 39.326656 45.151787 5.47245 4.2434287
AACGAA -10.189688 19.021677 -9.658037 21.004375 9.613849 41.538254 43.39286 18.446636 4.220655 47.827377 5.002777 41.71499
AACGAC -10.642817 13.786625 -7.37387 27.203793 24.602663 52.02821 46.781677 15.738912 6.7157326 23.552465 5.7784524 33.995216
AACGAG -12.075953 21.656618 -9.664019 15.331674 21.509172 56.151928 46.16982 15.799953 11.011837 45.40462 5.85037 37.397007
AACGAT -8.569326 12.311556 -7.5692058 28.537712 11.446048 37.526566 43.403767 17.240507 0.8257439 28.92688 4.923065 37.840412
AACGCA -6.8206244 19.472416 -9.665868 14.542558 12.277005 20.2626 31.569592 11.631816 14.177386 50.142597 6.452381 20.01664
AACGCC -7.722183 13.78075 -7.5688376 20.189259 30.443325 32.355034 34.904648 9.584349 20.155869 26.617088 5.97325 9.501681
AACGCG -9.238784 21.597319 -9.889883 8.711243 27.277622 36.837627 34.38497 9.820159 24.157972 48.257256 5.9126906 13.022677
AACGCT -5.679885 13.075755 -7.716889 21.60218 14.546058 17.885897 30.70913 10.568559 10.41496 32.357197 5.825223 16.4594
AACGGA -7.7806892 15.808519 -7.8604107 11.955576 20.301191 28.712841 33.73251 12.413786 17.413336 45.786568 6.0272636 25.74058
AACGGC -8.750459 10.408807 -5.8703184 17.48175 38.446667 40.758224 37.120506 10.515157 23.573736 23.303585 5.58285 15.674287
AACGGG -10.123692 17.981531 -8.056606 5.769389 35.36684 44.964718 36.4649 10.444756 27.658659 44.092125 5.606866 18.639286
AACGGT -6.2892475 9.23009 -5.8055644 19.381268 22.061478 25.137606 33.464535 11.214653 13.657308 27.194942 5.8492155 22.160099
AACGTA -7.880911 17.43913 -9.304391 11.670589 35.39918 19.910892 29.030409 12.639722 36.257984 54.608128 5.004958 8.154651
AACGTC -8.471697 11.9512825 -7.0890636 15.754424 53.73991 30.6997 32.022095 9.99551 43.344368 31.897285 4.981549 -2.7670882
AACGTG -10.0915985 19.658716 -9.477001 5.6025276 51.313847 35.34064 31.618103 9.973892 46.86631 53.052437 5.0864654 0.576338
AACGTT -6.3493853 11.069098 -7.2047343 17.538563 36.886887 16.258327 28.3525 11.482259 33.185795 36.913246 4.688363 4.578219
AACTAA -10.2859955 22.18313 -8.359574 17.65755 12.191641 35.69185 30.553867 18.714207 2.247033 41.900784 4.6509905 44.203346
AACTAC -10.57506 17.114014 -6.0070825 24.041416 26.041653 45.593353 33.958702 15.763066 3.5013607 17.364262 5.8821416 37.483368
AACTAG -12.017201 24.985224 -8.303116 12.198375 22.942905 49.731533 33.3354 15.860236 7.798846 39.213585 5.927165 40.871586
AACTAT -8.665632 15.473012 -6.270744 25.190887 14.023837 31.680166 30.564777 17.50808 -1.1478767 23.000294 4.571279 40.328773
AACTCA -6.8849626 22.478456 -8.2520485 11.3352165 14.651829 14.521523 19.159105 11.914609 11.868165 43.91047 6.3055253 23.207214
AACTCC -7.6544237 17.108139 -6.20205 17.026886 31.88231 25.920176 22.08167 9.608501 16.941494 20.428883 6.0769405 12.989822
AACTCG -9.166868 24.927364 -8.521555 5.5292377 28.720207 30.384895 21.557404 9.835608 20.958244 42.07961 6.022978 16.504883
AACTCT -5.6631694 16.224491 -6.380909 18.364346 16.807943 11.646694 18.010246 10.757767 8.234211 26.200315 5.6613946 19.113153
AACTGA -7.7129292 19.135906 -6.4936233 8.7932005 21.740181 22.277983 20.909536 12.437942 14.198967 39.598366 6.1309547 29.228724
AACTGC -8.667662 13.661558 -4.4774547 14.359484 39.889088 34.344147 24.28654 10.506308 20.306343 16.848341 5.6745105 19.052757
AACTGG -10.05148 21.107563 -6.7606063 3.1299205 36.647877 38.461933 23.95729 10.825899 24.692333 38.071907 5.6118994 22.060076
AACTGT -6.136966 12.515933 -4.413128 16.295837 23.38237 18.412172 20.778883 11.202721 10.451327 20.821888 6.061741 25.63997
AACTTA -7.8280315 20.760487 -7.940781 8.510312 36.75788 13.563262 16.223736 12.733554 33.000652 48.400234 5.0582385 11.690473
AACTTC -8.428248 15.275514 -5.760089 12.66107 54.986305 24.470049 19.503689 10.13263 40.072006 25.895866 5.048226 0.9208144
AACTTG -10.019682 22.988764 -8.108674 2.4205241 52.756424 28.88791 18.79053 9.989344 43.666584 46.874786 5.196752 4.058543
AACTTT -6.2161436 14.346256 -5.817014 14.47486 38.12391 9.63799 15.687748 11.548709 29.922213 30.509949 4.843889 8.111719
AAGAAA -15.656622 30.747908 -10.400523 28.325008 31.540718 43.004234 26.058996 23.791979 3.789397 53.849266 4.6256213 59.63455
AAGAAC -16.004244 25.619566 -8.07242 34.64304 45.79721 53.115776 29.458113 20.927717 5.4865937 29.406118 5.694201 52.55771
AAGAAG -17.437382 33.48956 -10.362569 22.77092 42.70372 57.239502 28.846262 20.988756 9.782698 51.25827 5.7661195 55.959503
AAGAAT -13.884434 24.396852 -8.331127 35.343353 33.26237 39.06679 27.007381 22.681583 1.5230634 35.233723 5.1038947 55.0525
AAGACA -12.205288 31.27877 -10.374478 21.907108 33.697697 21.427588 14.233776 16.850027 13.216068 56.06764 6.2937446 38.37504
AAGACC -13.083611 25.613693 -8.267387 27.628506 51.63788 33.442608 17.58109 14.773155 18.92673 32.470737 5.8890004 28.064169
AAGACG -14.516747 33.483685 -10.557535 15.756391 48.544388 37.566322 16.969236 14.834195 23.222834 54.322895 5.9609184 31.465973
AAGACT -10.537084 24.681803 -8.291771 29.27816 35.49506 17.4393 14.540106 15.674062 10.176799 37.256935 6.3898683 34.277515
AAGAGA -13.1421175 27.641466 -8.55896 19.394825 41.49575 29.800406 16.408945 17.602589 16.1842 51.64022 5.943017 44.303074
AAGAGC -14.051983 21.94448 -6.465006 25.080757 59.65488 41.928562 19.753187 15.572516 22.133417 28.09362 5.450698 33.79998
AAGAGG -15.476268 29.414135 -8.895902 14.248306 56.247337 45.917236 19.768375 16.343342 26.922697 50.279778 5.3264637 37.067863
AAGAGT -11.441803 21.058891 -6.455611 26.862278 42.987278 25.64253 16.637262 16.350758 12.701866 32.731968 6.116271 40.54482
AAGATA -12.900482 29.491604 -9.875922 17.48175 56.875664 19.533396 11.329302 17.120623 36.23493 61.333733 5.457809 26.234358
AAGATC -13.867305 23.814234 -7.9786425 23.469738 74.29289 32.383682 16.331903 15.398992 42.101196 38.991104 5.0004244 16.645636
AAGATG -15.032111 31.76108 -10.019747 11.054363 72.87255 34.61844 13.829702 14.281355 47.119804 59.97513 5.6702943 18.53772
AAGATT -11.4095955 22.751867 -7.828471 25.287853 57.575977 16.36222 11.684968 16.574127 31.975224 42.203114 4.999628 23.1996
AAGCAA -13.8289995 19.431944 -13.1060095 32.79706 19.414106 56.405815 59.295437 18.791826 6.3913035 66.36886 5.8131504 47.938763
AAGCAC -14.589369 13.886164 -10.949797 38.65106 36.535553 67.99777 62.654263 16.539942 11.209924 42.583874 5.735868 38.346695
AAGCAG -16.022503 21.756151 -13.2399435 26.778938 33.44206 72.1215 62.042423 16.600986 15.506035 64.43602 5.8077846 41.748493
AAGCAT -12.2899685 12.869405 -11.06981 40.34461 21.320156 52.542942 59.13418 17.978312 3.276439 47.26549 5.404544 43.788635
AAGCCA -10.775017 19.874592 -13.092734 25.840305 24.844196 35.460968 46.9879 13.413979 19.656237 69.12332 6.376622 25.534874
AAGCCC -11.673884 13.975103 -11.098209 31.601353 42.576206 48.090046 50.6353 10.703816 24.954739 45.625607 5.9158792 14.22903
AAGCCG -13.107012 21.844965 -13.388421 19.729282 39.482437 52.214085 50.02364 10.764423 29.250431 67.47778 5.987818 17.630314
AAGCCT -9.108482 13.197347 -10.991404 33.429607 26.333195 31.318642 47.022865 12.096392 15.875414 50.153492 6.425162 21.885393
AAGCGA -11.727239 15.908056 -11.436337 23.402843 32.234077 44.682396 49.605103 13.214814 21.907532 64.81798 5.9846816 30.092058
AAGCGC -12.637107 10.211073 -9.342382 29.088772 50.393223 56.81055 52.949333 11.18475 27.85675 41.271378 5.492363 19.58897
AAGCGG -14.070242 18.081064 -11.63253 17.216652 47.299717 60.93426 52.337486 11.24579 32.152855 63.123524 5.56428 22.990767
AAGCGT -10.061417 9.243916 -9.328573 30.987286 33.75072 40.50765 49.62045 11.941237 18.168818 45.844986 6.031177 26.49452
AAGCTA -11.360501 17.815287 -12.722303 21.347004 48.16516 33.724785 44.388153 12.217792 42.33678 74.71025 5.874051 11.670979
AAGCTC -12.297047 12.10613 -10.634959 27.063381 66.206764 46.000206 47.76167 10.297556 48.205284 51.121265 5.3018565 1.2430305
AAGCTG -13.617232 20.02767 -12.897122 15.062381 63.610886 49.500427 47.02586 9.893581 52.843136 73.15288 5.711962 4.3267097
AAGCTT -9.866798 11.072597 -10.657187 29.127869 48.92351 30.500175 44.5924 11.65283 38.07729 55.4638 5.4051995 8.558219
AAGGAA -13.1221895 20.338104 -11.484133 27.549023 19.340696 49.548958 45.74808 16.62729 3.0749414 58.438866 5.0281878 45.92395
AAGGAC -13.5857525 15.092499 -9.204312 33.7367 34.401962 60.076355 49.13588 13.935045 5.6489563 34.1806 5.774886 38.140564
AAGGAG -15.018889 22.962492 -11.494462 21.864582 31.308466 64.20007 48.52403 13.996083 9.945055 56.032757 5.8468027 41.542362
AAGGAT -11.501827 13.627987 -9.3953 35.082355 21.172892 45.537273 45.758987 15.421159 -0.3199695 39.53836 4.9484744 42.04937
AAGGCA -9.759378 20.85954 -11.455952 21.008076 22.243647 28.087196 33.800945 10.065565 13.38386 60.773487 6.4501605 24.45113
AAGGCC -10.66512 15.086625 -9.399281 26.722176 40.242626 40.40317 37.258854 7.780484 19.089087 37.24522 5.9696865 13.647039
AAGGCG -12.098255 22.956617 -11.689429 14.850053 37.149128 44.526894 36.647007 7.841527 23.385187 59.09737 6.0416017 17.048836
AAGGCT -8.092843 14.182296 -9.354622 28.597385 23.732649 23.944872 33.83591 8.747976 9.603041 41.803658 6.4987035 20.801647
AAGGGA -10.723626 17.114395 -9.690853 18.488491 30.10049 36.760983 36.08672 10.6099205 16.34656 56.4147 6.0237007 29.885935
AAGGGC -11.633492 11.417416 -7.5968986 24.174412 48.259632 48.88913 39.43095 8.579848 22.295776 32.868103 5.531385 19.382845
AAGGGG -13.0666275 19.287407 -9.887047 12.302301 45.166134 53.012856 38.819103 8.640896 26.59188 54.72025 5.6032996 22.784643
AAGGGT -9.057802 10.450255 -7.5830884 26.07293 31.61713 32.58623 36.102066 9.336341 12.607845 37.441708 6.0701976 26.288397
AAGGTA -10.541663 18.9373 -11.022601 16.643509 45.21752 26.823364 31.072554 10.373621 36.216736 66.01339 5.3598275 11.985277
AAGGTC -11.478207 13.228142 -8.935257 22.359875 63.25912 39.09878 34.446068 8.453383 42.085236 42.424408 4.787633 1.5573215
AAGGTG -12.669083 21.198502 -11.17217 10.409911 61.42931 41.81749 33.568726 7.4048214 47.086792 64.60873 5.662943 4.199787
AAGGTT -9.047959 12.194611 -8.957482 24.424358 45.975864 23.59875 31.276798 9.808665 31.957245 46.766933 4.8909755 8.872515
AAGTAA -13.218492 23.499556 -10.185669 24.202194 21.91849 43.70255 32.909092 16.89486 1.1013227 52.51227 4.676399 48.41229
AAGTAC -13.517997 18.419886 -7.837525 30.574333 35.840954 53.6415 36.312904 13.959202 2.4345784 27.992395 5.8785725 41.62872
AAGTAG -14.977447 26.293442 -10.144861 18.787151 32.732105 57.807446 35.667595 14.125792 6.7347155 49.836285 5.8719254 44.990864
AAGTAT -11.598131 16.789436 -8.096839 31.73553 23.750685 39.69087 32.920002 15.688733 -2.2935886 33.611774 4.596687 44.53772
AAGTCA -9.767161 24.030418 -10.159623 17.784306 24.075459 22.125908 21.08386 9.952914 10.527987 54.73064 6.344517 27.152786
AAGTCC -10.597362 18.414013 -8.032492 23.559795 41.68161 33.96832 24.435879 7.804638 15.874714 31.057014 6.0733747 17.13518
AAGTCG -12.030497 26.284002 -10.322641 11.687679 38.58812 38.092037 23.824026 7.865678 20.170818 52.909164 6.1452904 20.53697
AAGTCT -8.1468 17.320301 -8.070793 25.317638 25.90766 18.114225 21.094774 8.746781 7.1330786 35.830154 6.264808 23.278214
AAGTGA -10.655867 20.44178 -8.324064 15.326112 31.539482 30.326122 23.263737 10.634079 13.132191 50.226494 6.1273866 33.374077
AAGTGC -11.565733 14.744798 -6.230111 21.01204 49.698612 42.454273 26.607977 8.604005 19.081404 26.679897 5.635069 22.870983
AAGTGG -12.997374 22.547201 -8.544022 9.315454 46.5521 46.55519 26.101986 8.784881 23.460773 48.588436 5.67387 26.250172
AAGTGT -8.990044 13.777639 -6.216301 22.910557 33.05612 26.151386 23.279083 9.360496 9.393473 31.253504 6.173885 29.776537
AAGTTA -10.492942 22.255997 -9.66053 13.502863 46.572636 20.493599 18.27047 10.476158 32.944763 59.794937 5.4065127 15.527042
AAGTTC -11.435774 16.55344 -7.6126485 19.275616 64.48459 32.88838 21.982227 8.597156 38.812798 36.464733 4.8581553 5.2733335
AAGTTG -12.597166 24.52855 -9.803843 7.2278976 62.871895 35.364758 20.741156 7.420267 43.887066 58.43109 5.77323 7.6819882
AAGTTT -8.99924 15.513309 -7.5954113 21.283714 47.330982 17.268991 18.474718 9.9112 28.68527 40.54848 4.9376616 12.414279
AATAAA -11.209608 34.082336 -8.07663 19.721306 15.400072 31.494656 28.584557 38.214874 15.673186 35.866356 5.0645437 55.898193
AATAAC -12.066667 29.029564 -5.562907 24.732986 28.8655 42.814194 31.6741 36.16409 18.03324 12.886114 5.6533117 47.928867
AATAAG -13.139217 36.6155 -7.9127135 13.763841 25.891905 45.818333 31.549047 36.399124 22.16011 33.808517 5.721708 52.84429
AATAAT -10.378357 27.573921 -5.832646 25.962711 16.493744 29.26815 28.220526 37.66363 12.814389 19.61191 4.624927 50.600403
AATACA -7.7888846 34.402775 -7.777271 12.44204 16.026419 9.951651 16.691076 32.320175 25.031076 37.666718 6.2412887 35.557384
AATACC -8.625157 28.926271 -5.672226 17.802158 33.973423 21.922892 19.906038 30.112099 30.955837 13.99502 5.9261127 24.818281
AATACG -10.06221 36.47533 -8.031203 6.760848 31.929556 25.97996 20.550419 29.991854 35.951344 37.1611 6.530321 28.820688
AATACT -6.0704737 27.946518 -5.670435 19.690834 17.461136 5.7278547 16.622328 30.87007 21.380178 18.612404 6.432274 31.639336
AATAGA -8.683663 30.954042 -5.963798 9.568475 23.831293 18.280693 18.733896 32.941536 28.213312 33.1645 5.980127 41.057186
AATAGC -9.63484 25.462057 -3.941469 15.144235 41.981007 30.351776 22.108315 31.002104 34.308163 10.351389 5.520846 30.855309
AATAGG -11.098663 32.995163 -6.235175 3.8734393 39.436195 34.56634 21.825417 30.976784 38.720028 32.126667 5.6042676 34.10534
AATAGT -7.2362585 24.330755 -3.891951 17.11782 25.655197 14.616755 18.703564 31.624943 24.691618 15.011605 5.9939218 36.879726
AATATA -8.365005 32.569668 -7.250617 7.93678 40.40788 7.204511 13.589208 31.8933 48.83846 43.274864 5.7949758 22.748844
AATATC -9.165095 27.229464 -5.2887006 13.320585 57.79482 19.4416 18.088753 29.720451 54.850998 20.658861 5.728676 12.571192
AATATG -10.676704 34.97606 -7.4588413 1.7023652 55.163998 23.51066 16.265953 29.842691 58.835857 41.287365 5.5265555 15.459446
AATATT -6.5968637 26.253714 -5.154595 15.047587 41.79971 2.9894133 13.7321 30.181751 45.138687 24.334171 6.240713 18.853676
AATCAA -9.310133 22.806166 -10.490014 23.058674 1.3537626 44.66893 61.629562 34.026 17.959782 47.804512 6.025016 45.05419
AATCAC -10.130915 17.198744 -8.354637 28.82471 18.871098 56.47806 64.97922 31.878893 23.23904 24.108158 5.7729826 35.10081
AATCAG -11.739892 24.968897 -10.782541 17.582497 16.37183 60.732777 64.36836 32.078976 27.688147 46.658432 5.578303 38.447865
AATCAT -7.688586 16.096704 -8.396366 30.5733 3.1542974 40.653492 61.63731 32.833244 14.55967 28.894424 5.941559 41.193665
AATCCA -6.3004136 22.889849 -10.643557 16.124252 6.5526266 24.676725 49.757954 27.754396 30.729956 50.719383 6.4600973 21.110367
AATCCC -7.21028 17.192865 -8.5496025 21.81018 24.711754 36.80488 53.102196 25.724321 36.67917 27.17278 5.967782 10.607271
AATCCG -8.6434145 25.062857 -10.839751 9.9380665 21.618263 40.928596 52.49034 25.785368 40.975277 49.02493 6.039695 14.009067
AATCCT -5.1232977 16.465908 -8.684094 23.263783 8.752061 22.182117 48.97927 26.689459 26.942703 32.815163 5.877293 17.560623
AATCGA -7.268786 19.220634 -8.841176 13.5765 14.569624 33.16268 51.93006 28.553762 33.936638 46.34226 6.0217924 26.846172
AATCGC -8.285227 14.052519 -6.9320006 18.97821 32.704453 45.143593 55.352135 26.757538 40.261562 24.687933 5.614697 17.120178
AATCGG -9.699393 21.343904 -9.106002 7.704131 29.93132 49.479816 54.662933 26.654001 44.258194 44.99562 5.4685764 19.717613
AATCGT -5.73266 12.620239 -6.772768 21.042862 16.267477 29.433832 51.734676 27.335552 30.18505 27.65291 5.9012823 23.261312
AATCTA -6.9644384 21.072083 -10.160794 12.124143 30.752172 22.368025 46.782597 27.51283 54.10328 55.99404 5.9335175 8.394409
AATCTC -7.754611 15.613995 -8.062036 17.030907 49.033318 33.81698 49.98382 25.235043 60.678253 33.339314 5.7003155 -2.1097758
AATCTG -9.3826 23.196985 -10.3848095 6.29283 45.752796 38.943054 49.597973 25.70118 64.08386 54.10871 5.393824 1.4004519
AATCTT -5.413208 14.632483 -8.0778885 18.767006 32.765236 18.459146 46.206055 26.040363 50.862064 37.974335 5.8769813 4.610312
AATGAA -8.676181 23.671976 -9.16433 18.961212 3.2269356 38.042564 48.27632 31.03882 14.963141 40.4641 5.4702845 42.175667
AATGAC -9.1273 18.405079 -6.609152 23.910355 16.737505 48.556644 51.46083 29.27399 17.678062 15.704878 5.812001 34.89468
AATGAG -10.713587 26.188118 -9.0192795 12.586855 14.161562 52.79446 50.849854 29.456131 22.107426 38.165066 5.651727 38.248806
AATGAT -7.13341 17.050898 -6.8084044 25.252449 3.2935758 34.22228 47.966766 30.679167 11.323348 21.432455 5.060354 38.95414
AATGCA -5.4184384 23.756521 -8.910941 11.683281 4.686532 17.02067 36.353218 25.458988 25.153515 42.41822 6.162956 21.24726
AATGCC -6.206665 18.399204 -6.8041186 16.895828 22.578165 28.883461 39.583805 23.11943 31.118195 18.7695 6.0067987 10.401147
AATGCG -7.7278953 26.16993 -9.121609 5.4231243 19.469511 33.343758 39.065853 23.373905 35.171642 40.465237 5.9154553 13.956482
AATGCT -4.3292546 17.77525 -7.002205 18.158634 6.911271 14.981191 35.120384 24.174034 21.360914 24.870207 5.6464486 17.37499
AATGGA -6.2651715 20.426975 -7.0956907 8.662137 12.436041 25.24127 38.411667 25.948868 28.375671 37.93898 6.0608153 26.640043
AATGGC -7.2987475 15.343888 -5.216225 14.018156 30.566952 37.19851 41.846268 24.19024 34.760998 16.588888 5.6674166 17.038992
AATGGG -8.673088 22.56313 -7.3427396 2.7084808 27.721046 41.5415 41.144417 24.031166 38.677475 36.502254 5.541999 19.518549
AATGGT -4.938616 13.9295845 -5.090881 15.93772 14.426689 22.232895 37.875786 24.82013 24.603264 19.707954 5.6704397 23.075686
AATGTA -6.3072786 21.70228 -8.500023 8.708968 28.823381 15.587479 33.618813 25.70753 47.880997 47.267246 5.228948 8.912233
AATGTC -6.7681313 16.905363 -6.3462586 12.070849 46.895817 25.871893 36.47795 22.667742 55.17768 25.240269 5.753036 -2.1909626
AATGTG -8.623722 24.111216 -8.713278 2.481807 43.60032 31.940607 36.33916 23.63708 57.87451 45.29652 4.970358 1.6314368
AATGTT -4.619164 15.941826 -6.396 13.661855 30.924444 11.258216 32.347164 23.524939 45.280273 30.029377 5.646138 4.424684
AATTAA -8.828308 26.802513 -8.092809 16.495949 7.29618 32.372757 35.58606 30.67609 13.234491 34.989243 5.2949047 44.002247
AATTAC -9.376903 21.783083 -5.3017116 20.7403 18.645775 42.84553 38.573956 29.247082 14.777593 10.710753 5.8523493 37.56734
AATTAG -10.765223 29.365208 -7.7630515 10.063624 16.27232 46.43054 38.35275 29.526964 19.177118 32.787006 5.713729 41.855587
AATTAT -7.725946 20.266626 -5.681885 22.280533 7.2145424 29.486351 35.18861 30.526222 9.999835 17.5808 4.7920666 39.712837
AATTCA -5.3985496 26.980206 -7.5553184 8.622385 6.3239098 10.715098 23.565258 25.584402 22.07701 36.293194 6.138 24.71352
AATTCC -6.138906 21.72659 -5.4373302 13.733448 24.017153 22.448606 26.76083 23.143581 27.903824 12.581295 6.1104884 13.889283
AATTCG -7.6895046 29.109129 -7.822425 3.153573 21.983973 26.892065 27.470608 23.291275 32.638733 35.572407 6.4538445 18.098518
AATTCT -4.2405043 20.99684 -5.636226 15.001782 8.673155 8.483621 22.428532 24.256361 18.6354 18.598465 5.6826005 20.46771
AATTGA -6.197412 23.75436 -5.7289033 5.4997654 13.875027 18.80641 25.588688 25.97302 25.161297 31.750774 6.164501 30.128185
AATTGC -7.215949 18.596638 -3.8233607 10.895891 32.009373 30.784431 29.012304 24.181396 31.493603 10.133636 5.759078 20.417467
AATTGG -8.724668 25.74487 -6.0855155 0.17321754 29.8166 35.17855 28.62912 24.104624 35.737034 31.10516 5.5962906 23.116623
AATTGT -4.7863355 17.215427 -3.698444 12.852289 15.747584 15.50746 25.190134 24.808197 21.397284 13.334902 5.882965 26.555561
AATTTA -6.265134 24.949196 -7.1348453 5.642829 30.331436 9.199693 20.81906 25.798725 44.677486 41.114594 5.2569604 12.478387
AATTTC -6.809229 19.82028 -5.0603724 9.069451 48.037373 19.750021 23.652357 23.045206 51.676754 19.55016 5.2328057 1.6100143
AATTTG -8.581577 27.35813 -7.3480997 -0.5843403 45.108376 25.552816 23.539408 23.728271 54.671 39.14387 4.9983706 5.197591
AATTTT -4.4668827 19.227673 -5.003564 10.576432 32.245342 4.532776 19.661514 23.51301 42.0743 23.65633 5.8586664 7.904559
ACAAAA -15.133241 41.292473 -12.603551 33.21808 20.013689 44.446514 34.532116 34.116615 6.4305606 44.78356 5.5942664 55.25442
ACAAAC -15.844644 35.796207 -10.426947 39.12713 36.795258 55.862843 37.89572 31.79209 10.878884 20.920496 5.652916 45.960735
ACAAAG -17.27778 43.666203 -12.717094 27.255009 33.701767 59.986557 37.28386 31.853138 15.174989 42.772644 5.7248316 49.36253
ACAAAT -13.512879 34.58235 -10.514719 40.751415 21.845888 40.434826 34.543022 32.910484 3.0356514 25.883064 5.5145526 51.37985
ACAACA -12.038731 41.36325 -12.671642 26.46714 24.640226 24.268463 22.901329 27.738808 18.48118 47.42615 6.336302 32.107456
ACAACC -12.92401 35.790333 -10.621913 32.112595 42.63592 36.189663 26.01869 25.63753 24.319014 23.985113 5.847714 21.467205
ACAACG -14.358099 43.58235 -12.928784 20.442348 39.79746 40.297188 25.712065 25.654528 28.785059 46.15652 6.0489664 25.01494
ACAACT -10.348323 34.823174 -10.608103 34.011124 25.993427 19.886768 22.689798 26.39402 14.631084 28.558725 6.3865294 28.37276
ACAAGA -12.982516 37.8181 -10.913487 23.878914 32.493786 32.547462 24.846552 28.466967 21.576487 43.1546 5.9017286 37.70611
ACAAGC -13.892383 32.121117 -8.819531 29.564838 50.652924 44.675617 28.190788 26.436897 27.52571 19.60799 5.40941 27.203007
ACAAGG -15.325518 39.991116 -11.10968 17.692722 47.55943 48.79934 27.578938 26.49794 31.821812 41.46015 5.481328 30.604809
ACAAGT -11.316692 31.153965 -8.805722 31.463364 34.010426 28.37272 24.861904 27.193384 17.837776 24.181602 5.948228 34.108562
ACAATA -12.529509 39.7647 -12.178078 21.724644 48.80495 21.113628 19.534922 27.114763 42.26677 53.18394 6.0494013 19.042038
ACAATC -13.456294 34.085484 -10.19033 27.562344 66.6152 33.563007 23.789467 25.195665 48.21474 30.333796 5.6212454 9.007901
ACAATG -14.872511 41.937714 -12.374272 15.538451 63.8706 37.365505 22.267305 25.145735 52.51209 51.4895 5.629005 11.94075
ACAATT -10.87418 33.095776 -10.072914 29.321056 50.27536 16.996819 19.561789 25.884382 38.496304 34.194286 6.064483 15.474057
ACACAA -13.5199 29.759783 -15.398276 37.44922 9.374457 58.61667 67.747635 29.43439 10.653001 57.644848 6.1868997 42.25282
ACACAC -14.429769 24.062798 -13.304321 43.13514 27.53359 70.74483 71.091866 27.404322 16.602217 34.09825 5.6945806 31.749727
ACACAG -15.862905 31.932795 -15.594472 31.263031 24.4401 74.868546 70.48001 27.46536 20.898321 55.9504 5.766499 35.151524
ACACAT -11.854079 23.095648 -13.290513 45.03367 10.891101 54.441933 67.76297 28.160805 6.914282 38.67186 6.2333965 38.65528
ACACCA -10.599427 29.756865 -15.591792 30.433594 15.221353 38.936184 55.866184 23.289745 24.102627 60.708763 6.38124 17.770996
ACACCC -11.509133 24.056927 -13.4992895 36.120625 33.374256 51.071644 59.214836 21.249762 30.042353 37.16287 5.889381 7.2561965
ACACCG -12.942267 31.92692 -15.789438 24.2485 30.28076 55.195362 58.60299 21.310799 34.338455 59.01503 5.961299 10.657994
ACACCT -9.233662 23.237326 -13.576582 37.745815 17.151205 35.800873 55.39817 22.134418 20.324602 42.39304 6.041608 14.191106
ACACGA -11.567639 26.0847 -13.790863 27.886936 23.232117 47.429447 58.042706 24.079193 27.299822 56.332355 5.9433966 23.495098
ACACGC -12.477507 20.387716 -11.696908 33.572857 41.391254 59.55761 61.38694 22.049122 33.24904 32.78575 5.4510794 12.992003
ACACGG -13.910642 28.257706 -13.987056 21.700737 38.297768 63.681328 60.775093 22.11017 37.545147 54.63791 5.522995 16.3938
ACACGT -9.901814 19.420557 -11.683099 35.471375 24.748764 43.254704 58.05805 22.805613 23.56111 37.35936 5.989896 19.897556
ACACTA -11.114632 28.031296 -15.055454 25.732658 39.543285 35.99561 52.731075 22.726992 47.9901 66.3617 6.0910683 4.831032
ACACTC -12.024497 22.334318 -12.961501 31.418587 57.70242 48.123764 56.075314 20.696918 53.939316 42.8151 5.598755 -5.672059
ACACTG -13.457633 30.204306 -15.251649 19.54647 54.608925 52.247486 55.46346 20.75796 58.235424 64.66725 5.6706696 -2.2702665
ACACTT -9.523573 21.403904 -12.970378 33.249046 41.164387 32.077908 52.624947 21.485327 44.243965 47.55221 6.041298 1.2408023
ACAGAA -12.598808 30.882662 -13.687158 32.442085 7.8136644 50.99124 54.2212 26.95193 5.716099 49.37316 5.9968224 41.543823
ACAGAC -13.426154 25.269142 -11.558838 38.22079 25.400002 62.823406 57.573483 24.799421 11.041241 25.694973 5.7336025 31.543598
ACAGAG -14.859287 33.13913 -13.848986 26.348675 22.306507 66.947136 56.96163 24.860466 15.337347 47.547123 5.8055177 34.945393
ACAGAT -10.978447 24.172548 -11.598328 39.97542 9.6458645 46.979557 54.232105 25.745802 2.3211913 30.472666 5.9171124 37.669247
ACAGCA -9.595654 30.960247 -13.847761 25.520336 13.081529 31.022085 42.352222 20.67493 18.532156 52.30619 6.420716 17.553156
ACAGCC -10.505519 25.263266 -11.753805 31.20626 31.240662 43.150234 45.696457 18.644863 24.481375 28.759596 5.928399 7.050071
ACAGCG -11.938656 33.133255 -14.043954 19.334148 28.147171 47.273956 45.0846 18.705908 28.77748 50.611744 6.0003133 10.451863
ACAGCT -8.439619 24.546669 -11.894693 32.64067 15.310421 28.59995 41.53928 19.618994 14.742809 34.448082 5.8107634 14.005479
ACAGGA -10.564026 27.291035 -12.045378 22.97258 21.098532 39.50803 44.52432 21.4743 21.738848 47.929073 5.982414 23.28897
ACAGGC -11.473891 21.594055 -9.951426 28.658504 39.25767 51.636185 47.86855 19.444227 27.688065 24.382479 5.490096 12.785876
ACAGGG -12.907026 29.464045 -12.241573 16.786385 36.164177 55.759914 47.256702 19.505272 31.984173 46.234627 5.562012 16.187672
ACAGGT -9.048982 20.701004 -9.983371 30.419754 22.825836 35.851658 44.294685 20.265085 17.985157 29.28583 5.834756 19.706171
ACAGTA -10.147777 29.134995 -13.31386 20.961353 37.490524 28.154388 39.24704 20.215616 42.42445 57.989285 6.0285034 4.72856
ACAGTC -11.0208845 23.540653 -11.216016 26.504238 55.56883 40.20235 42.556927 18.09202 48.37834 34.411823 5.63777 -5.8781877
ACAGTG -12.454019 31.410648 -13.506166 14.632113 52.475346 44.326077 41.94507 18.15306 52.67445 56.26398 5.709689 -2.4763942
ACAGTT -8.799693 22.681227 -11.305875 28.223957 39.014473 25.264297 38.843067 19.258768 38.44987 39.49578 5.600372 1.2527944
ACATAA -12.695111 34.044117 -12.388697 29.095264 10.391457 45.144833 41.382202 27.2195 3.742481 43.446575 5.645038 44.03217
ACATAC -13.358396 28.596521 -10.192051 35.058422 26.838991 56.38855 44.750504 24.823574 7.8268704 19.506771 5.8372874 35.03174
ACATAG -14.791531 36.46652 -12.4822 23.186302 23.745495 60.51228 44.13866 24.884619 12.122975 41.35892 5.909204 38.433537
ACATAT -11.07475 27.334 -10.299866 36.628605 12.223651 41.133152 41.393112 26.01337 0.34757158 24.54607 5.565327 40.157597
ACATCA -9.598249 33.985615 -12.399203 22.526577 14.883617 25.032804 29.983452 20.894573 15.526997 45.93661 6.452313 21.368917
ACATCC -10.437761 28.59065 -10.387017 28.043888 32.679653 36.715374 32.87348 18.669012 21.267002 22.57139 6.032088 10.538215
ACATCG -11.871687 36.395878 -12.691055 16.339424 29.797974 40.825645 32.515133 18.693478 25.704248 44.68869 6.211418 14.061206
ACATCT -8.287339 27.832514 -10.502258 29.55524 16.631317 21.874516 28.853632 19.607061 11.536834 28.075035 6.023289 17.485355
ACATGA -10.496267 30.61842 -10.67859 19.810204 22.53752 33.073177 31.701336 21.498457 18.524473 41.74087 6.086098 26.777111
ACATGC -11.406132 24.921438 -8.584637 25.496132 40.69665 45.201336 35.04558 19.46838 24.473692 18.19427 5.593785 16.27402
ACATGG -12.839269 32.791424 -10.874786 13.62401 37.60316 49.325058 34.433723 19.529423 28.7698 40.046425 5.665699 19.675808
ACATGT -8.8967 23.986849 -8.590933 27.334332 24.146736 29.126223 31.609035 20.253157 14.779183 22.912783 6.0472827 23.186052
ACATTA -10.109788 32.379246 -11.950221 17.91484 38.99498 21.784481 26.451868 20.315516 39.20629 51.826065 6.0499163 8.300654
ACATTC -10.953126 26.86804 -9.84923 23.34187 57.007816 33.767494 29.733952 18.11617 45.163963 28.223623 5.7414637 -2.3900454
ACATTG -12.386261 34.73803 -12.139378 11.469739 53.91433 37.89122 29.122091 18.177216 49.460083 50.075775 5.813377 1.0117481
ACATTT -8.666451 25.95838 -9.918155 25.16026 40.251495 18.643959 26.17831 19.325224 35.186295 33.09248 5.755892 4.786288
ACCAAA -16.183722 40.41497 -13.167229 34.98572 24.16281 47.493515 33.807114 30.380608 3.722051 48.959614 5.460497 55.642902
ACCAAC -16.866594 34.947556 -10.978743 40.92684 40.746353 58.80751 37.173504 28.013758 7.9546313 25.05106 5.598346 46.52306
ACCAAG -18.299732 42.81755 -13.268891 29.05473 37.652863 62.93124 36.561646 28.0748 12.250733 46.903206 5.6702623 49.92485
ACCAAT -14.563354 33.704853 -11.078397 42.519054 25.995 43.481823 33.818016 29.17448 0.32714388 30.059118 5.3807845 51.76832
ACCACA -13.047616 40.58052 -13.246937 28.245342 28.504484 27.103176 22.058565 23.92264 15.497753 51.612804 6.283715 32.596893
ACCACC -13.945958 34.94168 -11.17371 33.912308 46.587017 39.13433 25.296473 21.859198 21.394768 28.115679 5.793146 22.029528
ACCACG -15.379095 42.811672 -13.463859 22.040188 43.493526 43.25806 24.684622 21.920237 25.69087 49.967834 5.8650603 25.431316
ACCACT -11.370269 33.97452 -11.159901 35.810825 29.944523 22.831444 21.967585 22.615686 11.706836 32.689285 6.3319592 28.935076
ACCAGA -14.004465 36.969448 -11.465283 25.678627 36.44489 35.49214 24.124336 24.688635 18.652239 47.285164 5.8471565 38.268425
ACCAGC -14.914332 31.272472 -9.371328 31.364552 54.60402 47.62029 27.468573 22.658566 24.601458 23.738562 5.3548436 27.765339
ACCAGG -16.347467 39.14246 -11.661477 19.49244 51.51053 51.74401 26.856718 22.719604 28.897562 45.590714 5.426759 31.167131
ACCAGT -12.338642 30.305315 -9.357519 33.263065 37.96153 31.317398 24.13968 23.415056 14.913526 28.312172 5.893659 34.670895
ACCATA -13.551458 38.916054 -12.729876 23.52435 52.75605 24.058306 18.81271 23.336424 39.342514 57.31451 5.9948373 19.604362
ACCATC -14.483917 33.24279 -10.777751 29.41296 70.44926 36.615437 23.372608 21.454561 45.29007 34.697975 5.5881934 9.727533
ACCATG -15.89446 41.08906 -12.926069 17.338158 67.821686 40.31018 21.545092 21.3674 49.587837 55.620064 5.5744333 12.503066
ACCATT -11.9531 32.221127 -10.638827 31.185787 53.975464 20.255978 18.9021 22.3406 35.399677 38.234333 5.8393354 16.196838
ACCCAA -14.541849 28.91113 -15.950073 39.248928 13.325556 61.56135 67.025406 25.656054 7.7287498 61.775414 6.1323266 42.81514
ACCCAC -15.451717 23.21415 -13.85612 44.934856 31.484684 73.68951 70.36966 23.625984 13.677962 38.228813 5.6400084 32.31205
ACCCAG -16.88485 31.084139 -16.146265 33.062737 28.391195 77.81321 69.7578 23.687029 17.974075 60.08097 5.711928 35.71384
ACCCAT -12.876027 22.246996 -13.84231 46.83337 14.842198 57.3866 67.04077 24.382471 3.990032 42.80242 6.1788287 39.217598
ACCCCA -11.627567 29.022186 -16.087627 32.191025 19.41284 41.59893 54.973347 19.894188 21.54461 64.811806 6.308897 18.78512
ACCCCC -12.53108 23.208275 -14.051087 37.920326 37.32535 54.016315 58.49263 17.471422 27.118101 41.29344 5.834812 7.818514
ACCCCG -13.964217 31.078266 -16.341234 26.048206 34.231857 58.140053 57.880783 17.532463 31.414204 63.14559 5.9067287 11.220307
ACCCCT -10.082734 22.404758 -14.023231 39.669533 21.07188 37.875004 54.810577 18.628557 17.751701 46.108135 6.200721 15.147544
ACCCGA -12.589586 25.236048 -14.342659 29.686642 27.183222 50.37412 57.320488 20.30086 24.375578 60.462917 5.8888283 24.057417
ACCCGC -13.499454 19.53906 -12.248705 35.372566 45.34235 62.50227 60.664726 18.270792 30.32479 36.91632 5.3965077 13.554322
ACCCGG -14.932589 27.409054 -14.538854 23.50045 42.248863 66.62599 60.052864 18.331833 34.620895 58.76847 5.4684234 16.956116
ACCCGT -10.923765 18.571903 -12.234896 37.27109 28.699865 46.199383 57.335835 19.027285 20.636858 41.489933 5.9353228 20.459873
ACCCTA -12.136581 27.182648 -15.607252 27.532372 43.49438 38.940292 52.008865 18.948652 45.065845 70.49226 6.036501 5.393352
ACCCTC -13.046446 21.485664 -13.513297 33.2183 61.653515 51.068447 55.3531 16.918581 51.015064 46.945667 5.544186 -5.1097426
ACCCTG -14.479583 29.355654 -15.803445 21.346188 58.560024 55.192165 54.74124 16.979622 55.31117 68.79781 5.6161003 -1.7079473
ACCCTT -10.470758 20.518505 -13.499489 35.11682 45.011024 34.765553 52.02421 17.675072 41.327133 51.51928 6.0829973 1.7958076
ACCGAA -13.649284 30.00516 -14.250836 34.20973 11.962783 54.038227 53.496193 23.215923 3.0075994 53.549213 5.8630557 41.932293
ACCGAC -14.448099 24.420488 -12.110636 40.0205 29.351095 65.76808 56.85127 21.02109 8.116991 29.825537 5.6790323 32.10592
ACCGAG -15.881235 32.290485 -14.400785 28.148388 26.257605 69.89181 56.239414 21.082129 12.413094 51.677692 5.750951 35.507713
ACCGAT -12.028921 23.295046 -12.162006 41.743065 13.794975 50.026554 53.507107 22.00979 -0.3873167 34.648724 5.783345 38.05772
ACCGCA -10.6175995 30.111595 -14.399557 27.320042 17.032629 33.96675 41.63 16.8966 15.607911 56.436764 6.3661456 18.115477
ACCGCC -11.527468 24.414616 -12.305604 33.00597 35.191765 46.0949 44.97424 14.866526 21.557125 32.89016 5.8738294 7.612386
ACCGCG -12.960604 32.284603 -14.595752 21.133854 32.098278 50.218628 44.36239 14.927569 25.85323 54.742313 5.945748 11.014183
ACCGCT -9.283051 23.610275 -12.392319 34.602898 19.012104 30.930902 41.107117 15.764448 11.836294 38.188248 5.986068 14.550336
ACCGGA -11.585974 26.442385 -12.597177 24.77229 25.049631 42.45271 43.8021 17.695967 18.814598 52.059647 5.927844 23.85129
ACCGGC -12.49584 20.745401 -10.5032215 30.458218 43.208767 54.580868 47.14634 15.665896 24.763817 28.513037 5.4355264 13.348198
ACCGGG -13.928974 28.615395 -12.79337 18.586102 40.115273 58.70459 46.53449 15.726935 29.059914 50.36519 5.507445 16.749996
ACCGGT -9.92015 19.778244 -10.489412 32.356735 26.566275 38.277966 43.817448 16.422386 15.075885 33.08665 5.9743414 20.253748
ACCGTA -11.132965 28.388985 -13.861768 22.61802 41.36079 31.018873 38.490475 16.343761 39.50487 62.08899 6.0755186 5.187226
ACCGTC -12.042831 22.692003 -11.767814 28.303944 59.519928 43.147022 41.834717 14.313688 45.454098 38.54239 5.5832043 -5.3158703
ACCGTG -13.475967 30.561993 -14.057961 16.431824 56.42644 47.270752 41.22286 14.374728 49.7502 60.394543 5.6551175 -1.9140749
ACCGTT -9.700098 21.718838 -11.8176155 30.251202 42.465168 27.909739 38.473423 15.638774 35.37098 43.145416 5.6050954 1.9581133
ACCTAA -13.74559 33.16661 -12.9523735 30.8629 14.540568 48.191826 40.657196 23.483494 1.0339787 47.622627 5.5112696 44.420643
ACCTAC -14.380341 27.747875 -10.743847 36.858124 30.790085 59.333218 44.02829 21.045242 4.902623 23.637335 5.782721 35.594055
ACCTAG -15.813477 35.617863 -13.033997 24.986012 27.696592 63.456947 43.416443 21.106281 9.198725 45.489483 5.854634 38.99585
ACCTAT -12.125227 26.456495 -10.8635435 38.396244 16.372765 44.180145 40.668114 22.277363 -2.3609352 28.72213 5.4315577 40.546066
ACCTCA -10.588696 33.24293 -12.962881 24.221622 18.729902 27.858946 29.165558 17.033276 12.569552 50.081738 6.463942 21.820364
ACCTCC -11.45971 27.742002 -10.938815 29.843601 36.63075 39.660053 32.151264 14.890681 18.34275 26.701954 5.977517 11.100532
ACCTCG -12.892846 35.611988 -13.228964 17.971481 33.53726 43.78378 31.53941 14.951725 22.638857 48.554104 6.049433 14.502322
ACCTCT -9.130771 26.896124 -10.999884 31.517475 20.333002 24.205463 28.421465 15.752519 8.630313 31.815193 6.1985936 18.030214
ACCTGA -11.518215 29.769768 -11.230388 21.609913 26.488617 36.017853 30.979124 17.72012 15.600224 45.87143 6.0315304 27.339426
ACCTGC -12.42808 24.072788 -9.136435 27.295837 44.647755 48.146004 34.323364 15.690046 21.549446 22.324835 5.5392156 16.836334
ACCTGG -13.861216 31.942778 -11.426582 15.423726 41.55426 52.26973 33.71151 15.75109 25.845547 44.176987 5.611131 20.238125
ACCTGT -9.85239 23.105629 -9.122624 29.194359 28.005259 31.843111 30.99447 16.446535 11.861513 26.898443 6.078029 23.741888
ACCTTA -11.065207 31.716368 -12.49498 19.455639 42.799778 24.584023 25.667496 16.367912 36.2905 55.900787 6.179208 8.6753645
ACCTTC -11.975806 26.019054 -10.401208 25.14241 60.955696 36.716213 29.012537 14.340854 42.2375 32.353024 5.6846976 -1.8256626
ACCTTG -13.408207 33.889378 -12.6911745 13.269452 57.86542 40.83589 28.39988 14.398882 46.535824 54.206333 5.7588067 1.574069
ACCTTT -9.566853 24.995987 -10.429895 27.187504 43.702187 21.289398 25.808668 15.705224 32.107395 36.74212 5.760618 5.491608
ACGAAA -19.11622 41.7314 -14.993322 41.53037 33.88966 55.504227 36.16233 28.561264 2.5763376 59.571106 5.485904 59.851856
ACGAAC -19.80953 36.25343 -12.809184 47.459747 50.545643 66.85566 39.5277 26.209892 6.8878508 35.679195 5.59478 50.66841
ACGAAG -21.242664 44.123425 -15.099332 35.58764 47.45216 70.97937 38.91585 26.270933 11.183957 57.53134 5.666699 54.07021
ACGAAT -17.495855 35.021282 -12.904493 49.063698 35.721855 51.492535 36.173237 27.355131 -0.8185719 40.670612 5.4061933 55.97728
ACGACA -15.979031 41.94454 -15.098106 34.759296 38.227177 35.054325 24.306438 22.085405 14.378763 62.29041 6.2818913 36.677963
ACGACC -16.888895 36.247555 -13.004152 40.44523 56.38631 47.182476 27.650677 20.055334 20.327982 38.743813 5.7895765 26.174875
ACGACG -18.322031 44.117546 -15.294299 28.573101 53.292824 51.306187 27.038822 20.116379 24.624098 60.595966 5.861496 29.576674
ACGACT -14.313209 35.2804 -12.990341 42.343735 39.74382 30.879581 24.321785 20.811825 10.640053 43.317425 6.3283925 33.080437
ACGAGA -16.947403 38.275326 -13.295724 32.211533 46.244186 43.54027 26.478539 22.884768 17.58546 57.913296 5.843593 42.413776
ACGAGC -17.857267 32.578346 -11.201771 37.897465 64.40331 55.66843 29.822775 20.8547 23.534672 34.366695 5.3512754 31.910686
ACGAGG -19.290405 40.448338 -13.4919195 26.025345 61.30983 59.792156 29.21092 20.915743 27.830784 56.21884 5.423192 35.312485
ACGAGT -15.281578 31.611189 -11.187963 39.795986 47.760822 39.365536 26.493883 21.611187 13.846741 38.940304 5.8900886 38.81624
ACGATA -16.494394 40.22193 -14.560317 30.057266 62.555347 32.106445 21.16691 21.532564 38.275734 67.942635 5.991269 23.749722
ACGATC -17.427868 34.54973 -12.614558 35.954967 80.227646 44.682827 25.781374 19.657343 44.223213 45.36785 5.5884733 13.900992
ACGATG -18.837397 42.39494 -14.756511 23.87107 77.62099 48.358307 23.899286 19.563534 48.521057 66.24819 5.57087 16.648424
ACGATT -14.959609 33.497986 -12.48502 37.791233 63.49468 28.655062 21.32607 20.798471 34.14054 48.76145 5.6454196 20.521248
ACGCAA -17.484785 30.217007 -17.780514 45.781837 23.124847 69.60949 69.379616 23.85219 6.661969 72.40354 6.128761 46.960495
ACGCAC -18.394655 24.520023 -15.686562 51.467773 41.28399 81.73764 72.723854 21.822124 12.611185 48.85694 5.6364455 36.457405
ACGCAG -19.82779 32.39002 -17.97671 39.595646 38.190483 85.86136 72.112 21.883165 16.907288 70.7091 5.7083635 39.859196
ACGCAT -15.818963 23.552866 -15.672751 53.366283 24.641489 65.434746 69.39497 22.578611 2.9232526 53.430553 6.1752596 43.362953
ACGCCA -14.5911045 30.707327 -17.731853 38.583244 30.012085 48.70891 56.75978 19.364048 21.696526 75.34839 6.246189 24.433935
ACGCCC -15.48997 24.807838 -15.737329 44.34429 47.7441 61.337986 60.40717 16.653883 26.995031 51.850674 5.785449 13.128084
ACGCCG -16.9231 32.677696 -18.027542 32.472225 44.650333 65.46203 59.79551 16.71449 31.290716 73.70284 5.857384 16.529367
ACGCCT -12.924569 24.03008 -15.630526 46.172558 31.501093 44.56659 56.79474 18.046455 17.915705 56.378567 6.2947316 20.784449
ACGCGA -15.532523 26.541914 -16.1731 36.219547 36.982506 58.422264 59.674694 18.496998 23.30879 71.091034 5.8852563 28.202759
ACGCGC -16.44239 20.844936 -14.079148 41.90548 55.14165 70.550415 63.018932 16.466927 29.258007 47.54445 5.3929434 17.699673
ACGCGG -17.875528 28.714926 -16.369293 30.033367 52.048164 74.67414 62.407078 16.527973 33.554115 69.39659 5.4648576 21.101473
ACGCGT -13.866702 19.87778 -14.065337 43.804 38.49916 54.247524 59.690037 17.22342 19.570076 52.118057 5.9317565 24.605228
ACGCTA -15.081511 28.525236 -17.419664 34.05167 53.371124 46.897602 54.308098 17.268103 44.11705 81.111534 6.02721 9.6842575
ACGCTC -15.989382 22.791538 -15.343739 39.75121 71.4528 59.116585 57.707302 15.11472 49.948284 57.573795 5.540617 -0.96438897
ACGCTG -17.422516 30.66153 -17.633886 27.879093 68.35932 63.240303 57.09545 15.175761 54.244396 79.42596 5.61253 2.4374044
ACGCTT -13.420911 21.845285 -15.319807 41.647743 54.83399 42.788036 54.349583 15.974942 40.31827 62.132282 6.057982 6.051484
ACGGAA -16.581787 31.321585 -16.076931 40.754375 21.689627 62.048943 55.851418 21.396574 1.8618789 64.1607 5.8884606 46.141247
ACGGAC -17.391039 25.726364 -13.941079 46.553413 39.150394 73.81622 59.205475 19.217222 7.0502067 40.45368 5.6754622 36.25127
ACGGAG -18.824175 33.596355 -16.231226 34.68129 36.056904 77.93994 58.593616 19.278267 11.3463125 62.305832 5.7473803 39.653065
ACGGAT -14.96142 24.611473 -13.9881 48.287712 23.521824 58.037254 55.862324 20.190441 -1.5330253 45.26021 5.808755 42.266674
ACGGCA -13.575462 31.69227 -16.09507 33.751015 27.411535 41.335133 43.57282 16.015633 15.424152 66.99855 6.3197308 23.350185
ACGGCC -14.474333 25.792788 -14.100547 39.512062 45.14355 53.964214 47.220215 13.3054695 20.722658 43.50084 5.8589873 12.044343
ACGGCG -15.907457 33.662647 -16.390759 27.639996 42.049786 58.088257 46.608555 13.366075 25.018349 65.35302 5.930928 15.445624
ACGGCT -11.908931 25.01503 -13.993743 41.340324 28.900547 37.19281 43.607784 14.698039 11.643331 48.02873 6.368271 19.700699
ACGGGA -14.52891 27.748262 -14.427617 31.305202 34.848927 50.50085 46.156307 15.892098 17.747816 62.687767 5.924282 27.996641
ACGGGC -15.438777 22.051273 -12.333662 36.991127 53.00806 62.628998 49.500534 13.862033 23.697037 39.14117 5.431957 17.49355
ACGGGG -16.871912 29.921268 -14.623812 25.11901 49.914574 66.75272 48.888695 13.923074 27.993141 60.993324 5.50388 20.895353
ACGGGT -12.863088 21.084116 -12.319852 38.88964 36.365578 46.326107 46.171658 14.618521 14.009105 43.71478 5.970775 24.399103
ACGGTA -14.094493 29.686377 -15.6968155 29.172142 51.078182 39.169636 40.86508 14.616428 38.381844 72.68758 6.0162935 9.384936
ACGGTC -15.031037 23.97722 -13.60947 34.888508 69.11978 51.445053 44.23859 12.696195 44.250343 49.09859 5.444097 -1.0430157
ACGGTG -16.418905 31.867872 -15.888403 22.96473 66.22574 55.318886 43.577065 12.570861 48.68342 71.022675 5.6515555 2.2312787
ACGGTT -12.600788 22.943687 -13.631697 36.952988 51.836536 35.94502 41.069324 14.051469 34.122353 53.44112 5.547443 6.272172
ACGTAA -16.678091 34.483044 -14.77847 37.407543 24.267414 56.20253 43.01242 21.664146 -0.11174312 58.23411 5.5366783 48.629597
ACGTAC -17.323277 29.053747 -12.57429 43.391037 40.589386 67.38136 46.3825 19.241377 3.83584 34.26547 5.779151 39.73941
ACGTAG -18.756414 36.92374 -14.864438 31.51892 37.49589 71.50509 45.77064 19.30242 8.131945 56.11762 5.85107 43.141216
ACGTAT -15.057728 27.772924 -12.689637 44.940884 26.099617 52.190853 43.02333 20.458014 -3.506647 39.333614 5.456966 44.755024
ACGTCA -13.492779 34.744854 -14.863211 30.690586 28.27091 35.580036 31.161228 15.116891 11.326754 60.876686 6.466266 25.748978
ACGTCC -14.402646 29.047876 -12.769258 36.376514 46.43004 47.70819 34.50547 13.08682 17.27597 37.330082 5.9739504 15.245885
ACGTCG -15.835778 36.917862 -15.059403 24.504387 43.336555 51.831905 33.893616 13.147861 21.57208 59.182236 6.0458684 18.647676
ACGTCT -11.826957 28.080719 -12.755448 38.27502 29.787556 31.405296 31.176577 13.843308 7.5880423 41.903698 6.5127664 22.151436
ACGTGA -14.461152 31.075644 -13.060829 28.142822 36.287914 44.065998 33.333324 15.916258 14.533445 56.49957 6.027963 31.484785
ACGTGC -15.371017 25.37866 -10.966875 33.82875 54.447056 56.194145 36.677563 13.886182 20.482668 32.95297 5.535647 20.981684
ACGTGG -16.804152 33.24865 -13.257023 21.95663 51.353558 60.317863 36.065712 13.9472275 24.77877 54.80512 5.6075644 24.383486
ACGTGT -12.795328 24.411505 -10.953066 35.727272 37.804558 39.89125 33.348675 14.642676 10.794731 37.52658 6.0744634 27.887247
ACGTTA -14.045774 33.00507 -14.334744 26.03149 52.433296 32.839874 28.062996 14.7189665 35.109867 66.469124 6.062974 12.926705
ACGTTC -14.982316 27.295916 -12.2474 31.747864 70.47489 45.11529 31.43651 12.79873 40.978367 42.88014 5.4907813 2.4987433
ACGTTG -16.351145 35.19525 -14.521615 19.80236 67.66471 48.884037 30.754086 12.595022 45.469044 64.834465 5.75524 5.71942
ACGTTT -12.55207 26.262383 -12.269627 33.812347 53.191643 29.615269 28.26724 14.154005 30.850376 47.222664 5.594125 9.813935
ACTAAA -14.596166 45.10627 -12.372511 31.77327 15.797645 43.763573 38.49329 43.80882 14.139619 40.99716 5.694016 56.98131
ACTAAC -15.351076 39.566013 -10.214025 37.633404 32.881195 55.335938 41.85266 41.54884 18.916967 17.203474 5.6318936 47.42252
ACTAAG -16.784702 47.395706 -12.5128145 25.865604 29.9195 59.45129 41.398544 41.58712 23.300888 39.220608 5.770649 50.89973
ACTAAT -13.247166 38.446907 -10.3283 39.263 18.01158 40.386505 38.44744 42.549248 11.01433 23.11554 5.573674 52.38627
ACTACA -11.6714945 44.83569 -12.518911 25.520279 20.894604 23.863846 26.772398 37.80833 26.388693 43.94139 5.901931 33.857655
ACTACC -12.430443 39.560135 -10.40899 30.618877 38.721855 35.662758 29.975624 35.39428 32.357094 20.268091 5.8266916 22.928991
ACTACG -13.916011 47.02781 -12.761164 19.624073 36.603054 39.838795 30.446789 35.43085 37.224316 43.24622 6.2020564 26.96535
ACTACT -9.8547535 38.592976 -10.395181 32.51739 22.079365 19.35987 26.646734 36.150772 22.669163 24.841702 6.365507 29.834541
ACTAGA -12.488947 41.587906 -10.700563 22.38519 28.579727 32.020565 28.803493 38.223717 29.614569 39.437576 5.880706 39.16789
ACTAGC -13.398814 35.890923 -8.60661 28.071121 46.73887 44.14872 32.147728 36.19364 35.56378 15.890974 5.388389 28.664799
ACTAGG -14.832384 43.725266 -10.904403 16.29129 43.76196 48.265034 31.675415 36.234547 39.93758 37.88908 5.5194325 32.13331
ACTAGT -10.823125 34.923763 -8.592801 29.969635 30.096373 27.84583 28.818838 36.950134 25.875856 20.464582 5.9272027 35.570343
ACTATA -12.229872 42.99297 -11.985671 20.985645 45.317364 21.009802 23.673052 37.36493 50.28019 49.62972 5.492433 21.050697
ACTATC -12.96371 37.856323 -9.9836 26.077461 62.68079 33.05484 27.799488 34.958885 56.25275 26.657383 5.603962 10.497025
ACTATG -14.471157 45.450016 -12.171105 14.403602 60.15932 37.039776 26.310402 35.1371 60.53844 47.849888 5.3531384 13.662568
ACTATT -10.370118 36.87037 -9.857391 27.815357 46.40754 16.411991 23.507204 35.59793 46.56613 30.493933 6.0748796 16.906286
ACTCAA -13.026334 33.529583 -15.185352 35.955498 5.460395 58.08978 71.70457 39.191143 18.69108 53.927834 6.165875 43.714603
ACTCAC -13.936198 27.832605 -13.091399 41.641422 23.619528 70.21792 75.048805 37.16107 24.640299 30.38123 5.673559 33.211506
ACTCAG -15.369333 35.70259 -15.381548 29.769306 20.526035 74.34165 74.43695 37.22211 28.936401 52.233383 5.745476 36.6133
ACTCAT -11.360509 26.865444 -13.077591 43.539936 6.9770374 53.91503 71.71992 37.91756 14.952368 34.954845 6.2123756 40.117065
ACTCCA -10.105698 33.523712 -15.3803215 28.940956 11.30106 38.416595 59.82754 33.036575 32.131214 56.992447 6.3606796 19.221071
ACTCCC -11.015564 27.82673 -13.286367 34.626892 29.460194 50.544743 63.171787 31.006506 38.080433 33.445847 5.8683596 8.7179785
ACTCCG -12.4487 35.69672 -15.576516 22.754776 26.366701 54.668472 62.55993 31.06755 42.376537 55.298004 5.9402723 12.119767
ACTCCT -8.726463 27.00043 -13.359524 36.2645 13.218106 35.227116 59.37726 31.88535 28.364037 38.64621 6.038138 15.651557
ACTCGA -11.07407 29.854498 -13.577939 26.393208 19.318058 46.902554 61.999638 33.83595 35.337902 52.61533 5.922371 24.956877
ACTCGC -11.996504 24.219881 -11.5057745 32.045628 37.474327 59.01334 65.35305 31.83345 41.33142 29.291859 5.440105 14.54542
ACTCGG -13.417071 32.027508 -13.774135 20.207016 34.383705 63.15443 64.73202 31.866913 45.583225 50.920887 5.501974 17.855581
ACTCGT -9.408247 23.190355 -11.470178 33.977654 20.834705 42.727814 62.01499 32.562363 31.599188 33.64234 5.96887 21.35934
ACTCTA -10.621061 31.801096 -14.842532 24.238934 35.629227 35.468716 56.688015 32.483738 56.02818 62.644676 6.070049 6.2928143
ACTCTC -11.53093 26.104116 -12.748576 29.924862 53.788353 47.59687 60.032257 30.453663 61.977394 39.098076 5.577734 -4.2102785
ACTCTG -12.964065 33.974106 -15.038727 18.052746 50.69487 51.720592 59.420406 30.514708 66.2735 60.95023 5.6496496 -0.80848503
ACTCTT -9.016373 25.167007 -12.75332 31.767727 37.23128 31.50415 56.604046 31.236252 52.283394 43.805386 6.037824 2.70125
ACTGAA -12.061732 34.696465 -13.456118 30.997276 3.5976179 50.308292 58.182377 36.64413 13.425164 45.58677 6.0965834 43.270718
ACTGAC -12.932585 29.03894 -11.345917 36.727074 21.485945 62.296516 61.530422 34.556175 19.079323 21.977951 5.712578 33.005383
ACTGAG -14.36572 36.908936 -13.6360655 24.85495 18.39245 66.420235 60.918568 34.61721 23.37543 43.8301 5.784496 36.407177
ACTGAT -10.441371 27.986351 -11.367287 38.53062 5.429819 46.29661 58.193287 35.438 10.030251 26.686268 6.016872 39.396152
ACTGCA -9.301238 34.173927 -13.655906 24.801662 9.605426 30.929644 46.495224 30.938385 26.544914 48.756355 5.84931 19.576546
ACTGCC -10.011951 29.03307 -11.540884 29.712543 27.326609 42.623337 49.653393 28.401611 32.519455 25.042574 5.9073763 8.511855
ACTGCG -11.542522 36.630974 -13.841339 18.21962 24.447384 46.95963 49.13258 28.710562 36.80317 46.97652 5.7100143 12.1884165
ACTGCT -7.9324217 28.309774 -11.677636 31.159355 11.377318 28.026197 45.518368 29.369925 22.782246 30.701258 5.8072934 15.46593
ACTGGA -10.070457 31.060837 -11.832457 21.478851 17.184471 38.98114 48.481255 31.23105 29.776928 44.21206 5.9613895 24.750755
ACTGGC -11.010025 25.511246 -9.789998 27.085567 35.336838 51.068256 51.847187 29.266148 35.830853 21.192814 5.4928255 14.464234
ACTGGG -12.413457 33.233845 -12.028651 15.292668 32.25012 55.233006 51.213634 29.262018 40.022247 42.517605 5.5409913 17.649456
ACTGGT -8.541783 24.46411 -9.766312 28.938435 18.892733 35.27791 48.273773 30.016016 26.024588 25.539001 5.831285 21.166624
ACTGTA -9.859616 32.331207 -13.122668 20.267033 34.028183 28.075602 43.39588 30.494984 50.436413 54.444695 5.4398136 6.769581
ACTGTC -10.527315 27.31046 -11.003096 25.01051 51.654766 39.675453 46.51386 27.848772 56.416424 30.694801 5.6167493 -4.416408
ACTGTG -12.100902 34.78825 -13.308102 13.68499 48.870144 44.10558 46.033234 28.267157 60.694668 52.66486 5.3005176 -0.6185463
ACTGTT -8.22233 26.476349 -11.071432 26.662579 35.39049 24.303223 42.745144 28.720833 46.701607 35.86043 5.806978 2.5156188
ACTTAA -12.158038 37.85792 -12.157656 27.650455 6.175412 44.46189 45.343384 36.9117 11.451542 39.66017 5.7447987 45.75908
ACTTAC -12.864825 32.36633 -9.979128 33.564697 22.92493 55.861656 48.707443 34.580326 15.864954 15.789749 5.8162646 36.49353
ACTTAG -14.30257 40.206806 -12.278438 21.778019 19.934477 59.982937 48.201622 34.62945 20.223803 37.76977 5.9266157 39.94468
ACTTAT -10.569291 31.153713 -10.074023 35.17871 8.052083 40.524143 45.347683 35.699345 8.088045 20.878384 5.660349 41.800552
ACTTCA -9.263251 37.418186 -12.292268 21.755146 11.109884 24.559732 33.70006 31.038286 23.326757 42.593143 5.870725 23.148643
ACTTCC -9.944193 32.36045 -10.174095 26.55016 28.765593 36.188477 36.830418 28.42577 29.305088 18.854368 6.011064 11.999993
ACTTCG -11.507607 39.62351 -12.531686 15.8247385 26.775106 40.53743 37.32274 28.66827 34.133587 41.843876 6.148928 16.231592
ACTTCT -7.780139 31.595617 -10.285199 28.073929 12.6982155 21.300753 32.832718 29.357994 19.576273 24.328207 6.019821 18.945803
ACTTGA -10.002699 34.38822 -10.465669 18.316479 18.62346 32.54628 35.658276 31.255201 26.562553 38.023846 6.065077 28.238894
ACTTGC -10.927225 28.763996 -8.397137 23.963306 36.77925 44.65418 39.013226 29.2573 32.56346 14.737568 5.584482 17.842693
ACTTGG -12.345974 36.5388 -10.666675 12.188369 33.762478 48.7935 38.478477 29.273502 36.85677 36.42125 5.681887 21.179585
ACTTGT -8.389502 27.749949 -8.373875 25.85302 20.213629 28.552471 35.58812 30.00409 22.818617 19.16595 6.0438104 24.6465
ACTTTA -9.821628 35.575462 -11.759029 17.220512 35.53264 21.705688 30.600727 30.594881 47.218258 48.281487 5.461228 10.34168
ACTTTC -10.459558 30.637842 -9.636307 21.848133 53.09376 33.2406 33.690887 27.872923 53.202057 24.506598 5.7204375 -0.92826486
ACTTTG -12.062912 38.03251 -11.944463 10.63847 50.374596 37.73566 33.23807 28.367054 57.476517 46.50165 5.321934 2.9535532
ACTTTT -8.07005 29.762194 -9.678994 23.577156 36.711388 17.577785 30.05949 28.7089 43.49563 29.487381 6.019507 5.995497
AGAAAA -13.126844 30.460394 -8.105296 25.250061 28.95529 29.302696 31.627884 39.32595 19.991102 53.783035 5.2149506 74.05558
AGAAAC -13.726269 25.077387 -5.882058 31.284992 44.959576 40.317383 35.00242 36.83528 23.592562 29.74141 5.5844784 65.44429
AGAAAG -15.159401 32.947372 -8.172205 19.412876 41.866093 44.441097 34.390568 36.89632 27.888672 51.593563 5.6563973 68.84608
AGAAAT -11.883405 23.868229 -6.0838833 32.656754 31.330345 26.225086 31.67089 38.053665 17.127415 36.402496 5.144355 69.04422
AGAACA -9.895766 30.768492 -8.170978 18.584534 32.641113 8.516046 19.78116 32.7108 31.083488 56.352627 6.2715964 51.453842
AGAACC -10.805634 25.071508 -6.077023 24.270466 50.80024 20.644201 23.125391 30.680725 37.0327 32.806034 5.7792773 40.950756
AGAACG -12.2387705 32.941498 -8.367172 12.398349 47.706753 24.767927 22.51354 30.74177 41.32881 54.65818 5.851191 44.352547
AGAACT -8.229945 24.104355 -6.063215 26.168991 34.157757 4.3413095 19.796503 31.437218 27.34477 37.379642 6.318094 47.856316
AGAAGA -10.864139 27.099277 -6.3685966 16.036774 40.65811 17.002005 21.953255 33.510162 34.290176 51.975506 5.833291 57.18965
AGAAGC -11.774005 21.402294 -4.274643 21.72271 58.817245 29.130156 25.297493 31.48009 40.239395 28.428911 5.340974 46.686558
AGAAGG -13.20714 29.27229 -6.5647907 9.850589 55.723763 33.253872 24.685638 31.541134 44.53551 50.28107 5.4128947 50.08836
AGAAGT -9.198318 20.435137 -4.260833 23.621231 42.174755 12.82727 21.9686 32.236584 30.55146 33.002518 5.8797884 53.59211
AGAATA -10.515288 28.986134 -7.667132 14.239394 56.745758 6.0619965 16.756395 32.452282 54.632286 61.776157 5.762635 38.726658
AGAATC -11.385356 23.319527 -5.5551815 19.641872 74.844864 18.05159 20.056494 30.392841 60.734943 38.356003 5.2959547 28.203756
AGAATG -12.895772 31.128237 -7.8818107 8.365078 71.912384 22.429028 19.530426 30.485502 64.726875 59.950687 5.335763 31.626574
AGAATT -8.955109 22.285992 -5.5774064 21.706364 57.56162 2.5515587 16.887222 31.748125 50.606953 42.698524 5.3992977 35.518948
AGACAA -11.4015255 19.040955 -10.853388 29.60709 17.538784 43.071217 64.85433 34.477585 23.366684 66.46576 6.118458 61.736366
AGACAC -12.31139 13.34398 -8.759434 35.293015 35.697918 55.199364 68.19857 32.447514 29.315899 42.919163 5.6261463 51.23328
AGACAG -13.805732 21.22226 -11.089558 23.61845 32.56872 59.421303 67.5089 32.75402 33.621365 64.7521 5.5153484 54.542885
AGACAT -9.7357 12.376817 -8.745624 37.191536 19.055424 38.89648 64.86968 33.204002 19.627972 47.492775 6.164961 58.138824
AGACCA -8.48089 19.035084 -11.048355 22.59256 23.37945 23.398037 52.977314 28.323017 36.80682 69.53038 6.313262 37.242832
AGACCC -9.390756 13.338101 -8.954401 28.278484 41.53858 35.526184 56.32155 26.292948 42.756035 45.98379 5.8209457 26.739744
AGACCG -10.823893 21.208096 -11.244549 16.406368 38.44509 39.649914 55.709698 26.35399 47.052143 67.835945 5.8928614 30.141542
AGACCT -6.9580054 12.441196 -8.983967 30.046875 25.095797 19.714708 52.76042 27.110468 33.05391 50.869995 6.1756973 33.659275
AGACGA -9.449262 15.365871 -9.245974 20.044804 31.396452 31.883991 55.14941 29.122383 40.01351 65.15327 5.8749604 42.97864
AGACGC -10.359128 9.668887 -7.1520195 25.730728 49.555588 44.012146 58.493645 27.092318 45.962727 41.60667 5.3826413 32.47555
AGACGG -11.817099 17.54224 -9.458388 13.938774 46.447605 48.175716 57.850224 27.252956 50.262623 63.451015 5.3804226 35.83994
AGACGT -7.7834377 8.70173 -7.1382113 27.629246 32.913097 27.709253 55.16476 27.848808 36.274796 46.180283 5.921455 39.381104
AGACTA -9.198205 17.183208 -10.585319 18.844074 47.532894 21.318468 50.060806 28.19304 59.992435 74.6697 5.7021 24.60299
AGACTC -9.906118 11.61549 -8.416612 23.57645 65.866745 32.578304 53.18202 25.740108 66.653 51.636024 5.530319 13.811487
AGACTG -11.6163645 19.308111 -10.809334 13.012757 62.533504 37.89349 52.87619 26.381392 69.973015 72.78437 5.162404 17.609032
AGACTT -7.4151273 10.609677 -8.423785 25.571617 48.85112 16.74295 49.946083 26.845295 56.708813 56.075058 5.8155427 20.955587
AGAGAA -10.59241 20.050585 -9.188906 24.474068 16.755262 35.84742 51.31697 32.16127 19.27664 58.37264 5.6175094 60.34498
AGAGAC -11.3077755 14.550314 -7.0139494 30.378662 33.564327 47.277954 54.680187 29.842619 23.75493 34.515892 5.6651616 51.02715
AGAGAG -12.754963 22.422209 -9.313276 18.551895 30.462637 51.424217 54.050465 29.960007 28.053179 56.363625 5.6951337 54.40778
AGAGAT -8.972049 13.340466 -7.100074 32.00741 18.587461 31.83574 51.327877 30.955133 15.881731 39.47214 5.537799 56.470398
AGAGCA -7.5235796 20.211786 -9.320009 17.896835 21.205795 15.675707 39.510056 25.81508 31.082743 61.009502 6.278786 37.102837
AGAGCC -8.387142 14.544438 -7.2089157 23.364128 39.40499 27.604774 42.80316 23.688059 37.19506 37.58051 5.8599615 26.53362
AGAGCG -9.941738 22.336689 -9.544026 12.06552 36.206417 32.250732 42.325443 24.003424 41.063328 59.12418 5.7390943 30.108877
AGAGCT -6.1639614 13.750541 -7.3020773 24.941723 23.255005 12.513777 38.90153 24.595041 27.472124 42.92504 5.944855 33.473644
AGAGGA -8.445648 16.572206 -7.5004883 15.130446 29.262857 23.96258 41.631016 26.517496 34.45253 56.74998 5.913975 42.77252
AGAGGC -9.3555155 10.875224 -5.4065366 20.816376 47.421997 36.09073 44.975258 24.48742 40.401752 33.203392 5.4216557 32.26942
AGAGGG -10.78865 18.745218 -7.6966853 8.944259 44.328503 40.214455 44.363407 24.548462 44.697857 55.055546 5.4935765 35.67122
AGAGGT -6.779823 9.908068 -5.392726 22.714893 30.7795 19.787836 41.646374 25.243914 30.71382 37.776997 5.9604726 39.174976
AGAGTA -8.4737425 18.228756 -8.931249 14.8991995 44.813126 14.716113 36.850025 26.369608 53.496536 65.65001 5.1610794 24.930687
AGAGTC -9.026533 12.765224 -6.7018576 18.80363 63.186733 25.341549 39.799744 23.645845 60.71676 43.03567 5.1979756 13.954689
AGAGTG -10.794554 20.398085 -9.131145 8.956798 60.242634 30.753754 39.558567 24.15716 63.771664 63.919353 4.9128647 17.66253
AGAGTT -6.7233415 11.794144 -6.7626395 20.752434 46.080994 10.278319 36.42404 25.055363 50.576153 47.656067 5.1377153 21.282305
AGATAA -10.688716 23.21204 -7.8904414 21.127243 19.33305 30.001013 38.477978 32.42884 17.30302 52.446045 5.2657247 62.833336
AGATAC -11.240018 17.877699 -5.647162 27.21629 35.003315 40.843094 41.857212 29.866768 20.540556 28.327686 5.7688494 54.51529
AGATAG -12.805242 25.765589 -8.0235815 15.770499 31.832775 45.178753 41.077427 30.457556 24.856855 50.13836 5.4464545 57.71813
AGATAT -9.234918 16.533075 -5.8290005 28.63382 21.399565 26.378862 38.454037 31.18991 14.0736065 34.17094 5.1610713 58.516518
AGATCA -7.4516625 23.541834 -7.951683 14.714822 22.648384 9.22297 26.68249 25.830526 27.883022 54.831867 6.3890758 40.58504
AGATCC -8.319384 17.871824 -5.842129 20.201756 40.84398 21.16992 29.980177 23.712208 33.980686 31.392307 5.9636474 30.021757
AGATCG -9.869822 25.666735 -8.175698 8.883504 37.649006 25.797998 29.497871 24.01887 37.86361 52.946533 5.849383 33.591076
AGATCT -6.011682 17.036386 -5.9096413 21.8563 24.575903 5.788342 26.21588 24.583113 24.266146 36.55199 6.157381 36.95352
AGATGA -8.377889 19.899593 -6.1337013 11.968071 30.701845 17.527725 28.808037 26.541647 31.238161 50.561783 6.0176625 46.26066
AGATGC -9.287755 14.202611 -4.039747 17.654 48.86098 29.655872 32.15228 24.511576 37.187378 27.015182 5.525347 35.757565
AGATGG -10.816608 22.085573 -6.392413 6.090818 45.71166 33.933167 31.418734 24.956495 41.498123 48.837288 5.3115253 39.01519
AGATGT -6.712067 13.235455 -4.025939 19.552517 32.21849 13.352983 28.823387 25.268066 27.499445 31.588795 6.06416 42.663116
AGATTA -8.420863 21.550117 -7.567638 11.738924 46.171833 8.368473 24.043346 26.463444 50.239204 59.442116 5.2143655 28.46652
AGATTC -8.977816 16.083921 -5.3397875 15.662982 64.54184 19.011793 26.997665 23.748379 57.444782 36.817223 5.244661 17.496449
AGATTG -10.722637 23.728132 -7.7628174 5.7747955 61.68522 24.301012 26.730995 24.172604 60.57195 57.741714 5.023155 21.144735
AGATTT -6.590098 15.071296 -5.3749194 17.688744 47.31801 3.6579812 23.759287 25.121817 47.31257 41.25276 5.2932363 24.815802
AGCAAA -14.177317 29.582891 -8.668975 27.017693 33.104404 32.349686 30.902884 35.58994 17.282597 57.959087 5.0811844 74.44405
AGCAAC -14.748217 24.228731 -6.4338536 33.08471 48.910675 43.262054 34.280205 33.056957 20.66832 33.871975 5.5299077 66.006615
AGCAAG -16.181353 32.098724 -8.724002 21.212585 45.81719 47.385773 33.668354 33.118 24.964422 55.724125 5.6018248 69.4084
AGCAAT -12.428757 23.175962 -6.5965533 34.11617 34.843254 28.400696 31.705404 34.46466 14.84066 39.299217 5.4726324 69.97208
AGCACA -10.917716 29.919838 -8.722775 20.38425 36.59221 11.460726 19.05894 28.93246 28.159235 60.483196 6.2170224 52.016155
AGCACC -11.827581 24.22286 -6.628821 26.070171 54.751343 23.588873 22.403177 26.902391 34.10845 36.936596 5.7247086 41.513073
AGCACG -13.260716 32.092846 -8.918969 14.198062 51.65785 27.7126 21.791325 26.963432 38.40455 58.788742 5.7966223 44.914864
AGCACT -9.227673 23.312983 -6.618112 27.88654 38.091217 7.297826 19.223843 27.674154 24.600563 41.555668 6.352538 48.30576
AGCAGA -11.886088 26.250628 -6.920395 17.836487 44.609215 19.94668 21.23104 29.731827 31.365927 56.106075 5.7787204 57.75197
AGCAGC -12.798646 20.582235 -4.841863 23.55009 62.75348 32.09609 24.617693 27.705004 37.317738 32.57572 5.2903743 47.219704
AGCAGG -14.229089 28.423637 -7.1165886 11.6503 59.67486 36.198555 23.963423 27.762798 41.611248 54.411625 5.358319 50.650673
AGCAGT -10.209399 19.61219 -4.814021 25.384075 46.117943 15.777254 21.313486 28.465103 27.707994 37.153484 5.865159 54.1038
AGCATA -11.616352 28.09731 -8.24124 16.208664 60.4267 9.416365 16.121153 28.954868 51.45766 65.75996 5.5023384 39.48106
AGCATC -12.464274 22.444876 -6.1210933 21.506596 78.544975 21.31075 19.396803 26.84906 57.63832 42.39605 5.0708075 28.92654
AGCATG -13.939861 30.26541 -8.441805 10.269337 75.84432 25.468903 18.83266 26.753527 61.724636 64.02502 5.2460494 32.22051
AGCATT -10.034026 21.411343 -6.143319 23.57108 61.261734 5.810721 16.227535 28.204344 47.510334 46.738575 5.1741486 36.241722
AGCCAA -12.423474 18.192308 -11.405185 31.4068 21.48988 46.015892 64.13212 30.699253 20.442432 70.59632 6.063889 62.29869
AGCCAC -13.333339 12.495324 -9.311231 37.092728 39.64902 58.14404 67.47635 28.669186 26.391653 47.04973 5.5715723 51.795597
AGCCAG -14.9184475 20.385908 -11.700638 25.711117 36.46688 62.511597 66.67129 29.339724 30.711 68.854164 5.189818 54.968487
AGCCAT -10.757649 11.528166 -9.297421 38.991245 23.006523 41.84115 64.14746 29.425673 16.703722 51.623344 6.110388 58.70115
AGCCCA -9.502839 18.186436 -11.600151 24.392265 27.330545 26.342705 52.255096 24.544691 33.88257 73.66095 6.2586946 37.805157
AGCCCC -10.412704 12.48945 -9.506198 30.078194 45.489685 38.47086 55.599342 22.51462 39.831787 50.114353 5.7663755 27.302067
AGCCCG -11.8458395 20.359446 -11.796347 18.206078 42.396187 42.59458 54.98748 22.57566 44.127895 71.9665 5.8382955 30.70386
AGCCCT -7.8370147 11.522293 -9.492388 31.976715 28.847185 22.167973 52.270447 23.271107 30.143854 54.687954 6.3051887 34.207615
AGCCGA -10.471211 14.51722 -9.7977705 21.84451 35.34755 34.828663 54.427197 25.344055 37.08926 69.28382 5.8203874 43.540962
AGCCGC -11.381078 8.820233 -7.7038164 27.530445 53.506676 46.956818 57.77144 23.313986 43.03848 45.73723 5.3280697 33.037872
AGCCGG -12.929814 16.705893 -10.069469 16.03144 50.34576 51.266026 57.012608 23.838655 47.35226 67.553085 5.054891 36.26555
AGCCGT -8.8053875 7.853075 -7.6900067 29.428959 36.864193 30.653927 54.442543 24.070475 33.350544 50.310844 5.8668823 39.943424
AGCCTA -10.242295 16.320387 -11.14531 20.748322 51.464832 24.358335 49.363033 24.461075 56.990192 78.744026 5.6123853 25.196932
AGCCTC -10.928068 10.766836 -8.968409 25.37616 69.81784 35.52298 52.459797 21.961771 63.72875 55.766582 5.475747 14.373804
AGCCTG -12.660454 18.445292 -11.369327 14.9170065 66.46545 40.933365 52.178425 22.649412 66.97078 76.858696 5.0726967 18.202969
AGCCTT -8.494044 9.735029 -8.989699 27.436344 52.55122 20.002113 49.28639 23.301508 53.612183 60.1151 5.590397 21.678362
AGCGAA -11.642887 19.17308 -9.752582 26.2417 20.904371 38.89441 50.591957 28.425262 16.568134 62.54869 5.4837375 60.733444
AGCGAC -12.329726 13.701664 -7.565747 32.17837 37.515423 50.222622 53.95797 26.06429 20.830677 38.646454 5.610592 51.589474
AGCGAG -13.867681 21.585857 -9.924356 20.644573 34.360794 54.514526 53.212856 26.54571 25.142807 60.465694 5.369599 54.833385
AGCGAT -10.022524 12.462964 -7.6637506 33.77504 22.736574 34.88273 50.602875 27.219128 13.173225 43.648193 5.4040303 56.85888
AGCGCA -8.56767 19.34896 -9.880004 19.801086 25.137737 18.715584 38.812294 22.083107 28.080502 65.08384 6.1890707 37.696777
AGCGCC -9.40909 13.695786 -7.760712 25.163845 43.35609 30.549452 42.08094 19.909723 34.270813 41.71107 5.8053927 27.09594
AGCGCG -10.985829 21.473864 -10.104018 13.969771 40.13836 35.290604 41.627678 20.27145 38.06109 63.198505 5.6493826 30.702814
AGCGCT -7.007396 12.814149 -7.7997036 26.903961 26.956692 14.844733 38.469357 20.740494 24.565598 46.665203 6.120156 34.018505
AGCGGA -9.467595 15.72356 -8.052288 16.930153 33.213955 26.90725 40.90881 22.739159 31.528284 60.880558 5.8594093 43.334835
AGCGGC -10.377461 10.026576 -5.958332 22.616081 51.373093 39.0354 44.253036 20.709087 37.4775 37.333958 5.3670893 32.831745
AGCGGG -11.879046 17.905842 -8.293187 10.964894 48.239685 43.268948 43.554165 21.044645 41.784077 59.16461 5.2346725 36.130436
AGCGGT -7.8017735 9.059417 -5.9445233 24.514599 34.730602 22.732513 40.924156 21.465576 27.789568 41.907562 5.9059033 39.737297
AGCGTA -9.574804 17.339931 -9.505358 16.868465 48.494072 18.070477 36.214783 22.87219 50.321915 69.63382 4.90079 25.68509
AGCGTC -10.105454 11.890576 -7.2677712 20.668354 66.88683 28.60072 39.140053 20.102062 57.62013 47.07572 4.97283 14.677468
AGCGTG -11.838644 19.53526 -9.691137 10.861056 64.17457 33.79362 38.860798 20.42519 60.769424 67.99368 4.823151 18.256474
AGCGTT -7.6752067 10.857043 -7.289996 22.73283 49.60358 13.100685 35.970787 21.457338 47.49214 51.41825 5.0761733 21.99266
AGCTAA -11.739191 22.334534 -8.454121 22.894878 23.482164 33.048008 37.75298 28.69283 14.594514 56.6221 5.1319566 63.221798
AGCTAC -12.261966 17.029053 -6.198959 29.015995 38.95442 43.787766 41.134995 26.088432 17.616306 32.458252 5.714284 55.077614
AGCTAG -13.917957 24.929232 -8.634663 17.86317 35.730934 48.26906 40.239822 27.04325 21.946487 54.240425 5.12092 58.14373
AGCTAT -10.118829 15.624418 -6.365289 30.428219 25.314363 29.036327 37.763893 27.486696 11.199608 37.721603 5.052244 59.34723
AGCTCA -8.495751 22.679007 -8.511676 16.619083 26.580326 12.262846 25.984726 22.098557 24.88078 58.906185 6.2993636 41.178978
AGCTCC -9.341332 17.023174 -6.3939257 22.001465 44.79507 24.114595 29.257965 19.933878 31.056438 35.52287 5.909078 30.584076
AGCTCG -10.913915 24.803911 -8.735691 10.787765 41.580944 28.837877 28.800104 20.2869 34.86136 57.020855 5.7596664 34.185024
AGCTCT -6.855113 16.099995 -6.4072666 23.818527 28.277588 8.119293 25.783709 20.728567 21.359623 40.292145 6.332684 37.498383
AGCTGA -9.3998375 19.050945 -6.6854987 13.767783 34.65295 20.4724 28.085825 22.763313 28.313911 54.692352 5.9630914 46.82298
AGCTGC -10.309703 13.353963 -4.5915456 19.453709 52.81207 32.600548 31.430058 20.733244 34.263126 31.145752 5.4707766 36.319885
AGCTGG -11.929325 21.24922 -7.003493 8.183495 49.609814 37.023483 30.581125 21.542194 38.58775 52.939346 4.9859934 39.440804
AGCTGT -7.734015 12.386803 -4.5777354 21.352226 36.169586 16.297659 28.101175 21.48973 24.575195 35.71936 6.009589 43.225437
AGCTTA -9.521926 20.661293 -8.141747 13.708186 49.852776 11.722839 23.40811 22.966026 47.064587 63.425938 4.954073 29.220917
AGCTTC -10.056732 15.209274 -5.9056997 17.527706 68.24194 22.270952 26.33797 20.204597 54.348156 40.85727 5.019515 18.21923
AGCTTG -11.766729 22.865307 -8.32281 7.679056 65.61716 27.340897 26.033234 20.440641 57.569702 61.816036 4.9334393 21.738684
AGCTTT -7.626486 14.17574 -5.927925 19.592186 50.9587 6.770924 23.168701 21.559875 44.22017 45.1998 5.1228576 25.534422
AGGAAA -17.092014 30.94142 -10.497347 33.50196 42.818295 40.36909 33.368023 33.781822 16.269209 68.60398 5.1720157 78.57006
AGGAAC -17.691153 25.534605 -8.264295 39.61762 58.709976 51.310192 36.634403 31.25309 19.601542 44.500107 5.526342 70.15196
AGGAAG -19.124287 33.404594 -10.554444 27.745499 55.61648 55.43391 36.022556 31.31413 23.897642 66.35225 5.598256 73.55375
AGGAAT -15.276902 24.69188 -8.433445 40.374687 44.508682 36.45264 34.58147 32.698498 14.321965 50.06902 5.808047 73.78798
AGGACA -13.860651 31.225716 -10.553216 26.917152 46.39151 19.508862 21.413147 27.1286 27.092459 71.11132 6.2134624 56.161522
AGGACC -14.770519 25.52873 -8.459264 32.603092 64.55064 31.637018 24.75738 25.098528 33.041668 47.564724 5.7211375 45.65843
AGGACG -16.203651 33.398724 -10.749411 20.730965 61.457153 35.760735 24.145529 25.159561 37.33778 69.41687 5.793065 49.060226
AGGACT -12.086258 24.81834 -8.459351 34.133327 47.829094 15.387209 22.098892 25.92348 24.1608 52.342113 6.658974 52.058056
AGGAGA -14.829026 27.556505 -8.750836 24.3694 54.408512 27.994816 23.58524 27.92796 30.299145 66.7342 5.7751575 61.89733
AGGAGC -15.755303 22.033768 -6.750877 30.223984 72.47702 40.252514 27.18798 25.917698 36.264156 43.2866 5.3070216 51.216442
AGGAGG -17.172028 29.729511 -8.94703 18.183212 69.474144 44.24669 26.317625 25.958933 40.54447 65.03976 5.354757 54.796036
AGGAGT -13.067982 21.11755 -6.6552596 31.63087 55.855816 23.866638 24.18853 26.714428 27.268225 47.93993 6.1715956 57.85609
AGGATA -14.534242 29.430897 -10.05463 22.395676 70.02258 17.434412 18.44726 27.227177 50.510685 76.51215 5.449086 43.67891
AGGATC -15.470785 23.721735 -7.9672866 28.112053 88.06419 29.709831 21.820778 25.306934 56.37918 52.92317 4.8768916 33.250946
AGGATG -16.71902 31.676111 -10.211622 16.028942 85.78531 32.812862 21.005995 24.606731 61.23475 75.06911 5.5024295 36.13197
AGGATT -13.04054 22.688204 -7.9895115 30.176537 70.78094 14.2098 18.651505 26.662216 46.251194 57.265697 4.980234 40.56614
AGGCAA -15.366411 19.49818 -13.235627 37.939705 31.289171 54.064034 66.48633 28.895386 19.375652 81.224464 6.060323 66.44404
AGGCAC -16.276276 13.801201 -11.141673 43.625637 49.448307 66.192184 69.83056 26.865309 25.324875 57.677864 5.568009 55.94094
AGGCAG -17.878695 21.694122 -13.542384 32.2999 46.256084 70.58751 69.00349 27.605272 29.646866 79.47686 5.1345763 59.08777
AGGCAT -13.700584 12.83404 -11.127863 45.52416 32.805817 49.889282 66.50166 27.621801 15.636943 62.251472 6.1068254 62.8465
AGGCCA -12.445772 19.492304 -13.4305935 30.925179 37.12984 34.390846 54.609295 22.740822 32.81579 84.289085 6.255123 41.95051
AGGCCC -13.355639 13.795327 -11.33664 36.611107 55.28897 46.518997 57.953537 20.71075 38.765003 60.742485 5.7628107 31.447414
AGGCCG -14.788775 21.665314 -13.626788 24.738987 52.19548 50.642723 57.34168 20.771793 43.06111 82.59462 5.8347244 34.849213
AGGCCT -10.779952 12.828168 -11.322829 38.509632 38.646484 30.216108 54.624645 21.467247 29.077074 65.316086 6.301623 38.352966
AGGCGA -13.414147 15.823095 -11.628213 28.377415 45.14684 42.876804 56.7814 23.54019 36.02248 79.91196 5.816823 47.686317
AGGCGC -14.324013 10.126112 -9.534259 34.06335 63.30598 55.004948 60.125633 21.510113 41.971695 56.365364 5.324506 37.18322
AGGCGG -15.8900585 18.01411 -11.911216 22.620216 60.134956 59.341934 59.344803 22.104216 46.28812 78.17577 4.9996467 40.38483
AGGCGT -11.7483225 9.158953 -9.520449 35.96187 46.663486 38.702065 56.796745 22.266607 32.283768 60.93897 5.863321 44.088776
AGGCTA -12.994261 17.754581 -12.9010105 26.26094 61.312088 31.625801 51.506115 22.32434 56.61254 89.88869 5.8653307 29.115534
AGGCTC -13.930803 12.045421 -10.813667 31.97731 79.35368 43.901222 54.87963 20.404104 62.481037 66.2997 5.2931356 18.687584
AGGCTG -15.30414 19.942705 -13.088998 20.036957 76.52365 47.694847 54.202156 20.218952 66.95808 88.24685 5.544104 21.920954
AGGCTT -11.500555 11.011892 -10.835893 34.0418 62.070435 28.401184 51.71036 21.759384 52.353046 70.64223 5.396482 26.002777
AGGGAA -14.575386 20.489511 -11.578677 32.78635 30.631226 46.905113 52.94718 26.605911 15.42242 73.16018 5.509146 64.942406
AGGGAC -15.272661 15.007534 -9.396189 38.71128 47.314716 58.27077 56.31218 24.26042 19.763895 49.274582 5.607024 55.734825
AGGGAG -16.827927 22.894073 -11.766104 27.233345 44.14999 62.590446 55.54505 24.811266 24.078678 71.088394 5.3143563 58.952663
AGGGAT -12.955024 13.779393 -9.489846 40.319687 32.463417 42.893433 52.9581 25.399782 12.027511 54.259678 5.42944 61.06783
AGGGCA -11.442162 20.698643 -11.68511 26.010826 34.99625 26.469437 41.09091 20.13593 27.25481 75.885796 6.2941413 41.744377
AGGGCC -12.352028 15.001661 -9.591155 31.696754 53.155388 38.59759 44.435143 18.105862 33.20403 52.33921 5.8018236 31.24129
AGGGCG -13.785161 22.871655 -11.881305 19.824635 50.061897 42.721306 43.82329 18.1669 37.500134 74.19135 5.87374 34.64308
AGGGCT -9.776339 14.034505 -9.577347 33.595272 36.512894 22.294699 41.106255 18.862349 23.5161 56.91282 6.34064 38.146847
AGGGGA -12.410531 17.029432 -9.882729 23.463062 43.013252 34.955383 43.263004 20.935295 30.461504 71.50868 5.8558397 47.48019
AGGGGC -13.320398 11.332447 -7.7887754 29.148994 61.172382 47.08354 46.607246 18.905222 36.41072 47.96209 5.3635197 36.977093
AGGGGG -14.839292 19.214058 -10.134934 17.553669 58.028877 51.344864 45.88636 19.310207 40.71994 69.7873 5.179429 40.24972
AGGGGT -10.744709 10.365295 -7.7749643 31.047516 44.529896 30.780651 43.27835 19.661713 26.722788 52.535698 5.902339 43.88265
AGGGTA -12.215863 18.850706 -11.216276 21.748398 58.32945 24.898264 38.235176 20.564857 50.350037 81.0891 5.286916 29.487595
AGGGTC -13.111964 13.1674385 -9.113964 27.273808 76.40604 36.99979 41.564026 18.559938 56.360992 57.602844 4.778915 19.001883
AGGGTG -14.416127 21.075052 -11.386307 15.668439 74.29005 40.270473 40.811428 17.856117 60.98991 79.54998 5.3996325 21.879929
AGGGTT -10.681718 12.133905 -9.13619 29.338287 59.122795 21.499763 38.39476 19.915215 46.233 61.945374 4.882256 26.317074
AGGTAA -14.67169 23.650967 -10.280215 29.439526 33.20902 41.05871 40.108196 26.873478 13.448807 67.23359 5.157366 67.430756
AGGTAC -15.205434 18.334993 -8.029748 35.550625 48.7534 51.836765 43.488518 24.286705 16.549608 43.086212 5.7091227 59.222157
AGGTAG -16.878206 26.237453 -10.47641 24.451954 45.520138 56.34498 42.57201 25.308813 20.882359 64.86312 5.0656796 62.26302
AGGTAT -12.99733 17.068554 -8.198297 36.7897 35.001896 37.07343 40.452538 25.701403 10.455295 48.43444 5.2761106 63.304554
AGGTCA -11.374402 24.026033 -10.318322 22.84845 36.43524 20.034576 28.267931 20.160086 24.040447 69.6976 6.3978314 45.23252
AGGTCC -12.284269 18.32905 -8.224369 28.534378 54.59437 32.162735 31.612165 18.130013 29.989655 46.151005 5.9055123 34.72943
AGGTCG -13.717403 26.199041 -10.514515 16.662254 51.50088 36.286453 31.000317 18.191053 34.285763 68.00314 5.97743 38.13123
AGGTCT -9.70858 17.361887 -8.210559 30.4329 37.951878 15.859848 28.28328 18.886509 20.301723 50.72461 6.4443226 41.634983
AGGTGA -12.342774 20.356821 -8.515942 20.300686 44.452244 28.52054 30.440025 20.959448 27.247133 65.32048 5.9595265 50.96833
AGGTGC -13.252641 14.659839 -6.421987 25.986618 62.611374 40.648678 33.784267 18.929377 33.196354 41.773884 5.4672117 40.465233
AGGTGG -14.88957 22.557436 -8.845242 14.772281 59.39901 45.099396 32.91332 19.807749 37.523613 63.562046 4.930751 43.560074
AGGTGT -10.676951 13.692675 -6.4081764 27.885136 45.96888 24.345795 30.455376 19.685863 23.508417 46.34749 6.0060225 47.370785
AGGTTA -12.162987 22.172062 -9.852667 18.588116 59.68816 18.550632 25.428507 20.658688 47.092705 74.8812 5.3401976 33.02341
AGGTTC -13.063244 16.486134 -7.7518916 24.133148 77.761154 30.670027 28.761951 18.662468 53.089024 51.38439 4.8256 22.543644
AGGTTG -14.344212 24.405096 -10.01798 12.486428 75.732635 33.817738 27.983858 17.871563 57.790188 73.37233 5.5099196 25.362125
AGGTTT -10.632996 15.452602 -7.7741184 26.19764 60.47791 15.170007 25.592672 20.01775 42.961033 55.726917 4.9289412 29.858831
AGTAAA -12.59423 34.271725 -7.892393 23.875702 24.858448 28.633871 35.600952 48.96778 27.719744 50.03275 5.328808 75.72961
AGTAAC -13.534375 28.903606 -5.718741 29.742798 41.469906 40.495987 38.89626 46.532635 31.930386 27.157076 5.518277 66.10511
AGTAAG -14.665833 36.717175 -7.9592824 17.919159 37.95203 43.914207 38.347504 46.653076 35.926754 47.87654 5.635373 70.30786
AGTAAT -11.753224 27.71068 -5.9143114 31.21262 27.67408 26.44113 35.436012 47.657677 25.084044 34.039127 5.117624 69.826836
AGTACA -9.402197 34.538292 -7.9580545 17.090813 28.727055 7.9891453 23.738096 42.467537 39.121574 52.635612 6.2505765 52.915638
AGTACC -10.312066 28.84131 -5.864102 22.776745 46.886185 20.117306 27.08233 40.437477 45.070786 29.089008 5.7582536 42.412533
AGTACG -11.7452 36.7113 -8.154249 10.904624 43.792694 24.24103 26.470474 40.498516 49.366886 50.941154 5.8301706 45.81433
AGTACT -7.736376 27.874151 -5.8502927 24.675262 30.24369 3.81442 23.753447 41.193966 35.382847 33.662613 6.297067 49.318077
AGTAGA -10.37057 30.869083 -6.155675 14.543056 36.744057 16.47511 25.91019 43.26691 42.328255 48.25849 5.8122683 58.651436
AGTAGC -11.280437 25.172098 -4.061722 20.228981 54.90319 28.603268 29.25443 41.236835 48.27747 24.711893 5.319951 48.14834
AGTAGG -12.713572 33.042088 -6.3518696 8.35687 51.809696 32.726982 28.642574 41.297882 52.573578 46.564045 5.3918676 51.550133
AGTAGT -8.704748 24.204939 -4.047911 22.127502 38.2607 12.300373 25.925543 41.993332 38.589542 29.285503 5.858763 55.053898
AGTATA -9.990888 32.768745 -7.4474077 12.734997 52.99178 5.3565407 20.679544 42.068237 62.760254 58.10161 5.843563 40.092083
AGTATC -10.827431 27.1187 -5.3263135 18.07471 71.214355 17.169428 23.942797 39.884632 68.96774 34.74124 5.467627 29.48428
AGTATG -12.40905 34.89365 -7.6714225 6.903678 67.9924 21.931568 23.49492 40.256584 72.740845 56.216278 5.303871 33.098137
AGTATT -8.2517395 26.151543 -5.312503 19.973228 54.571854 0.8665327 20.613913 40.641125 59.27982 39.314846 6.0064425 36.389828
AGTCAA -10.907956 22.810764 -10.640466 28.113365 13.624722 42.544315 68.81128 44.234333 31.40476 62.748745 6.097441 63.198147
AGTCAC -11.817822 17.113781 -8.546513 33.799297 31.783854 54.672474 72.15551 42.20426 37.35398 39.20215 5.6051235 52.695057
AGTCAG -13.250957 24.983767 -10.836659 21.92717 28.690361 58.796192 71.54366 42.265297 41.650085 61.054295 5.6770415 56.096855
AGTCAT -9.242132 16.146622 -8.5327015 35.69781 15.141368 38.369583 68.82662 42.960747 27.666054 43.77575 6.14394 59.60061
AGTCCA -7.987322 22.804882 -10.835434 21.098835 19.465382 22.871143 56.934254 38.079777 44.844894 65.81336 6.2922335 38.704617
AGTCCC -8.897187 17.107903 -8.741479 26.784763 37.624523 34.99929 60.27848 36.0497 50.794117 42.266766 5.799921 28.201525
AGTCCG -10.330323 24.977896 -11.031628 14.912644 34.531033 39.123016 59.666626 36.11075 55.090218 64.11891 5.871835 31.603317
AGTCCT -6.4508066 16.2043 -8.766908 28.565563 21.162693 19.140955 56.739506 36.8614 41.09334 47.123165 6.172226 35.119724
AGTCGA -8.955691 19.135674 -9.033051 18.551067 27.482388 31.357098 59.106354 38.87914 48.05159 61.436253 5.8539386 44.440426
AGTCGC -9.865559 13.438692 -6.939098 24.237003 45.64152 43.48525 62.450577 36.849068 54.00081 37.88965 5.361619 33.937332
AGTCGG -11.298695 21.308683 -9.229246 12.364886 42.548035 47.608974 61.83873 36.91011 58.29691 59.741802 5.4335356 37.339123
AGTCGT -7.2898693 12.471533 -6.9252872 26.135525 28.99903 27.182354 59.121696 37.605564 44.312874 42.463257 5.900434 40.842888
AGTCTA -8.711483 20.948627 -10.37493 17.382671 43.61291 20.821001 54.0253 37.964123 68.00639 70.93529 5.6702075 26.074549
AGTCTC -9.412551 15.385292 -8.20369 22.082733 61.952682 32.051407 57.138958 35.496857 74.69108 47.919003 5.5092945 15.273273
AGTCTG -11.129644 23.07353 -10.598946 11.551362 58.613525 37.396038 56.840683 36.152473 77.98698 69.04995 5.130512 19.080591
AGTCTT -6.8368616 14.418139 -8.18988 23.981247 45.3102 15.748517 53.81007 36.25335 65.00315 52.49261 6.0481133 22.178823
AGTGAA -10.060804 23.861359 -8.980093 23.115604 12.685308 35.181778 55.292717 41.791737 27.009695 54.63049 5.734545 62.007065
AGTGAC -10.814207 18.32012 -6.801028 28.884933 29.650265 46.751053 58.637127 39.599365 31.793003 30.798868 5.6441402 52.488926
AGTGAG -12.247343 26.190104 -9.091177 17.012817 26.556774 50.874786 58.02528 39.660404 36.08911 52.65102 5.716057 55.89072
AGTGAT -8.464454 17.15978 -6.87388 30.557858 14.412887 31.22174 55.282894 40.64153 23.620083 35.79643 5.6331406 58.11903
AGTGCA -7.036857 23.977205 -9.109623 16.435436 17.285816 15.178251 43.47456 35.586163 39.096706 57.275093 6.246898 38.574394
AGTGCC -7.893573 18.314243 -6.995995 21.870407 35.490932 27.077875 46.760098 33.444805 45.23314 33.863487 5.838939 27.995398
AGTGCG -9.455017 26.10211 -9.333639 10.604117 32.286434 31.753284 46.28994 33.774506 49.077293 55.389774 5.707206 31.580437
AGTGCT -5.656764 17.513645 -7.08502 23.460411 19.321901 11.940025 42.880608 34.345974 35.511555 39.178207 5.941381 34.93409
AGTGGA -7.952078 20.342014 -7.2875667 13.636722 25.348806 23.435678 45.58796 36.274242 42.49062 53.032974 5.892957 44.234306
AGTGGC -8.861946 14.645033 -5.1936135 19.32265 43.507942 35.56383 48.932198 34.24417 48.43983 29.486372 5.4006386 33.73121
AGTGGG -10.295079 22.51502 -7.483762 7.450534 40.41444 39.68755 48.320354 34.305206 52.73593 51.33852 5.4725575 37.133003
AGTGGT -6.286257 13.677872 -5.1798034 21.221172 26.865444 19.260944 45.603306 35.000664 38.7519 34.05998 5.9394507 40.63676
AGTGTA -7.889672 22.0386 -8.696741 13.326724 41.322037 13.681267 40.70768 35.739906 61.80505 62.07028 5.420669 26.128057
AGTGTC -8.421844 16.621471 -6.4729457 17.20197 59.82775 24.178114 43.647923 32.856674 69.076614 39.53445 5.5508657 15.093667
AGTGTG -10.307831 24.163507 -8.920756 7.4954033 56.322655 30.256294 43.523064 33.928246 71.78563 60.18494 4.8809805 19.134096
AGTGTT -6.017871 15.844843 -6.560132 19.148941 43.38281 8.482512 40.25831 33.50218 59.135838 44.440704 5.9551573 22.130125
AGTTAA -10.212932 26.991896 -7.9085712 20.650341 16.75455 29.51198 42.602455 41.428997 25.281046 49.15563 5.559165 63.833645
AGTTAC -10.837382 21.664509 -5.449193 25.707954 31.217175 40.528862 45.79513 39.60561 28.668983 24.95209 5.734211 55.735638
AGTTAG -12.179583 29.517498 -7.7243886 13.850445 27.995762 44.43992 45.202297 39.684555 32.87474 46.462822 5.81975 59.37887
AGTTAT -9.07535 20.417488 -5.660034 27.128342 17.714582 26.57877 42.336254 40.807774 22.157759 31.801964 5.2042985 59.24112
AGTTCA -6.9649405 27.307251 -7.741295 13.253432 18.7284 8.725515 30.646984 35.601616 35.896984 51.097454 6.3571835 42.056602
AGTTCC -7.8258147 21.641628 -5.629206 18.70803 36.929924 20.643023 33.93712 33.46896 42.018772 27.675287 5.9426293 31.483547
AGTTCG -9.383103 29.432154 -7.9653106 7.4221134 33.729015 25.300547 33.46237 33.78996 45.877563 49.21212 5.817488 35.062637
AGTTCT -5.5044823 20.799486 -5.6925836 20.374985 20.6428 5.214588 30.194963 34.334038 32.305576 32.805157 6.1539083 38.413967
AGTTGA -7.88432 23.669397 -5.9207788 10.474346 26.78779 17.000824 32.76498 36.298397 39.276245 46.844765 5.996644 47.72244
AGTTGC -8.794187 17.972416 -3.8268263 16.160275 44.94692 29.128975 36.109215 34.268326 45.22546 23.298166 5.504323 37.21935
AGTTGG -10.227323 25.842407 -6.116974 4.288157 41.853428 33.252705 35.497368 34.329365 49.52156 45.15032 5.576241 40.621143
AGTTGT -6.2184978 17.005257 -3.8130162 18.058792 28.30443 12.826087 32.780327 35.02481 35.53753 27.871773 6.0431385 44.124905
AGTTTA -7.8177547 25.368649 -7.328414 10.144722 42.764618 7.228533 27.880114 35.755352 58.60532 55.892635 5.530957 29.610262
AGTTTC -8.514514 20.319798 -5.28939 14.457153 61.374275 18.34143 31.165024 32.442112 65.19735 33.57905 5.68629 18.911535
AGTTTG -10.235913 27.493553 -7.552429 4.3133945 57.765236 23.80356 30.695492 33.943695 68.58591 54.007305 4.9912653 22.616297
AGTTTT -6.0319667 19.515385 -5.3577237 16.49656 44.81524 2.377421 27.925356 33.035263 55.24031 38.309097 6.2005997 25.951952
ATAAAA -18.125355 45.311848 -14.228426 43.08752 34.108646 46.61625 45.877808 47.517185 21.083275 62.781357 6.0686865 75.21996
ATAAAC -19.035223 39.614872 -12.134474 48.77346 52.267773 58.7444 49.22204 45.487118 27.03249 39.234756 5.576368 64.716866
ATAAAG -20.468357 47.48486 -14.424621 36.901344 49.17429 62.868122 48.610184 45.548153 31.328598 61.08691 5.648285 68.11867
ATAAAT -16.459532 38.64771 -12.120664 50.67197 35.625282 42.44151 45.89316 46.2436 17.34456 43.80837 6.1151824 71.622406
ATAACA -15.204722 45.305977 -14.423394 36.072998 39.94931 26.943071 34.000774 41.36262 34.523407 65.84598 6.2634845 50.72643
ATAACC -16.11459 39.608997 -12.329441 41.758938 58.10844 39.07123 37.34502 39.332554 40.47262 42.299374 5.7711644 40.22333
ATAACG -17.547722 47.478992 -14.619589 29.886799 55.014954 43.19495 36.733166 39.393597 44.768734 64.151535 5.843088 43.62513
ATAACT -13.5389 38.64184 -12.315632 43.657444 41.46595 22.768337 34.016125 40.089043 30.784687 46.872982 6.3099823 47.128887
ATAAGA -16.173094 41.63676 -12.621014 33.52524 47.96631 35.42903 36.172882 42.161983 37.7301 61.468857 5.8251805 56.462223
ATAAGC -17.08296 35.93978 -10.5270605 39.21117 66.12544 47.557186 39.51712 40.13192 43.67931 37.92226 5.332865 45.95914
ATAAGG -18.516094 43.809776 -12.817208 27.339046 63.03195 51.680904 38.905262 40.19296 47.97542 59.774414 5.404784 49.360935
ATAAGT -14.507271 34.972622 -10.51325 41.10969 49.48295 31.254292 36.18823 40.88841 33.991383 42.495865 5.8716793 52.864685
ATAATA -15.720085 43.583366 -13.885606 31.370972 64.27747 23.995197 30.861246 40.80978 58.420372 71.49819 5.972854 37.798157
ATAATC -16.629951 37.886387 -11.791652 37.056896 82.43659 36.12335 34.205486 38.779713 64.36958 47.951607 5.48054 27.295078
ATAATG -18.06309 45.756374 -14.0817995 25.184772 79.34311 40.24707 33.59363 38.840755 68.66569 69.803764 5.552455 30.696869
ATAATT -14.054262 36.919228 -11.777842 38.95541 65.794106 19.820456 30.8766 39.536198 54.681656 52.52522 6.019357 34.20063
ATACAA -16.710476 33.578445 -17.1058 47.09555 24.846975 61.49823 79.07397 43.129406 26.806608 75.959114 6.110355 61.008953
ATACAC -17.620344 27.881462 -15.011851 52.781475 43.006104 73.62639 82.41819 41.09934 32.755817 52.412518 5.618034 50.505848
ATACAG -19.05348 35.751453 -17.301996 40.909355 39.912613 77.750114 81.80634 41.16038 37.05193 74.26466 5.689954 53.907646
ATACAT -15.044657 26.914307 -14.998041 54.680004 26.363613 57.3235 79.0893 41.85583 23.06789 56.986134 6.156848 57.411415
ATACCA -13.789844 33.57257 -17.30077 40.081013 30.68764 41.825054 67.19693 36.97485 40.24674 79.02373 6.305152 36.515415
ATACCC -14.699711 27.87559 -15.206817 45.76694 48.84678 53.953213 70.54117 34.944775 46.195953 55.477135 5.8128347 26.012323
ATACCG -16.132845 35.74558 -17.496965 33.89482 45.75328 58.07694 69.92931 35.005825 50.492058 77.32928 5.8847494 29.414124
ATACCT -12.124022 26.908436 -15.193008 47.665455 32.20428 37.65032 67.21227 35.701263 36.508022 60.050743 6.3516517 32.917873
ATACGA -14.758215 29.903362 -15.498389 37.533257 38.704636 50.311012 69.369026 37.774216 43.453426 74.6466 5.8668504 42.25122
ATACGC -15.668081 24.206379 -13.404437 43.219185 56.86377 62.43917 72.71327 35.744144 49.402645 51.100014 5.3745303 31.748133
ATACGG -17.10122 32.076363 -15.694584 31.347069 53.770283 66.56289 72.10141 35.805195 53.69875 72.95216 5.4464436 35.14993
ATACGT -13.092394 23.239218 -13.390625 45.11771 40.22129 46.13628 69.38438 36.50063 39.714714 55.673622 5.9133472 38.653683
ATACTA -14.305208 31.849962 -16.76298 35.37899 55.015804 38.87718 64.05741 36.422012 64.1437 84.67596 6.0145264 23.587164
ATACTC -15.215073 26.152979 -14.669029 41.064907 73.174934 51.005325 67.401634 34.391937 70.09292 61.129368 5.5222087 13.084065
ATACTG -16.64821 34.02297 -16.959175 29.192791 70.08144 55.12906 66.78979 34.45298 74.38902 82.981514 5.594125 16.485868
ATACTT -12.639385 25.185822 -14.655218 42.96343 56.532448 34.70244 64.07275 35.14843 60.404995 65.70297 6.061022 19.989622
ATAGAA -15.706865 34.784782 -15.360319 42.18119 22.713383 53.57683 65.555565 40.524513 21.245628 67.55583 6.149368 60.80282
