AAAAAA 0.5882825 -0.7922062 -0.39163044 0.20084389 0.8858348 -0.20107412 -0.7850131 0.5799285 -0.4389461 -0.20288317 -0.7884098 0.13134971 0.72982174 -0.6622695 -0.29663596 -0.25833434 0.68856996 -0.119555056 -0.8061948 0.6177319 -0.027291706 -0.320611 -0.74926054 0.16915128
AAAAAC 0.5237505 -0.688388 -0.51451826 -0.09034903 0.87852967 -0.15082885 -0.893453 0.7866305 0.056205213 -0.013140179 -0.8381669 0.21660016 0.69809455 -0.667429 -0.3968409 -0.07891386 0.81921655 -0.19418141 -0.8519702 0.7173928 0.068586744 0.0850191 -0.81100285 0.16878843
AAAAAG 0.63578755 -0.8293594 -0.3862101 -0.19183713 0.7878522 -0.14338894 -0.7995707 0.6024636 -0.21169111 -0.20683312 -0.75394315 0.1452056 0.7492382 -0.59387416 -0.33998987 -0.5044799 0.60996854 -0.10231636 -0.8421356 0.6829094 0.042566948 -0.4362285 -0.7653049 0.17612605
AAAAAT 0.578475 -0.70213926 -0.5266628 -0.4033981 0.77209765 -0.1303817 -0.9029786 0.810568 0.29021162 0.015853565 -0.8175521 0.21293515 0.73539317 -0.6882195 -0.42043796 -0.35117504 0.7061638 -0.13907444 -0.86539894 0.74199444 0.21572104 0.10384318 -0.7911068 0.17587271
AAAACA 0.5608978 -0.82280916 -0.42518845 -0.19435942 0.85320795 -0.2087628 -0.84384215 0.681319 -0.26554 -0.08357202 -0.78517586 0.15631369 0.6891377 -0.61419404 -0.3895193 -0.4408225 0.6976137 -0.015816703 -0.872459 0.737961 -0.0036706245 -0.20304799 -0.7729896 0.20365562
AAAACC 0.48310715 -0.6967499 -0.5690752 -0.38210967 0.84706444 -0.13652498 -0.9277167 0.8550352 0.27594218 0.054022886 -0.8384342 0.24426813 0.6783258 -0.68221575 -0.45541626 -0.3128438 0.7872523 -0.17874013 -0.8915425 0.78934896 0.13508889 0.16228993 -0.8115879 0.19583513
AAAACG 0.63649356 -0.82203764 -0.43051994 -0.2066425 0.8475801 -0.22659583 -0.8498622 0.69781566 -0.1573093 -0.02602242 -0.79399717 0.16276966 0.7442339 -0.62184995 -0.36874568 -0.5252686 0.6629002 -0.11775351 -0.87600535 0.74811524 0.12177806 -0.14690234 -0.77755755 0.19529426
AAAACT 0.56899244 -0.6882473 -0.55451995 -0.3749593 0.83837795 -0.17033616 -0.9257306 0.8565048 0.3412247 0.103716776 -0.8447045 0.24006827 0.71206576 -0.6829614 -0.45573404 -0.4067564 0.76821643 -0.2174888 -0.90274996 0.813595 0.287507 0.21006086 -0.8195377 0.19830689
AAAAGA 0.61506987 -0.87493193 -0.3657899 -0.27351612 0.80434364 -0.13098873 -0.7912424 0.58350796 -0.23830608 -0.08747052 -0.72952867 0.12640062 0.74882454 -0.775898 -0.30746064 -0.6465165 0.6105188 -0.039776772 -0.82760173 0.64645416 0.09040102 -0.23391178 -0.71636015 0.15823364
AAAAGC 0.56154877 -0.824555 -0.49584493 -0.5706483 0.78219026 -0.12160704 -0.90315187 0.8020671 0.30661815 0.13246152 -0.78596944 0.19460872 0.7318072 -0.80879766 -0.3844131 -0.55524683 0.7071892 -0.11970203 -0.8605675 0.7274482 0.26202944 0.22502828 -0.7541217 0.15079544
AAAAGG 0.65091866 -0.84158045 -0.38458967 -0.37362677 0.7090077 -0.11071619 -0.7971081 0.6010661 -0.19761778 -0.22204445 -0.72884065 0.14544545 0.7667996 -0.58951116 -0.36994696 -0.61664784 0.5928628 -0.036893845 -0.8442699 0.69055766 0.0022095954 -0.49549514 -0.76462626 0.1715568
AAAAGT 0.6179088 -0.7272503 -0.5269893 -0.57371444 0.69359183 -0.10336757 -0.90237325 0.8115293 0.31759533 0.050893717 -0.79706013 0.1991626 0.76715314 -0.70818 -0.4221077 -0.501445 0.64973176 -0.09398907 -0.8595745 0.73347825 0.20193769 0.10624678 -0.7735399 0.16932938
AAAATA 0.58199984 -0.88152385 -0.44197267 -0.5281747 0.7628161 -0.16734263 -0.8580229 0.7030208 -0.13364139 0.04922348 -0.74637467 0.1561469 0.7122457 -0.7169535 -0.4240296 -0.70934194 0.63832444 0.018300908 -0.887495 0.76338464 0.09186826 -0.10661915 -0.7558571 0.18976565
AAAATC 0.5424731 -0.801712 -0.5714796 -0.68611616 0.74319655 -0.13202766 -0.93197405 0.8640743 0.4777061 0.23049845 -0.7978586 0.21876536 0.7131585 -0.7921104 -0.4710308 -0.6740369 0.6892899 -0.13147375 -0.9027484 0.8086009 0.29473984 0.30617636 -0.77337015 0.1810098
AAAATG 0.6597204 -0.87314117 -0.4406769 -0.5049951 0.76943076 -0.15766759 -0.857433 0.7099651 -0.036467485 0.096731685 -0.755613 0.15859288 0.7632303 -0.6966223 -0.39833468 -0.7248403 0.6145939 -0.027854463 -0.8838296 0.76283973 0.18968078 -0.062979415 -0.758506 0.17886996
AAAATT 0.6135566 -0.781589 -0.56163436 -0.64637905 0.7514196 -0.13094805 -0.9282856 0.8627866 0.49248436 0.24990782 -0.8078848 0.21507825 0.7415602 -0.77575135 -0.4723943 -0.6722755 0.68584764 -0.13459934 -0.9068907 0.82146746 0.39230627 0.33464772 -0.7832387 0.18075053
AAACAA 0.5832265 -0.84737784 -0.35433584 -0.24855433 0.8265469 -0.22405076 -0.80273557 0.60515296 -0.2661215 -0.09453825 -0.74678963 0.12757553 0.71854526 -0.73466194 -0.30093786 -0.56911856 0.64614666 -0.15301065 -0.8362856 0.6654873 0.051372338 -0.22068869 -0.7375627 0.16792142
AAACAC 0.51569587 -0.78553736 -0.48535535 -0.533618 0.81072956 -0.20483786 -0.91064817 0.8169885 0.26127124 0.10076847 -0.8020746 0.2031412 0.7060271 -0.7633134 -0.36832455 -0.49967575 0.7392905 -0.20948443 -0.86720306 0.74134177 0.216313 0.19460046 -0.7727873 0.15640663
AAACAG 0.62551343 -0.83537066 -0.39628023 -0.31785262 0.7487073 -0.055247083 -0.80311537 0.6093553 -0.22449079 -0.10952501 -0.72868216 0.14447975 0.74481684 -0.59813946 -0.3701342 -0.58150333 0.61076623 0.002036847 -0.8481501 0.69494116 -0.005810123 -0.34041876 -0.7563067 0.17926171
AAACAT 0.57912016 -0.73169553 -0.54688853 -0.5622171 0.73373 -0.045445275 -0.91054636 0.8249641 0.32256383 0.13217399 -0.79579175 0.20928797 0.74613655 -0.7126807 -0.43139508 -0.48447943 0.67437 -0.044931762 -0.86474717 0.74221253 0.20453657 0.20531772 -0.76588356 0.17095414
AAACCA 0.52245533 -0.85597515 -0.42834082 -0.46589777 0.7944239 -0.2179162 -0.861497 0.70869404 -0.17646867 -0.0024130235 -0.7596079 0.15866238 0.6611985 -0.6685811 -0.41328454 -0.6346426 0.66945225 -0.047323357 -0.89181054 0.7721601 0.049179576 -0.13653944 -0.7681349 0.20211877
AAACCC 0.46324483 -0.7623715 -0.5585375 -0.6224439 0.7810562 -0.17255615 -0.9343412 0.8660376 0.42182964 0.14994156 -0.810775 0.22835337 0.66809654 -0.75069296 -0.45311964 -0.57153463 0.7283002 -0.18605487 -0.9012685 0.8041062 0.20739682 0.23823328 -0.78761035 0.18762827
AAACCG 0.6295962 -0.8400218 -0.41675374 -0.3948637 0.8073711 -0.22712746 -0.8553621 0.70665747 -0.10919107 0.03716103 -0.77243876 0.15855217 0.74091095 -0.6532375 -0.37590927 -0.6509531 0.64355844 -0.119032025 -0.8856901 0.76668954 0.14565095 -0.09800626 -0.77153206 0.19305415
AAACCT 0.56869733 -0.74277323 -0.5432349 -0.57523036 0.7947256 -0.19360399 -0.9322402 0.8682882 0.43544585 0.18216074 -0.8259581 0.22793917 0.72413605 -0.73264277 -0.4412404 -0.5769516 0.7241508 -0.2105443 -0.9052934 0.81781447 0.32435375 0.28272283 -0.7990016 0.18781173
AAACGA 0.6212394 -0.8627448 -0.36635834 -0.30928603 0.82228047 -0.24298513 -0.8194847 0.6357584 -0.20873599 -0.05629562 -0.75683355 0.13416922 0.74750483 -0.75732577 -0.31579626 -0.6336357 0.6440848 -0.16001023 -0.8536221 0.69698316 0.09989266 -0.17384359 -0.746465 0.17236707
AAACGC 0.56029534 -0.8051223 -0.4968589 -0.5716042 0.80663633 -0.2240292 -0.9193763 0.8357591 0.33369547 0.12790622 -0.810949 0.20804025 0.7303073 -0.786307 -0.3847033 -0.56051016 0.734432 -0.22737825 -0.8816588 0.76833355 0.26807448 0.22451918 -0.78169864 0.1621557
AAACGG 0.6642877 -0.84896225 -0.39121878 -0.4661858 0.72039664 -0.15336344 -0.8253856 0.6495412 -0.12253615 -0.07179726 -0.7389068 0.15082581 0.7680945 -0.6203032 -0.37771887 -0.66265607 0.602385 -0.10148888 -0.866509 0.72959256 0.060148776 -0.31276655 -0.7719778 0.17931432
AAACGT 0.62267786 -0.7450678 -0.53375965 -0.6514192 0.7019768 -0.14643598 -0.9187417 0.84324354 0.41785678 0.15385604 -0.80176055 0.20552294 0.765286 -0.7290022 -0.43229276 -0.6126713 0.6508903 -0.14319822 -0.8837052 0.7776392 0.2889564 0.22012071 -0.77790767 0.17395554
AAACTA 0.5808591 -0.86494887 -0.44053277 -0.500125 0.7933881 -0.2482534 -0.8744466 0.7361434 -0.111344784 0.031605728 -0.77320534 0.1665809 0.7059616 -0.6788813 -0.42582268 -0.66601044 0.6673431 -0.064274386 -0.9005051 0.79104227 0.11258812 -0.09407939 -0.7770095 0.20342077
AAACTC 0.5340119 -0.76927316 -0.56221765 -0.63596547 0.7799847 -0.20206746 -0.938821 0.87696475 0.47330463 0.18016514 -0.82181937 0.23237406 0.7035868 -0.760354 -0.46538037 -0.6136127 0.72532 -0.2163634 -0.9122519 0.82620287 0.27655366 0.2614855 -0.7993336 0.19378068
AAACTG 0.65916467 -0.86456573 -0.43058196 -0.5391764 0.7775359 -0.26685426 -0.8764151 0.7463445 0.005171343 0.09184854 -0.77494097 0.16745117 0.75685805 -0.6822791 -0.39902875 -0.72337985 0.63490385 -0.15063809 -0.90079826 0.79635 0.21591543 -0.047235716 -0.7792127 0.1925419
AAACTT 0.61064106 -0.7673177 -0.54105836 -0.65792453 0.7615619 -0.232906 -0.9377064 0.879823 0.51386523 0.2317368 -0.82378215 0.22381681 0.73725 -0.7609525 -0.45469126 -0.6799807 0.6970796 -0.2457597 -0.91859555 0.8425094 0.39996442 0.31373993 -0.80211395 0.19005091
AAAGAA 0.62945074 -0.90593207 -0.35402972 -0.44206 0.7656162 -0.058518853 -0.7924504 0.58371776 -0.11805102 0.065580025 -0.6843278 0.11775221 0.7481177 -0.8354984 -0.309254 -0.73103684 0.5909133 0.023896065 -0.8278134 0.64272046 0.17135629 -0.04345999 -0.6807868 0.14391658
AAAGAC 0.5726119 -0.86541265 -0.47476792 -0.6664541 0.7380444 -0.052714318 -0.90036476 0.7938049 0.38072738 0.24297808 -0.7410643 0.17554647 0.72911847 -0.85158646 -0.3768599 -0.6758053 0.6678641 -0.05245747 -0.861992 0.7282185 0.34640568 0.32247454 -0.7140986 0.13806655
AAAGAG 0.67907256 -0.912837 -0.3624931 -0.6821033 0.6342525 0.014854087 -0.8021346 0.60223573 0.017569682 0.045410458 -0.6583842 0.12678537 0.77362436 -0.78392345 -0.36094072 -0.8174939 0.54835176 0.07725734 -0.8472077 0.68482476 0.17334464 -0.18002367 -0.70773214 0.14725702
AAAGAT 0.6401868 -0.8540539 -0.49406213 -0.80231184 0.60018325 0.011516304 -0.9035005 0.8089562 0.4989609 0.2722451 -0.72327673 0.16135769 0.76685596 -0.8445221 -0.4156431 -0.80494815 0.57288414 0.01806273 -0.87055534 0.74856734 0.40523162 0.32086542 -0.7082095 0.14154208
AAAGCA 0.61375576 -0.9289578 -0.4036827 -0.7428224 0.679422 -0.08389843 -0.86208117 0.7069551 0.076071575 0.20615691 -0.67855227 0.13958237 0.71630317 -0.8412287 -0.41458407 -0.8335935 0.60839325 0.057503328 -0.8934672 0.7694965 0.25177276 0.087202266 -0.7125114 0.16806793
AAAGCC 0.57172966 -0.8849944 -0.5210371 -0.81870896 0.65126973 -0.060741395 -0.9311899 0.8583734 0.5730755 0.3556093 -0.7318506 0.18373053 0.71546304 -0.87778825 -0.4530595 -0.8189988 0.6311318 -0.06109563 -0.90733564 0.8133221 0.42907754 0.40979677 -0.7237818 0.15806043
AAAGCG 0.68106765 -0.9228444 -0.4099335 -0.74801826 0.6747608 -0.07507271 -0.86854494 0.7276028 0.21091156 0.26370332 -0.687635 0.14329429 0.7591294 -0.826432 -0.397075 -0.8520781 0.5742099 0.023268372 -0.8930157 0.77615905 0.3611456 0.15135708 -0.71330875 0.1575363
AAAGCT 0.6391429 -0.8698976 -0.50666606 -0.80515206 0.64439136 -0.05968802 -0.92664206 0.855777 0.5891437 0.37604773 -0.73939204 0.17592345 0.7372423 -0.86657274 -0.45216405 -0.833092 0.6067838 -0.061158314 -0.91305226 0.8291039 0.51831 0.43788677 -0.7300991 0.15548389
AAAGGA 0.6298281 -0.89944756 -0.35194108 -0.4585702 0.7385339 -0.029459365 -0.7796474 0.56564116 -0.1412659 0.009994237 -0.6770981 0.11871984 0.76179236 -0.82663035 -0.30756328 -0.76798624 0.566424 0.06175635 -0.82005596 0.6331371 0.15363064 -0.13681588 -0.67864406 0.14422934
AAAGGC 0.5860753 -0.86960715 -0.47941786 -0.7009291 0.70649576 -0.028715257 -0.8971715 0.791911 0.39696443 0.22702767 -0.73650515 0.17416856 0.7473727 -0.855952 -0.37743556 -0.6991368 0.6406162 -0.02120111 -0.8529658 0.715368 0.3371349 0.30492797 -0.70689374 0.13702536
AAAGGG 0.67184895 -0.859821 -0.37942648 -0.49766314 0.6590819 0.037117314 -0.7789016 0.5708565 -0.17801926 -0.1574771 -0.6856602 0.13677797 0.789158 -0.64848375 -0.3725395 -0.72455955 0.56950694 0.13200548 -0.8289727 0.662576 0.010673743 -0.4348967 -0.730532 0.1600256
AAAGGT 0.6519774 -0.77336925 -0.52094567 -0.6992593 0.639908 0.044562384 -0.89450777 0.7956922 0.34201348 0.14357565 -0.75755197 0.18170369 0.7908706 -0.7542593 -0.41876048 -0.63450414 0.6100465 0.056112893 -0.84478337 0.70741296 0.22930689 0.18266125 -0.73381144 0.15593363
AAAGTA 0.6116614 -0.9070454 -0.4390772 -0.6966919 0.68578523 -0.058290396 -0.85530335 0.69899875 -0.020212809 0.17112944 -0.6976376 0.14738475 0.7360217 -0.8003917 -0.43074194 -0.83604866 0.5961484 0.1029188 -0.88716424 0.76244694 0.19177471 0.020768782 -0.7224243 0.17239165
AAAGTC 0.5852056 -0.86016345 -0.56200665 -0.8083645 0.65834236 -0.03730012 -0.9301498 0.86217016 0.579409 0.35084522 -0.75091314 0.19389063 0.73684835 -0.8513254 -0.47236568 -0.8143307 0.62304 -0.028977223 -0.90223014 0.8090892 0.39893544 0.40844426 -0.73052126 0.16427921
AAAGTG 0.68716216 -0.89602846 -0.43291718 -0.65494674 0.7027788 -0.039026536 -0.85131603 0.6995331 0.061295338 0.20347796 -0.7082372 0.14844686 0.78155035 -0.7618197 -0.4030973 -0.82718164 0.57644117 0.08936443 -0.8792872 0.75426614 0.25904587 0.049635496 -0.72365123 0.1616911
AAAGTT 0.64735204 -0.8332906 -0.54977065 -0.7638274 0.6778209 -0.024296435 -0.9242457 0.8556136 0.557898 0.35059464 -0.7632703 0.19073725 0.76113653 -0.8270388 -0.47028312 -0.7891863 0.62633044 -0.018818958 -0.9023212 0.81367064 0.4557314 0.4189742 -0.74102837 0.16321059
AAATAA 0.62498844 -0.91810054 -0.33012038 -0.67279506 0.68152547 -0.086088315 -0.8107003 0.6177879 0.011335741 0.15017791 -0.6491453 0.11589111 0.74381685 -0.87027377 -0.31972376 -0.8366383 0.5724248 -0.006213844 -0.8525233 0.6899682 0.22683197 0.040128224 -0.6776186 0.14486177
AAATAC 0.57117563 -0.8968242 -0.4563947 -0.7983518 0.64987147 -0.07766092 -0.9153308 0.82636005 0.49774644 0.31817096 -0.70972985 0.16552848 0.7362104 -0.88295424 -0.36687896 -0.80639404 0.60905975 -0.07058969 -0.87649924 0.75799304 0.40246195 0.38694054 -0.691832 0.13345453
AAATAG 0.67173135 -0.9042485 -0.3836394 -0.72591555 0.62258744 0.072954066 -0.80853677 0.6162633 -0.026343832 0.11589701 -0.6479722 0.12990583 0.77770776 -0.78698134 -0.38813204 -0.8508195 0.560957 0.14856666 -0.8554403 0.7023902 0.13704078 -0.08655103 -0.7022566 0.15614024
AAATAT 0.64124787 -0.8590525 -0.52600217 -0.84761447 0.59537625 0.0716533 -0.9138241 0.8305099 0.52136266 0.34479648 -0.71543413 0.1701431 0.7795965 -0.84571296 -0.43253312 -0.83832765 0.57490677 0.07729575 -0.8721293 0.75458705 0.37891766 0.38570976 -0.6953915 0.14531772
AAATCA 0.5872707 -0.9284364 -0.42605853 -0.81814265 0.6331316 -0.08848951 -0.8814858 0.7460894 0.1519939 0.2633535 -0.67263895 0.1473017 0.7052489 -0.8616354 -0.4383569 -0.8833779 0.59114516 0.042035513 -0.909293 0.80404484 0.3446486 0.15446346 -0.7122194 0.16999277
AAATCC 0.5618954 -0.8971586 -0.5320493 -0.8646964 0.6065658 -0.06464121 -0.9386744 0.8760456 0.6700421 0.40376535 -0.7215911 0.18137075 0.7097519 -0.89118075 -0.46717542 -0.87080103 0.5993167 -0.06332499 -0.9179901 0.83595943 0.4785708 0.45244458 -0.71654767 0.16086179
AAATCG 0.6830126 -0.9200314 -0.4050006 -0.807743 0.63334465 -0.07615066 -0.87289995 0.73907804 0.22759168 0.3067407 -0.6739722 0.14243226 0.7638716 -0.8411978 -0.4072687 -0.88920116 0.56704956 0.02123963 -0.9016396 0.79571843 0.38713443 0.19442979 -0.7105044 0.15986438
AAATCT 0.64340174 -0.8837403 -0.51032597 -0.8558043 0.6065719 -0.06076569 -0.93424416 0.8722617 0.6381261 0.4232485 -0.72855324 0.17419644 0.75194955 -0.87757784 -0.4500221 -0.8738286 0.58387876 -0.05957992 -0.91596365 0.8369992 0.52299285 0.47921684 -0.71928763 0.1551874
AAATGA 0.6592114 -0.92246956 -0.34923276 -0.6870212 0.6908435 -0.08827309 -0.8289695 0.650991 0.05714287 0.18256196 -0.66571635 0.12339568 0.7660495 -0.87334204 -0.33919942 -0.8462326 0.57833874 0.004887892 -0.86750853 0.7189881 0.26729304 0.080539465 -0.68818444 0.1499146
AAATGC 0.610218 -0.89958984 -0.47144398 -0.79933906 0.66054565 -0.07720616 -0.92171776 0.8401144 0.53126043 0.3364696 -0.72405946 0.17139857 0.7526358 -0.88827664 -0.38871518 -0.8138658 0.61695147 -0.07220763 -0.88954747 0.7821009 0.43357828 0.40591425 -0.70575964 0.14065906
AAATGG 0.70478797 -0.9033966 -0.393599 -0.76330394 0.6152535 0.02561239 -0.82859993 0.65359 0.043052472 0.14242335 -0.66666555 0.13796453 0.7932242 -0.77273446 -0.4034444 -0.8585865 0.5612875 0.101691745 -0.86877745 0.7298739 0.18000558 -0.06616061 -0.7200621 0.15762036
AAATGT 0.6727351 -0.84908926 -0.52784956 -0.85583746 0.58666897 0.026621018 -0.91892993 0.843027 0.5603928 0.351844 -0.72941756 0.17045689 0.7885043 -0.83812916 -0.44679332 -0.85526997 0.5706089 0.03277685 -0.8868991 0.78302383 0.42288333 0.39104763 -0.71357185 0.15060471
AAATTA 0.6336647 -0.9266568 -0.44257256 -0.80421096 0.6556591 -0.09945708 -0.8893959 0.763791 0.17505121 0.27338216 -0.6940998 0.15493731 0.7367068 -0.8480575 -0.45121306 -0.8743056 0.60068685 0.05288353 -0.91223115 0.81193465 0.3589115 0.16993248 -0.72238255 0.17418449
AAATTC 0.61232066 -0.88962436 -0.5424366 -0.85391104 0.6290914 -0.0715391 -0.9406865 0.88105315 0.66668886 0.41098857 -0.74021906 0.18942247 0.73360634 -0.8843173 -0.48130846 -0.8617366 0.6138346 -0.07082158 -0.92298764 0.84621465 0.49463233 0.45598537 -0.73215455 0.1676511
AAATTG 0.70244 -0.9236305 -0.43224505 -0.8208949 0.6365124 -0.08941626 -0.888799 0.7700922 0.27595666 0.32801634 -0.6909 0.15231822 0.77286905 -0.83664125 -0.43079546 -0.88993317 0.57281137 0.021241605 -0.9098562 0.8133919 0.42059726 0.21778499 -0.72058904 0.16302243
AAATTT 0.66984576 -0.88193256 -0.5240066 -0.85917443 0.60909194 -0.06972813 -0.9374351 0.8793115 0.6571727 0.43944 -0.7390991 0.17900616 0.7574081 -0.87748635 -0.471905 -0.87773514 0.5877443 -0.06931721 -0.92410076 0.8524988 0.55117816 0.48744556 -0.73147804 0.16093718
AACAAA 0.5957505 -0.8601664 -0.3442366 -0.2587486 0.8128868 -0.22989228 -0.7919685 0.5841466 -0.23522633 -0.07678785 -0.7330363 0.12261353 0.7216741 -0.75255907 -0.28760546 -0.5876449 0.62494123 -0.18338281 -0.8269446 0.64560133 0.085124925 -0.21532823 -0.72762954 0.15787607
AACAAC 0.5285634 -0.7912315 -0.4639369 -0.5418041 0.7917611 -0.2170375 -0.90205127 0.79838026 0.26938722 0.11777761 -0.79003465 0.19259275 0.7050608 -0.76975423 -0.3552576 -0.5254065 0.7182053 -0.2182232 -0.8628922 0.73129046 0.25489575 0.20327172 -0.7641821 0.15066189
AACAAG 0.6432331 -0.8701318 -0.3508531 -0.5107552 0.7004967 -0.17090642 -0.80551976 0.61039734 -0.08335412 -0.10291328 -0.7141257 0.13512762 0.74780446 -0.689363 -0.33665708 -0.70177007 0.5796235 -0.14555573 -0.85241115 0.69855505 0.10574981 -0.34873986 -0.7537898 0.16666354
AACAAT 0.5942899 -0.7848083 -0.4853922 -0.68977255 0.6734366 -0.1704665 -0.908297 0.8191884 0.41291317 0.13381939 -0.7799074 0.18647893 0.74484205 -0.76955 -0.39262593 -0.6645235 0.6263281 -0.16712685 -0.8732852 0.75454974 0.31984788 0.19783905 -0.76114994 0.15885194
AACACA 0.5619954 -0.8897628 -0.37893265 -0.6245352 0.7333066 -0.2441182 -0.8560179 0.6970831 -0.048390083 0.06457372 -0.7244485 0.14445324 0.6760017 -0.7491943 -0.38380232 -0.7367118 0.6391612 -0.13782765 -0.8915385 0.7686152 0.13748582 -0.084850445 -0.75631195 0.18662763
AACACC 0.49946222 -0.81654245 -0.5038882 -0.7420466 0.71111697 -0.21582933 -0.93206304 0.8603161 0.47683194 0.21832764 -0.77979535 0.20284085 0.68123406 -0.8037492 -0.41936827 -0.71624154 0.6767104 -0.22346978 -0.903917 0.80751556 0.32499287 0.2869521 -0.76840097 0.1708903
AACACG 0.6523799 -0.8811642 -0.38770178 -0.59938425 0.7443719 -0.23358868 -0.85921973 0.71095914 0.0649914 0.11325879 -0.73966974 0.14999126 0.7421555 -0.73651505 -0.36366376 -0.7571875 0.60995245 -0.17418762 -0.889071 0.76986533 0.24933024 -0.030943844 -0.75924087 0.17720392
AACACT 0.5969813 -0.79668313 -0.49398738 -0.7084416 0.7202983 -0.20989484 -0.92843574 0.859724 0.50842756 0.24704576 -0.79350865 0.19937678 0.721371 -0.7895505 -0.41931334 -0.73297745 0.6629722 -0.22199883 -0.9111604 0.8264245 0.43797976 0.32328016 -0.7789833 0.17221646
AACAGA 0.61238325 -0.8807602 -0.3543692 -0.378029 0.77296233 -0.054003287 -0.7821712 0.5700559 -0.18491638 -0.00847171 -0.6958934 0.12016627 0.7458764 -0.79491454 -0.30305606 -0.71026635 0.5870122 0.02836292 -0.8193183 0.6333833 0.124772176 -0.14645255 -0.6909937 0.14962523
AACAGC 0.5600445 -0.84334606 -0.48318708 -0.6466097 0.7456482 -0.049798973 -0.8987536 0.79472256 0.3540839 0.20286165 -0.7545892 0.18181634 0.7316447 -0.82778907 -0.37480083 -0.63787675 0.6729977 -0.04648413 -0.85375285 0.71730316 0.3062082 0.28872055 -0.72266805 0.14123935
AACAGG 0.6508636 -0.84567714 -0.38058144 -0.42645517 0.6852614 -0.012093418 -0.7844495 0.5809388 -0.19286208 -0.13800113 -0.70098364 0.13886768 0.7709757 -0.6245353 -0.36585873 -0.6810498 0.57919353 0.06713919 -0.83353966 0.6714979 0.00984714 -0.40298387 -0.7411588 0.16578394
AACAGT 0.62166905 -0.7550706 -0.52533245 -0.6533561 0.6677944 -0.006446687 -0.8994168 0.80579305 0.33911455 0.14193378 -0.7721031 0.18979824 0.772341 -0.73443675 -0.41886488 -0.58006686 0.6287704 0.0040015765 -0.85098666 0.7195875 0.22703339 0.19317207 -0.7468497 0.16047876
AACATA 0.5843573 -0.8964993 -0.4315953 -0.66029066 0.7075782 -0.08767673 -0.8557443 0.699122 -0.0498924 0.1503514 -0.7074106 0.147918 0.71166635 -0.7784629 -0.422994 -0.8099719 0.6100074 0.06886625 -0.88866156 0.7652295 0.16767433 0.007832927 -0.7305309 0.177812
AACATC 0.54810995 -0.8444759 -0.55701643 -0.78412694 0.68293047 -0.06314822 -0.9313781 0.86317104 0.5515777 0.3248332 -0.76100874 0.19930156 0.7160963 -0.8348143 -0.4632479 -0.783574 0.6426983 -0.058328707 -0.9018957 0.80751675 0.36632133 0.38976663 -0.7397719 0.16742434
AACATG 0.66939586 -0.88225156 -0.42714036 -0.6039725 0.72894764 -0.071291655 -0.851348 0.7004484 0.0368977 0.18457188 -0.7213223 0.14951357 0.7669904 -0.7397573 -0.3930581 -0.80054504 0.58776754 0.044707634 -0.88057554 0.7575286 0.25033414 0.0398238 -0.7328578 0.16686101
AACATT 0.6225554 -0.8150291 -0.5456693 -0.72918284 0.7069278 -0.054492906 -0.9257593 0.8583339 0.53851026 0.32752815 -0.77701855 0.1971476 0.7469523 -0.808361 -0.4615624 -0.7543936 0.6477198 -0.053522963 -0.90312034 0.8153586 0.43920502 0.40533555 -0.7531935 0.16743645
AACCAA 0.5619389 -0.8702128 -0.3259018 -0.45925984 0.7673146 -0.23532508 -0.80367583 0.6047215 -0.17276615 -0.031621072 -0.7106369 0.121049136 0.69861096 -0.77792525 -0.29507646 -0.6963097 0.61651796 -0.17084038 -0.8425608 0.6743346 0.09135997 -0.16832983 -0.7228403 0.16043045
AACCAC 0.49203146 -0.825253 -0.4524704 -0.6812775 0.74287355 -0.22198346 -0.91279703 0.8202424 0.35112303 0.16553506 -0.76874363 0.18651499 0.6958959 -0.8031909 -0.34426078 -0.65747404 0.6812371 -0.21108946 -0.86934936 0.7441875 0.2807017 0.24916612 -0.74483854 0.14505687
AACCAG 0.6095836 -0.8517196 -0.379575 -0.47809967 0.7006761 -0.0797129 -0.8044677 0.6106331 -0.18289095 -0.0613193 -0.7062278 0.13873893 0.7333904 -0.65432066 -0.36799064 -0.68677336 0.5970754 -0.021728337 -0.85217315 0.7007814 0.014457789 -0.29509932 -0.7479214 0.17584264
AACCAT 0.56789494 -0.77245694 -0.5260238 -0.6993608 0.6810091 -0.0762133 -0.91285163 0.82863617 0.37895018 0.18625809 -0.7744984 0.19664805 0.74251926 -0.75148463 -0.41380286 -0.6351447 0.63661814 -0.06842312 -0.8659161 0.7437753 0.2417163 0.24706404 -0.7484744 0.16205204
AACCCA 0.48927242 -0.88286924 -0.41238537 -0.649803 0.72712606 -0.2426575 -0.870506 0.72271216 -0.06869435 0.06876916 -0.7313006 0.15391111 0.6336878 -0.74297196 -0.41038844 -0.7691812 0.63654155 -0.104075044 -0.9011377 0.7879185 0.14043395 -0.074005514 -0.7573118 0.19204685
AACCCC 0.43830684 -0.81449854 -0.52601105 -0.75497025 0.70519006 -0.20957796 -0.9363465 0.86929107 0.53676313 0.22573513 -0.7805258 0.20620932 0.6486195 -0.8043909 -0.4347259 -0.7367325 0.6702563 -0.21075377 -0.9084266 0.8160846 0.31144616 0.29800832 -0.76632804 0.17514068
AACCCG 0.62399006 -0.86552495 -0.38992813 -0.5749638 0.74788237 -0.23100069 -0.8560664 0.7067645 -0.012016085 0.10648496 -0.7412161 0.14914581 0.7336674 -0.7200453 -0.36817572 -0.763681 0.61581695 -0.14032087 -0.8898976 0.7733175 0.20801668 -0.036780298 -0.7584931 0.18273899
AACCCT 0.5668337 -0.79535395 -0.50789005 -0.71641237 0.72812396 -0.20970008 -0.93312806 0.8693367 0.51774687 0.25244257 -0.7976766 0.20544338 0.72398347 -0.78367835 -0.4149561 -0.7228572 0.6691189 -0.21044123 -0.9070672 0.8203491 0.39384696 0.33977586 -0.7755228 0.17279997
AACCGA 0.61496186 -0.86947733 -0.34538266 -0.41682577 0.79367995 -0.2430087 -0.8175299 0.63090646 -0.15300235 -0.01743312 -0.73573977 0.12932025 0.740709 -0.7740796 -0.30641344 -0.6936377 0.6263452 -0.17227949 -0.85421956 0.6970587 0.12834066 -0.14243336 -0.7372392 0.16703717
AACCGC 0.5533303 -0.82042104 -0.47026888 -0.6485502 0.77257746 -0.22844298 -0.91915447 0.83467716 0.38065782 0.16693063 -0.7926115 0.19719458 0.72784275 -0.8007615 -0.36251706 -0.64045024 0.70301217 -0.22227149 -0.8813834 0.767238 0.31056866 0.2579249 -0.7654089 0.15470919
AACCGG 0.6617895 -0.85498255 -0.37857354 -0.5411837 0.69208086 -0.15295847 -0.8235651 0.64600265 -0.10054399 -0.046415143 -0.7254936 0.14669897 0.7672164 -0.6496095 -0.37329948 -0.71711636 0.5942164 -0.10536111 -0.8669 0.7296159 0.07206479 -0.2887348 -0.7665627 0.17697744
AACCGT 0.6235066 -0.76728505 -0.5182853 -0.71980447 0.6711458 -0.14898148 -0.9193971 0.8438918 0.44410145 0.18617442 -0.7897643 0.1971534 0.7681172 -0.7493287 -0.41842437 -0.6829024 0.6296324 -0.14266142 -0.8827582 0.77554506 0.3073298 0.24492586 -0.76766807 0.16801013
AACCTA 0.56955266 -0.88427794 -0.42292914 -0.63767105 0.7452111 -0.26331216 -0.88024604 0.74502033 -0.02499117 0.08913854 -0.7523336 0.16166453 0.696334 -0.73776275 -0.41970703 -0.76395565 0.6459874 -0.11119105 -0.90722555 0.8023799 0.18390036 -0.042279426 -0.76973933 0.19610393
AACCTC 0.5295556 -0.81171787 -0.5316574 -0.7424337 0.7256535 -0.22735028 -0.9407435 0.8797521 0.55370593 0.24152535 -0.8007631 0.21454956 0.6983178 -0.8028544 -0.44540316 -0.733142 0.68416727 -0.23181203 -0.9171588 0.8340437 0.35465991 0.30968323 -0.78423995 0.1829959
AACCTG 0.66482115 -0.87638026 -0.41110453 -0.62990737 0.74354696 -0.25528854 -0.87672204 0.7466847 0.07742045 0.14438531 -0.75628394 0.16064578 0.7580379 -0.7248146 -0.38859034 -0.7858863 0.61750084 -0.15934724 -0.9027029 0.7996022 0.26966465 0.004614711 -0.76991487 0.1845246
AACCTT 0.61685306 -0.79855996 -0.51291966 -0.73133343 0.72323793 -0.2281357 -0.93797654 0.8800357 0.5621234 0.28126934 -0.80696815 0.20780973 0.73956776 -0.7912215 -0.4333975 -0.75360113 0.6661409 -0.23370491 -0.9198474 0.84454936 0.45005012 0.35681942 -0.78818727 0.17934082
AACGAA 0.61860996 -0.87808913 -0.34296387 -0.35059553 0.7986187 -0.2348588 -0.8031126 0.6042895 -0.18091422 -0.044396155 -0.7326398 0.12447993 0.7415449 -0.7866013 -0.29444307 -0.65873855 0.6215004 -0.17955899 -0.8395473 0.66761833 0.12195444 -0.17244041 -0.7298338 0.15814811
AACGAC 0.55771166 -0.82210034 -0.46374342 -0.6091609 0.7770895 -0.22211336 -0.909542 0.81380177 0.3321249 0.14734562 -0.78881896 0.19147596 0.72449404 -0.80201304 -0.3583411 -0.6033486 0.7053335 -0.21884228 -0.8722241 0.7486059 0.29623345 0.23145023 -0.76321703 0.15023036
AACGAG 0.6691811 -0.88776356 -0.35218072 -0.60336614 0.6770993 -0.16238071 -0.8163423 0.62908435 -0.033056293 -0.05277356 -0.7097435 0.13592158 0.76862615 -0.7293257 -0.34600008 -0.7593912 0.5756286 -0.13362516 -0.8613532 0.7141227 0.13691601 -0.29254797 -0.752882 0.16537774
AACGAT 0.6275964 -0.81528383 -0.48537296 -0.75440645 0.6483705 -0.16023916 -0.914016 0.8304121 0.46545205 0.18303771 -0.7733171 0.18247366 0.7645805 -0.8013352 -0.39797372 -0.7413833 0.6091555 -0.15654182 -0.8812734 0.7690321 0.35942182 0.23994644 -0.7561597 0.15676732
AACGCA 0.59081566 -0.90462273 -0.38605425 -0.677111 0.7209352 -0.24970597 -0.8681259 0.72028875 0.006263487 0.09076527 -0.72883993 0.14878081 0.70316297 -0.7854422 -0.39393976 -0.7813372 0.6362354 -0.1357845 -0.90035874 0.7857218 0.19062641 -0.047708187 -0.75855005 0.18622696
AACGCC 0.54251826 -0.8432082 -0.5047887 -0.77465105 0.6984666 -0.21908313 -0.9368193 0.8701841 0.5331802 0.24712734 -0.7806885 0.20175003 0.7048754 -0.8327025 -0.42724422 -0.761638 0.668197 -0.22576272 -0.91207993 0.82290834 0.3703182 0.3093221 -0.7703364 0.17186725
AACGCG 0.6735884 -0.89738315 -0.3885613 -0.66987664 0.72177833 -0.23751424 -0.869479 0.73074347 0.122916706 0.14547172 -0.7373563 0.15173303 0.7590317 -0.77188987 -0.37173432 -0.8003304 0.6050322 -0.17103119 -0.89704776 0.7852826 0.28998354 0.007200685 -0.75902474 0.17588866
AACGCT 0.6257767 -0.82625026 -0.49011862 -0.75719994 0.6963712 -0.21188849 -0.93286175 0.8684825 0.55310893 0.2798598 -0.78846306 0.19515036 0.73774654 -0.8194392 -0.42228478 -0.78067636 0.64665073 -0.22122724 -0.91715413 0.8376532 0.47154376 0.3485809 -0.77608913 0.1703726
AACGGA 0.6363258 -0.8975671 -0.34198922 -0.5254261 0.7313658 -0.12981342 -0.8006502 0.60166216 -0.09109417 0.024294537 -0.6945596 0.122789495 0.7617898 -0.8232931 -0.30825114 -0.7842355 0.57690144 -0.05584032 -0.8419381 0.67300147 0.17372063 -0.12229952 -0.70578253 0.15184389
AACGGC 0.5894468 -0.86560297 -0.46870238 -0.7307831 0.70009464 -0.12429531 -0.90994287 0.8178387 0.4387554 0.22998726 -0.75363874 0.1787422 0.749111 -0.85062265 -0.36997715 -0.7338076 0.6383618 -0.11405366 -0.87070847 0.7480564 0.36147574 0.30870074 -0.72766155 0.14231801
AACGGG 0.67513865 -0.8571367 -0.37320033 -0.54709655 0.66172576 -0.09704396 -0.8030292 0.6121796 -0.13694899 -0.11585195 -0.70973575 0.14224896 0.78870904 -0.6543993 -0.36940172 -0.74522835 0.5767722 -0.025847347 -0.8500209 0.7003882 0.041866172 -0.38377815 -0.7539944 0.16915208
AACGGT 0.65141207 -0.77493864 -0.5145819 -0.73574764 0.6415038 -0.0925371 -0.90902877 0.82474476 0.4032798 0.1588936 -0.7770549 0.18912971 0.79036796 -0.75465786 -0.41341576 -0.6865082 0.6100368 -0.08155406 -0.8656738 0.74557674 0.27058846 0.20532322 -0.7546231 0.16195111
AACGTA 0.61059064 -0.90514696 -0.42897508 -0.734665 0.6779705 -0.16100758 -0.8719798 0.7310151 0.03361363 0.16522695 -0.7168523 0.154062 0.73221016 -0.7987449 -0.42772922 -0.84403807 0.6029269 -0.024429007 -0.90108424 0.7905812 0.23438293 0.016166648 -0.74541926 0.18003154
AACGTC 0.5866643 -0.85723346 -0.543758 -0.8234038 0.6508618 -0.1354027 -0.9369071 0.8754068 0.6108423 0.33642864 -0.7662885 0.1974472 0.7331063 -0.8484401 -0.46242374 -0.82852215 0.6225534 -0.13033229 -0.9136338 0.8301752 0.42380264 0.39105552 -0.7511309 0.17031255
AACGTG 0.69096965 -0.894715 -0.4191368 -0.7062981 0.68825275 -0.14584978 -0.86664015 0.729163 0.115901805 0.20162112 -0.7236827 0.15332386 0.78006846 -0.76534784 -0.3987013 -0.84276813 0.581152 -0.043240543 -0.89337766 0.7822672 0.29321903 0.04536289 -0.74528015 0.16876402
AACGTT 0.6524065 -0.8337465 -0.5289142 -0.79361856 0.6624194 -0.12749882 -0.9318986 0.87071604 0.59044725 0.34547004 -0.7755778 0.19214569 0.7609239 -0.8265741 -0.45513505 -0.8172126 0.6175413 -0.12442225 -0.91333556 0.83437383 0.48098034 0.40991527 -0.75817704 0.16729026
AACTAA 0.5971067 -0.8847791 -0.32773244 -0.5243592 0.75666213 -0.24332365 -0.81707287 0.62916154 -0.116336785 0.0007063342 -0.715272 0.124640256 0.7294281 -0.80736977 -0.3034908 -0.7488671 0.6151834 -0.17295672 -0.85664123 0.7000029 0.13730574 -0.1252565 -0.7285857 0.16219
AACTAC 0.5370487 -0.84807116 -0.45478123 -0.7186314 0.7326785 -0.22812025 -0.9207041 0.8368609 0.41529223 0.1925287 -0.77286243 0.18776572 0.7238676 -0.82801116 -0.3501985 -0.70826226 0.67348653 -0.21615455 -0.8804193 0.76492137 0.32354507 0.27560815 -0.7489356 0.1472368
AACTAG 0.6475204 -0.86570853 -0.38468468 -0.5595437 0.68807524 -0.08047216 -0.8181221 0.63460714 -0.12802531 -0.014048419 -0.70913804 0.14238876 0.7633842 -0.6890143 -0.37857842 -0.7425976 0.59393215 -0.017508246 -0.8630305 0.7201839 0.056825604 -0.23881865 -0.7498687 0.17577083
AACTAT 0.6133741 -0.7950308 -0.5284321 -0.75045824 0.66727424 -0.07607707 -0.9192196 0.84163064 0.4438122 0.22614324 -0.77458906 0.19580537 0.7687801 -0.7763168 -0.42136487 -0.7078212 0.6262005 -0.06835963 -0.8763621 0.7628338 0.29058164 0.2834681 -0.7487516 0.16302377
AACTCA 0.5403132 -0.8930407 -0.41931865 -0.6860399 0.7224921 -0.2526283 -0.8816813 0.74596715 -0.006874802 0.09699519 -0.74057674 0.1594588 0.6803992 -0.76944715 -0.41789466 -0.8010495 0.63527024 -0.10618517 -0.9088285 0.8040217 0.20493752 -0.03408007 -0.76221335 0.19245267
AACTCC 0.505978 -0.8328179 -0.52674216 -0.77707344 0.70141995 -0.21754383 -0.9411973 0.8800143 0.59086055 0.25505134 -0.78755957 0.20795526 0.68753505 -0.8242546 -0.44187748 -0.7714364 0.6664379 -0.21856032 -0.9170096 0.83314997 0.36703086 0.3224201 -0.77288735 0.1783309
AACTCG 0.65484875 -0.8813933 -0.39558235 -0.648249 0.72886026 -0.24271667 -0.8695487 0.7323101 0.05631214 0.14048456 -0.74404925 0.15381268 0.75670165 -0.75087285 -0.37981772 -0.8051797 0.6117477 -0.14564572 -0.89975744 0.79242265 0.2573361 0.0013577446 -0.76178944 0.18251689
AACTCT 0.6071336 -0.8185611 -0.5062042 -0.75896394 0.7079106 -0.21853524 -0.9379474 0.87903905 0.5692459 0.28528455 -0.79714656 0.20336103 0.7444083 -0.8083935 -0.4212353 -0.7724095 0.65466815 -0.21833016 -0.9153182 0.8356422 0.43575516 0.3632052 -0.7768427 0.17362691
AACTGA 0.6391061 -0.89898187 -0.3346238 -0.59730345 0.7372997 -0.25781843 -0.8334084 0.6593568 -0.032538548 0.051490728 -0.7192208 0.13004513 0.75693494 -0.82875544 -0.31659573 -0.7962602 0.60643244 -0.19108763 -0.87292445 0.7309369 0.2006896 -0.07377225 -0.7365814 0.16456044
AACTGC 0.5864099 -0.86444145 -0.45671806 -0.75365573 0.71134186 -0.23965073 -0.9274408 0.85178924 0.48665637 0.23045972 -0.7760422 0.18783946 0.7463454 -0.8478032 -0.36233294 -0.7579726 0.6563967 -0.22951275 -0.8942805 0.79107636 0.3828392 0.3095021 -0.75491935 0.15125945
AACTGG 0.688043 -0.8757354 -0.37842798 -0.6698877 0.65727663 -0.16443904 -0.83760315 0.67103064 -0.028356334 0.01719914 -0.7193959 0.14773925 0.7856832 -0.7062971 -0.38364348 -0.79486716 0.5856136 -0.11590501 -0.8781559 0.749882 0.12394754 -0.21717888 -0.76508284 0.17574078
AACTGT 0.6561279 -0.80493593 -0.51276624 -0.8025229 0.6329005 -0.15773775 -0.92553836 0.8560362 0.51679665 0.24265167 -0.7802501 0.1909227 0.7855168 -0.7886441 -0.42097637 -0.7844484 0.6041425 -0.15163118 -0.89259845 0.7935811 0.3626669 0.29161328 -0.76145506 0.16523704
AACTTA 0.60156417 -0.902688 -0.42427158 -0.7325245 0.70423555 -0.27466524 -0.8925199 0.7700386 0.08372438 0.14508049 -0.7466419 0.16436037 0.72169685 -0.787268 -0.42606127 -0.82702434 0.6276406 -0.13946296 -0.91603714 0.82047653 0.28065303 0.01773294 -0.7687307 0.19169445
AACTTC 0.57662994 -0.8459328 -0.5208492 -0.80468583 0.68100876 -0.23853879 -0.94453716 0.88837653 0.6316716 0.29725102 -0.79141057 0.20591998 0.7198514 -0.83844376 -0.44758156 -0.8074556 0.65132165 -0.24115297 -0.925804 0.85121477 0.43788615 0.3519667 -0.7795865 0.17998858
AACTTG 0.6867626 -0.89856696 -0.40807483 -0.74360996 0.6897968 -0.26393998 -0.8882791 0.76913214 0.17614377 0.19831783 -0.74461126 0.16089933 0.7712061 -0.77712995 -0.39881608 -0.8450731 0.6011414 -0.1781378 -0.9119188 0.8176676 0.33890092 0.05712043 -0.76790357 0.18059732
AACTTT 0.648773 -0.8379699 -0.5000531 -0.80926716 0.66488796 -0.23439848 -0.9418184 0.88778603 0.62724775 0.33389255 -0.79216343 0.19617397 0.75432587 -0.83044845 -0.43281806 -0.8273438 0.62675935 -0.23783906 -0.9265459 0.85716695 0.5046086 0.392594 -0.7794562 0.17381775
AAGAAA 0.637126 -0.92403066 -0.37635413 -0.5490585 0.71818835 0.12630698 -0.79249424 0.57665324 -0.03304731 0.22653812 -0.5199733 0.11041794 0.7440931 -0.8719123 -0.3396864 -0.78304696 0.56130016 0.22984248 -0.8262752 0.6322187 0.23613848 0.17189169 -0.53171194 0.13131298
AAGAAC 0.5805594 -0.8954784 -0.48943487 -0.7062849 0.6949551 0.13106424 -0.89174783 0.7709421 0.4138671 0.3514215 -0.586484 0.1600608 0.7214745 -0.8864158 -0.40449604 -0.72833234 0.6305228 0.12191032 -0.8555407 0.71013415 0.3852388 0.42038953 -0.5713431 0.12721173
AAGAAG 0.6801986 -0.928094 -0.38919455 -0.7464915 0.5975909 0.20452102 -0.80535334 0.6009523 0.11506587 0.23563899 -0.5016469 0.11878656 0.76217675 -0.82934064 -0.38868997 -0.8536876 0.5200785 0.2962721 -0.844479 0.6721355 0.25443083 0.094832644 -0.5673816 0.1319588
AAGAAT 0.6323331 -0.882409 -0.5121022 -0.82488734 0.5634069 0.19728546 -0.8973157 0.7923024 0.5433342 0.39202788 -0.56787926 0.1436129 0.74768096 -0.87715006 -0.4470501 -0.8421461 0.5418534 0.20333806 -0.8685135 0.7399541 0.4632816 0.4407177 -0.5635812 0.12769437
AAGACA 0.62547904 -0.9390832 -0.42616406 -0.7615773 0.6560362 0.1098502 -0.8544938 0.6850184 0.123579 0.32106563 -0.5212873 0.129202 0.7120701 -0.86692196 -0.4394192 -0.84794164 0.58604467 0.27556175 -0.885706 0.7476637 0.29911193 0.24901918 -0.5637695 0.15271664
AAGACC 0.58078325 -0.90407276 -0.5368746 -0.8231004 0.6309963 0.12786227 -0.9225706 0.83546525 0.5676888 0.43782598 -0.5883483 0.1689701 0.7100964 -0.89902353 -0.4770023 -0.8283868 0.6137404 0.12858692 -0.8980182 0.78997016 0.44640848 0.48744318 -0.5908505 0.1454356
AAGACG 0.67212605 -0.93407035 -0.4350151 -0.7799859 0.63718516 0.09231933 -0.8685989 0.7209353 0.2727202 0.37301844 -0.5297079 0.13487044 0.7398348 -0.855437 -0.4273113 -0.86862874 0.5474796 0.21871403 -0.89085686 0.7667338 0.4182414 0.31014904 -0.56961876 0.14377975
AAGACT 0.6339019 -0.89253104 -0.5198344 -0.8183263 0.6092483 0.10170582 -0.9186368 0.83480626 0.59156823 0.4510553 -0.6005688 0.16103193 0.72172296 -0.8916831 -0.47681403 -0.8477637 0.5804435 0.10483707 -0.9066597 0.8115175 0.53579295 0.50744873 -0.6005936 0.14285745
AAGAGA 0.65384495 -0.9437698 -0.36940426 -0.74378115 0.5898571 0.16899261 -0.79692596 0.5855898 0.110518 0.28728166 -0.43934128 0.107306935 0.75306386 -0.9112086 -0.36096027 -0.8769615 0.50493985 0.27786788 -0.8387682 0.65489686 0.30714875 0.21114798 -0.48445427 0.123404324
AAGAGC 0.6069425 -0.93017995 -0.48153237 -0.8278237 0.55534816 0.16188087 -0.8945443 0.7803758 0.5307815 0.410018 -0.5047079 0.13950877 0.73716795 -0.9239758 -0.41364428 -0.8484023 0.5307606 0.16613029 -0.86086816 0.7215489 0.4570407 0.4639418 -0.5017573 0.117786616
AAGAGG 0.70031637 -0.9271984 -0.39598423 -0.8128063 0.54843473 0.25965935 -0.7931353 0.58385736 0.06849518 0.21331935 -0.49547523 0.11891745 0.78759724 -0.8291721 -0.40673518 -0.89440244 0.5117446 0.36359337 -0.8373339 0.66268694 0.19942226 0.032527264 -0.5712262 0.1307825
AAGAGT 0.66724324 -0.8868978 -0.52572477 -0.88157153 0.51616615 0.25150755 -0.89612126 0.7937473 0.55179286 0.4084244 -0.55930924 0.13889024 0.77893853 -0.8791202 -0.45448518 -0.88913876 0.51514393 0.25831002 -0.8607784 0.7300365 0.44469264 0.43814322 -0.5572307 0.1259605
AAGATA 0.6406782 -0.9486635 -0.46211284 -0.8586485 0.56369907 0.15318108 -0.8678346 0.71486264 0.23791622 0.38824683 -0.47007626 0.1323019 0.7284537 -0.900607 -0.47536078 -0.9055429 0.5391635 0.30427307 -0.894151 0.7686977 0.40340245 0.3061985 -0.522471 0.1433347
AAGATC 0.61869997 -0.926766 -0.5536644 -0.8912304 0.532489 0.15555882 -0.92387 0.84441274 0.66704005 0.49647304 -0.5303229 0.15396282 0.7255173 -0.9231242 -0.5040285 -0.9002014 0.54070884 0.16702498 -0.90593666 0.8093565 0.5310071 0.5316272 -0.5381562 0.13914293
AAGATG 0.69173723 -0.9436984 -0.4543177 -0.8634416 0.55143166 0.1535501 -0.87221044 0.7311788 0.33795372 0.4244419 -0.47343376 0.13253303 0.7552798 -0.8834895 -0.45434147 -0.9163008 0.5098315 0.28510582 -0.8930625 0.7741904 0.46789157 0.34844068 -0.5236507 0.13238622
AAGATT 0.66463596 -0.9156577 -0.53290576 -0.8861525 0.520836 0.1524155 -0.9189035 0.8393483 0.65088373 0.50170743 -0.5397729 0.1453082 0.74075955 -0.913955 -0.49549374 -0.90682155 0.51979136 0.16563755 -0.9074894 0.8162352 0.57551116 0.5436383 -0.5451141 0.13288943
AAGCAA 0.644061 -0.945352 -0.35050845 -0.787547 0.58627516 0.08604742 -0.8152931 0.6151783 0.14964366 0.3158735 -0.44622147 0.106277436 0.73743325 -0.9217908 -0.36080718 -0.8812023 0.5275166 0.17227031 -0.8589773 0.69190466 0.32801127 0.25055486 -0.5086573 0.12803109
AAGCAC 0.5906472 -0.9347048 -0.46460584 -0.8478381 0.5578005 0.0838176 -0.90871984 0.8060957 0.54976976 0.43004957 -0.519212 0.14144562 0.7278665 -0.9272995 -0.39990452 -0.86125445 0.54665136 0.085127525 -0.8757699 0.7479632 0.4617633 0.4809547 -0.52628016 0.11984278
AAGCAG 0.6879046 -0.93875 -0.3998705 -0.8443551 0.5542241 0.2525789 -0.8155452 0.6179207 0.12959121 0.3038633 -0.45947036 0.11699339 0.7706761 -0.8741238 -0.4173287 -0.90533966 0.5252945 0.33800635 -0.8594034 0.6979985 0.26658767 0.18006042 -0.54044795 0.1351454
AAGCAT 0.64762616 -0.9132044 -0.52964 -0.896289 0.52613974 0.24120377 -0.9100388 0.81625605 0.5942136 0.46547577 -0.52588487 0.14307606 0.76547503 -0.9061363 -0.46033287 -0.9020351 0.52755475 0.24445206 -0.87588704 0.75342834 0.4695636 0.49671394 -0.52805823 0.12689269
AAGCCA 0.61532545 -0.9516238 -0.44213244 -0.86813366 0.56620187 0.097721435 -0.8776272 0.7307287 0.26148924 0.39358935 -0.48211384 0.13160464 0.70470494 -0.91619754 -0.4658753 -0.90567875 0.552562 0.21621326 -0.90650785 0.79140806 0.4400277 0.32627982 -0.5440523 0.1476533
AAGCCC 0.5881545 -0.93526405 -0.5373074 -0.894334 0.54198813 0.10261069 -0.9316858 0.85675025 0.68620205 0.49729395 -0.5471243 0.1558068 0.7088032 -0.9315004 -0.4892969 -0.899831 0.55450755 0.1079659 -0.9128554 0.8202132 0.53010076 0.5339867 -0.5606694 0.14116438
AAGCCG 0.68341565 -0.94496924 -0.42488092 -0.8658431 0.56241274 0.09215295 -0.8763411 0.7376178 0.33843303 0.42791796 -0.49129534 0.12968162 0.74577624 -0.90122145 -0.4400275 -0.912182 0.5292568 0.19650972 -0.90296847 0.79191816 0.48215142 0.36444318 -0.5501215 0.13947335
AAGCCT 0.6490384 -0.9252279 -0.512752 -0.888679 0.5385327 0.09438489 -0.9275235 0.85331273 0.6578757 0.5059654 -0.5636664 0.1493158 0.7378476 -0.92238 -0.4735669 -0.9039442 0.539005 0.1002297 -0.91296 0.8249451 0.56620115 0.5499005 -0.5730927 0.13685982
AAGCGA 0.66872483 -0.94885176 -0.37448627 -0.81346 0.5798627 0.06287744 -0.8425767 0.66611916 0.22010764 0.35315934 -0.4543421 0.11557203 0.7488738 -0.92584544 -0.38858297 -0.8896128 0.5309514 0.16347794 -0.87969196 0.7345274 0.38720024 0.29302296 -0.51239634 0.13327387
AAGCGC 0.62448466 -0.93791246 -0.47736993 -0.8579885 0.5527818 0.0643902 -0.91725856 0.8255395 0.5901621 0.45069155 -0.5289404 0.1456203 0.7369018 -0.9325842 -0.42629674 -0.8727696 0.54679054 0.06756699 -0.8939427 0.7827768 0.50238514 0.5001571 -0.53929085 0.12742959
AAGCGG 0.7113043 -0.9391013 -0.41976783 -0.8775782 0.53887814 0.18385412 -0.8459042 0.6766419 0.23027627 0.34201553 -0.48340976 0.1266496 0.77683806 -0.86948925 -0.44061422 -0.91461456 0.52272034 0.27493954 -0.8782291 0.73943835 0.34566405 0.22069807 -0.56247526 0.13640398
AAGCGT 0.6739743 -0.908881 -0.5319493 -0.9085258 0.50956476 0.17395362 -0.9169927 0.83410233 0.6377287 0.47798952 -0.5476652 0.14253555 0.765458 -0.90404147 -0.48036182 -0.91658163 0.5191556 0.18178415 -0.8951381 0.7919496 0.5248844 0.5082102 -0.55491906 0.13145564
AAGCTA 0.6511832 -0.9503903 -0.4580853 -0.8645542 0.5771731 0.06594456 -0.8889854 0.7566266 0.3053926 0.40286067 -0.51260114 0.13996883 0.7283826 -0.90749604 -0.4776352 -0.90192825 0.557151 0.2002158 -0.9111006 0.80419147 0.46867865 0.3367657 -0.5638362 0.15129535
AAGCTC 0.63126117 -0.9302925 -0.54206043 -0.8909228 0.5508925 0.07536409 -0.9339484 0.8635526 0.6913856 0.5018433 -0.57539016 0.16147797 0.7265638 -0.9270216 -0.5015808 -0.89666 0.56036454 0.081590295 -0.91969436 0.83514315 0.5571034 0.5351827 -0.5874169 0.14711134
AAGCTG 0.69597846 -0.9483214 -0.45376858 -0.8819749 0.55240613 0.062332753 -0.8941526 0.774319 0.40093714 0.44701356 -0.51058203 0.13906492 0.7496656 -0.9013634 -0.4653994 -0.9149539 0.53033346 0.17321238 -0.9123202 0.8134171 0.52640855 0.38266778 -0.5634004 0.14205629
AAGCTT 0.6730522 -0.92619 -0.5250178 -0.89935434 0.5269561 0.066605136 -0.93156123 0.86337084 0.68498594 0.5196825 -0.57772106 0.15212657 0.7410689 -0.924054 -0.49507898 -0.9112612 0.5342781 0.07448055 -0.92227757 0.844048 0.60174245 0.5562274 -0.5894206 0.14106897
AAGGAA 0.63244075 -0.92034566 -0.38141486 -0.5121387 0.7321677 0.205209 -0.78022623 0.55587417 -0.069267355 0.21716103 -0.51803464 0.108659185 0.745298 -0.86358243 -0.33797154 -0.77194685 0.55985063 0.31186843 -0.8128623 0.6092012 0.21603705 0.15815338 -0.52346873 0.12949796
AAGGAC 0.5760489 -0.8924329 -0.49852106 -0.68964773 0.7063489 0.21226649 -0.88529265 0.75796163 0.39340404 0.35094008 -0.5812697 0.15947957 0.72314173 -0.8836986 -0.40758017 -0.7105285 0.63658524 0.19824444 -0.84400254 0.6897757 0.37039334 0.42156726 -0.56009233 0.12498332
AAGGAG 0.68574524 -0.93039775 -0.38870138 -0.75571984 0.5815653 0.2761321 -0.79132265 0.5775538 0.09530582 0.22136341 -0.49469507 0.11594517 0.7705124 -0.8322427 -0.3894024 -0.8649665 0.5104964 0.37152442 -0.8331392 0.65167385 0.23398219 0.06806153 -0.56058776 0.12689693
AAGGAT 0.6416055 -0.8871201 -0.5152813 -0.8378541 0.54586816 0.26746333 -0.89060974 0.7796116 0.5357335 0.39487475 -0.5573831 0.13750365 0.75719374 -0.8814912 -0.4477488 -0.85308194 0.528919 0.2732952 -0.85813427 0.7215961 0.45526674 0.43714914 -0.55175793 0.12305975
AAGGCA 0.627076 -0.94421214 -0.43580878 -0.7747291 0.64861786 0.17312059 -0.8516551 0.6789107 0.12193928 0.33582753 -0.50910264 0.12773311 0.7170801 -0.87979215 -0.44701397 -0.8609652 0.5805726 0.34416214 -0.8832156 0.74181294 0.30217496 0.26384303 -0.5491278 0.14912955
AAGGCC 0.5863902 -0.91415656 -0.5460464 -0.8350797 0.62129414 0.18817179 -0.9208679 0.83182096 0.5782054 0.45631602 -0.5719299 0.16549227 0.7152868 -0.9097371 -0.48495606 -0.8420957 0.6057915 0.191185 -0.8953871 0.7845485 0.4516229 0.5028735 -0.57221264 0.14236687
AAGGCG 0.67712516 -0.9373308 -0.4410826 -0.78341216 0.63632196 0.15860245 -0.8639365 0.71195585 0.26985934 0.38639823 -0.51699716 0.13249916 0.74615985 -0.8639653 -0.43010786 -0.87819064 0.5398894 0.2913501 -0.8865907 0.7582037 0.42242867 0.32627076 -0.5514411 0.1388858
AAGGCT 0.6392696 -0.90020406 -0.5271357 -0.82277536 0.606778 0.16546659 -0.9156258 0.82872844 0.5932923 0.46435863 -0.58403355 0.15755783 0.72760737 -0.89976496 -0.48221004 -0.85478914 0.5754153 0.17097788 -0.9024101 0.8032043 0.5369865 0.5206482 -0.5805559 0.13893816
AAGGGA 0.6368387 -0.9123144 -0.38696077 -0.4713185 0.7205037 0.2875697 -0.7553414 0.5230167 -0.120388836 0.16144723 -0.54348445 0.10961654 0.7655405 -0.85138994 -0.33184087 -0.79014814 0.5366709 0.38909817 -0.79189795 0.5807364 0.18496814 0.06720521 -0.54432344 0.12776189
AAGGGC 0.59160286 -0.8908083 -0.51362354 -0.69829136 0.6906613 0.28920117 -0.8775187 0.7504832 0.39908382 0.33436564 -0.6048243 0.15851526 0.74510396 -0.88108945 -0.4124756 -0.7065719 0.6205629 0.2757813 -0.8273004 0.6678556 0.3562937 0.40347898 -0.5758758 0.12376125
AAGGGG 0.6893999 -0.8819303 -0.40496457 -0.55346555 0.6272169 0.39285505 -0.74700755 0.5159622 -0.14406186 0.037556514 -0.5642088 0.12414948 0.7979454 -0.70397496 -0.39313155 -0.77404135 0.5391344 0.49404532 -0.79791456 0.60390663 0.03536639 -0.2045702 -0.6220147 0.13765596
AAGGGT 0.6646321 -0.8108767 -0.5492964 -0.7446484 0.604852 0.40347493 -0.8763802 0.7592733 0.38305414 0.308014 -0.6399466 0.15667483 0.79358965 -0.79724085 -0.45139608 -0.701809 0.5778868 0.4047739 -0.82181704 0.6668606 0.29353565 0.3399942 -0.61999786 0.13683818
AAGGTA 0.6378613 -0.92356116 -0.47581938 -0.73464614 0.6598126 0.27435514 -0.8383633 0.66312504 0.03208079 0.32124507 -0.55323946 0.13452953 0.74542075 -0.8402085 -0.4637069 -0.8693489 0.5683969 0.44453058 -0.872191 0.7292003 0.24290699 0.21983363 -0.586491 0.15124382
AAGGTC 0.6064325 -0.88876474 -0.5933911 -0.82753605 0.6333399 0.28769186 -0.91835254 0.83590126 0.58870345 0.4673311 -0.6160169 0.1737452 0.7430598 -0.8827908 -0.50727224 -0.84191054 0.5988997 0.28953394 -0.88680506 0.7773965 0.42918408 0.51488054 -0.599154 0.1472848
AAGGTG 0.6945611 -0.91305715 -0.4726598 -0.69417274 0.6802805 0.2850797 -0.8395927 0.67396146 0.12268738 0.3475097 -0.5724055 0.13750778 0.77734125 -0.80170584 -0.43747774 -0.86189324 0.545947 0.42753315 -0.86683166 0.72738904 0.3228726 0.25141963 -0.594517 0.13993292
AAGGTT 0.6509373 -0.86317366 -0.5806937 -0.77726585 0.65620005 0.29792106 -0.9109582 0.8267549 0.56457734 0.45746765 -0.63860786 0.17105377 0.7558553 -0.8606669 -0.50693256 -0.8133479 0.6040111 0.29822296 -0.8877119 0.78336644 0.48173684 0.51749516 -0.6176712 0.14592189
AAGTAA 0.64071053 -0.9349763 -0.36077723 -0.7383297 0.6327009 0.16477892 -0.8016806 0.59545463 0.08863376 0.30699465 -0.46319237 0.10596778 0.7472219 -0.9046426 -0.3556947 -0.87289107 0.5368336 0.27463174 -0.84342813 0.66681427 0.2953802 0.2479082 -0.5066307 0.12816194
AAGTAC 0.58740765 -0.9246651 -0.48182613 -0.82452106 0.604841 0.1665338 -0.9041674 0.79899234 0.5227636 0.4285167 -0.53522646 0.14694326 0.73663706 -0.9158475 -0.4003944 -0.8412876 0.57165825 0.16199936 -0.86309373 0.7282009 0.43430775 0.48648083 -0.5286052 0.12006845
AAGTAG 0.69418436 -0.93115 -0.40957436 -0.8317325 0.559795 0.3468288 -0.8002296 0.5952141 0.08577964 0.29747784 -0.46488935 0.1167533 0.7836243 -0.85888666 -0.41966283 -0.9102461 0.5221111 0.43532655 -0.8469556 0.6784781 0.23138307 0.16615973 -0.5422502 0.13375856
AAGTAT 0.6571514 -0.90424 -0.54471385 -0.89614666 0.5326074 0.3375638 -0.90478563 0.80864763 0.5785611 0.4724855 -0.5327339 0.1432026 0.7788638 -0.8959635 -0.4648747 -0.90168685 0.52807426 0.3362956 -0.864207 0.7355072 0.44866434 0.5017092 -0.5282724 0.12622319
AAGTCA 0.6164447 -0.94773245 -0.46244988 -0.8596513 0.5873785 0.17324023 -0.8767034 0.7303483 0.24290277 0.40752074 -0.4887426 0.13467206 0.7127164 -0.9086937 -0.47765148 -0.90888625 0.5584208 0.32218102 -0.9043912 0.7889644 0.43359756 0.34408873 -0.5391631 0.14849961
AAGTCC 0.59265554 -0.93056303 -0.55780673 -0.8893225 0.564552 0.18238057 -0.93139404 0.8574104 0.69264764 0.5125892 -0.5526785 0.1603342 0.71676975 -0.9270239 -0.50294775 -0.8983419 0.5667536 0.18712266 -0.9106808 0.8173617 0.5202392 0.55167913 -0.55880654 0.14427638
AAGTCG 0.6919718 -0.94022954 -0.43842146 -0.85859114 0.57648796 0.16842104 -0.8708629 0.72967476 0.32264102 0.44493657 -0.4903807 0.12992355 0.7548054 -0.8910845 -0.447166 -0.91698396 0.5280867 0.28881693 -0.8985201 0.7855139 0.47613472 0.3839516 -0.54131573 0.13758132
AAGTCT 0.6554695 -0.9195927 -0.53041506 -0.88521796 0.5532467 0.17162365 -0.9255167 0.85094905 0.65568733 0.5229962 -0.56238914 0.15093161 0.7475285 -0.9167548 -0.4838102 -0.9043192 0.5443294 0.17731243 -0.9082128 0.81766415 0.55757296 0.56877625 -0.5647462 0.13702624
AAGTGA 0.66816926 -0.93532914 -0.38440737 -0.729413 0.6585692 0.17517118 -0.82084185 0.6295454 0.117319025 0.32833654 -0.48361042 0.11407215 0.76325387 -0.89951307 -0.37739697 -0.86993665 0.5503012 0.30383915 -0.8582064 0.6955571 0.3263969 0.27651215 -0.5154568 0.1338318
AAGTGC 0.6186757 -0.9219448 -0.5003824 -0.81316435 0.63275766 0.18127027 -0.91032225 0.8120207 0.5393976 0.43907386 -0.55544484 0.15498161 0.7487549 -0.9150628 -0.4251955 -0.83472 0.5920941 0.17676528 -0.8763151 0.7519767 0.4551018 0.49941686 -0.5461745 0.12804414
AAGTGG 0.7194705 -0.92399293 -0.42901394 -0.83425826 0.5687721 0.31991753 -0.82142335 0.63489974 0.13750955 0.31661218 -0.49664256 0.12630412 0.79160064 -0.82859445 -0.44062784 -0.9032225 0.52822185 0.41870952 -0.85944307 0.70624155 0.26218405 0.17927885 -0.5704979 0.13570935
AAGTGT 0.6794518 -0.88499635 -0.5543687 -0.88923347 0.5401435 0.31296015 -0.9088449 0.8198145 0.59724337 0.47541922 -0.56269634 0.14585312 0.7811139 -0.8786948 -0.48587447 -0.8985039 0.5345643 0.3168347 -0.87805986 0.7627838 0.47774246 0.50649506 -0.5588332 0.13217041
AAGTTA 0.6538438 -0.94217074 -0.47882193 -0.8291678 0.6290823 0.18153708 -0.8804932 0.7397642 0.22795023 0.40442508 -0.5246192 0.1420246 0.7379304 -0.8858234 -0.48818427 -0.89418566 0.57618153 0.36014685 -0.9040025 0.7900018 0.41308725 0.34227487 -0.5597972 0.15428364
AAGTTC 0.62996644 -0.9173008 -0.5721442 -0.8683909 0.6051791 0.19884296 -0.9322022 0.8596515 0.670515 0.511998 -0.58637494 0.17130284 0.73698705 -0.91406643 -0.5167875 -0.87938327 0.59359807 0.20271641 -0.9127306 0.8219275 0.5135402 0.5505571 -0.58592445 0.15179183
AAGTTG 0.7059033 -0.9388438 -0.46884152 -0.8465725 0.6043852 0.17387332 -0.8833583 0.75392973 0.3364293 0.45232585 -0.5202496 0.14014879 0.7612355 -0.874799 -0.46929744 -0.90916985 0.54290307 0.31607917 -0.9036347 0.796965 0.4824421 0.39075232 -0.5585026 0.14269388
AAGTTT 0.6743225 -0.91030365 -0.55112404 -0.8738126 0.5798105 0.18211779 -0.9280977 0.85665894 0.65937275 0.52999234 -0.58675593 0.16050294 0.75197864 -0.90858555 -0.50716645 -0.8949737 0.56336 0.18909173 -0.91431254 0.8293346 0.56816536 0.5728365 -0.5855978 0.14440283
AATAAA 0.6391473 -0.9365034 -0.35465837 -0.7116405 0.6288144 0.10073037 -0.8028729 0.5917397 0.102033414 0.2893922 -0.4581316 0.106080756 0.7322073 -0.89857733 -0.34704778 -0.8475519 0.5291267 0.18150416 -0.8429969 0.6608843 0.30214337 0.2279451 -0.5075845 0.12658137
AATAAC 0.5828887 -0.91760045 -0.46143955 -0.8013535 0.5959833 0.096975006 -0.8964555 0.7793476 0.49301863 0.40063956 -0.52869 0.1440678 0.7158152 -0.90973884 -0.39558375 -0.8193645 0.5656092 0.0967396 -0.8654976 0.72644705 0.44191682 0.45638964 -0.5302317 0.12016348
AATAAG 0.6873989 -0.94209045 -0.37729704 -0.83905613 0.5395429 0.19033132 -0.81495136 0.61666346 0.1920618 0.28871047 -0.46564844 0.11385073 0.76380825 -0.87833214 -0.3924171 -0.9006174 0.50467706 0.26868996 -0.85513777 0.68948185 0.3136324 0.1646389 -0.54471445 0.12688087
AATAAT 0.6429532 -0.913837 -0.49585903 -0.8838284 0.50522053 0.17651172 -0.90259945 0.801261 0.5864665 0.43456683 -0.529318 0.13189985 0.75046 -0.9087503 -0.4422443 -0.8972219 0.5088037 0.1833899 -0.87640023 0.7531216 0.49955723 0.47247666 -0.5356151 0.120870225
AATACA 0.6215634 -0.95329416 -0.4231464 -0.84856015 0.5790206 0.09053165 -0.86863524 0.7112286 0.24190307 0.37722445 -0.47669995 0.12644 0.7027296 -0.91497487 -0.4488842 -0.8920412 0.5565336 0.20389149 -0.8992189 0.774046 0.40626013 0.31222275 -0.5381678 0.14424595
AATACC 0.5869664 -0.9350528 -0.5199743 -0.8804565 0.55092174 0.09371629 -0.9262022 0.8429905 0.63664734 0.4800243 -0.5409787 0.15254372 0.703045 -0.9313011 -0.4768884 -0.88517284 0.5627883 0.099224076 -0.9079054 0.8080417 0.51571673 0.5176716 -0.55652535 0.13716611
AATACG 0.676274 -0.94532955 -0.42073202 -0.8525818 0.56377345 0.07948726 -0.87724036 0.737645 0.36490226 0.41980913 -0.48602885 0.1288318 0.7358375 -0.89692175 -0.42955512 -0.9013873 0.52129006 0.17141896 -0.89963055 0.78434527 0.4886925 0.36225873 -0.5438109 0.13498916
AATACT 0.6456885 -0.92111677 -0.4950809 -0.87413824 0.53398806 0.07918595 -0.9209356 0.83908314 0.6322487 0.4870179 -0.5565116 0.14348052 0.72145224 -0.9198167 -0.46793187 -0.89313996 0.53451884 0.08581382 -0.9122357 0.8216477 0.5774328 0.5326276 -0.5696859 0.13266516
AATAGA 0.6515437 -0.9400735 -0.36830154 -0.7575249 0.5788035 0.27054515 -0.7840654 0.56553423 0.120874785 0.32104784 -0.37765577 0.10183565 0.7519927 -0.9089936 -0.3595989 -0.88955534 0.49071476 0.3715249 -0.82800406 0.6373578 0.31892842 0.26004672 -0.4279433 0.1177704
AATAGC 0.6015334 -0.93009835 -0.4833239 -0.8368605 0.5463778 0.26539934 -0.8879817 0.76738566 0.52644885 0.436765 -0.44643307 0.1326047 0.73731256 -0.92345196 -0.41095558 -0.8590425 0.5200855 0.26140216 -0.8485949 0.70033604 0.45436805 0.4883284 -0.44297206 0.11177065
AATAGG 0.705775 -0.92892605 -0.39597246 -0.8371207 0.5333737 0.3626566 -0.7828457 0.5671102 0.081509694 0.26312262 -0.44470212 0.113547504 0.7940078 -0.84850377 -0.40511474 -0.9172743 0.5000133 0.4567952 -0.83033055 0.6491234 0.21792546 0.11093459 -0.5245958 0.12612225
AATAGT 0.6707514 -0.8987912 -0.5293678 -0.89944524 0.5038371 0.35343927 -0.89332074 0.787313 0.5566631 0.44912577 -0.50982094 0.13330027 0.78495413 -0.89042354 -0.45438418 -0.9074209 0.5040283 0.35354492 -0.8527047 0.7153978 0.44858032 0.4756217 -0.50812244 0.120504215
AATATA 0.6420522 -0.95125806 -0.46762148 -0.88575023 0.53964907 0.26024592 -0.86537844 0.7101643 0.27346846 0.43654576 -0.40397823 0.12695779 0.7258484 -0.91613764 -0.48371157 -0.92348117 0.5241432 0.3938278 -0.8949257 0.7704772 0.4454649 0.3709666 -0.46133128 0.13646384
AATATC 0.61776495 -0.9364871 -0.56010556 -0.909801 0.51402205 0.2568219 -0.92269665 0.84151906 0.6831189 0.5336481 -0.46682596 0.14575337 0.72634655 -0.93309975 -0.50959194 -0.91894156 0.525613 0.26680943 -0.90281326 0.80279124 0.5406049 0.5670652 -0.4751697 0.13306592
AATATG 0.69708586 -0.9431443 -0.45010927 -0.877609 0.53538185 0.25048724 -0.86574435 0.71960306 0.35517758 0.46153495 -0.41624644 0.1261875 0.75518805 -0.89255214 -0.4537111 -0.92910564 0.49424106 0.37101135 -0.8903798 0.76950663 0.49046686 0.40128717 -0.4689527 0.12502551
AATATT 0.66545373 -0.92178667 -0.5318596 -0.8974139 0.5082958 0.24655855 -0.91561913 0.83222765 0.6504161 0.5302875 -0.48566967 0.13695067 0.7436547 -0.92015994 -0.49422228 -0.91867083 0.50774306 0.25843138 -0.90196306 0.8052634 0.57536966 0.57220566 -0.49128857 0.12628986
AATCAA 0.63439155 -0.94742835 -0.35252067 -0.83236945 0.5516391 0.107798055 -0.82011014 0.6250842 0.1907891 0.34988353 -0.41779914 0.104504354 0.7258502 -0.9288941 -0.37324795 -0.8990826 0.51846725 0.19285662 -0.8658004 0.7066644 0.35687944 0.28758886 -0.4904558 0.12649503
AATCAC 0.5799914 -0.93984336 -0.46729738 -0.8736636 0.52437675 0.104146935 -0.91129416 0.81265914 0.57820743 0.45540527 -0.4929558 0.13548142 0.72132003 -0.93321925 -0.4055709 -0.88590914 0.5280814 0.106252335 -0.87833303 0.75407964 0.47620037 0.50395244 -0.50424975 0.11753867
AATCAG 0.68708026 -0.947206 -0.4063874 -0.8910614 0.5255188 0.2674466 -0.8260932 0.63668025 0.18180785 0.34598622 -0.43911958 0.11615825 0.76749885 -0.9025386 -0.43080196 -0.92781186 0.51766145 0.3483 -0.86927766 0.71631825 0.31780666 0.23795182 -0.5226964 0.1324689
AATCAT 0.6488451 -0.92975676 -0.53224885 -0.92224514 0.5000068 0.25218472 -0.91436553 0.8250493 0.6321698 0.49408403 -0.5038351 0.1379471 0.76417243 -0.92353296 -0.4671595 -0.92698634 0.5131386 0.25597778 -0.88211375 0.76489943 0.49507228 0.5213938 -0.5095903 0.124291636
AATCCA 0.5997945 -0.9573878 -0.45893285 -0.8955374 0.5378344 0.12109513 -0.8887831 0.7534839 0.3359069 0.4265029 -0.4623552 0.13303964 0.6920236 -0.9333618 -0.48155516 -0.9188104 0.53967494 0.22659811 -0.91379994 0.80784535 0.5168064 0.36761743 -0.52514744 0.1436868
AATCCC 0.58190763 -0.94555223 -0.5416876 -0.9117223 0.51599854 0.12036062 -0.93355405 0.86164975 0.7292559 0.51861 -0.5248681 0.14953615 0.6970632 -0.94302654 -0.501343 -0.91737443 0.53651047 0.12801675 -0.9185509 0.83170575 0.5703732 0.552617 -0.54182255 0.13915965
AATCCG 0.68212885 -0.94986945 -0.42637056 -0.894208 0.5317251 0.113836594 -0.88043845 0.7467693 0.38055685 0.4577346 -0.4680812 0.1269495 0.7411129 -0.91901326 -0.44810832 -0.92478085 0.51769954 0.2081884 -0.90746295 0.8020153 0.5223242 0.40114635 -0.5306229 0.134834
AATCCT 0.6499826 -0.9365038 -0.5109818 -0.90947723 0.51057696 0.11189385 -0.9288585 0.8565493 0.6794353 0.5278221 -0.54058844 0.14203027 0.7368688 -0.9339657 -0.4759441 -0.92147684 0.52169824 0.1195453 -0.91479105 0.82893634 0.58402574 0.5687618 -0.5533499 0.13269857
AATCGA 0.66825116 -0.9473309 -0.3718225 -0.8372422 0.5584472 0.095008425 -0.84204316 0.66688526 0.25454557 0.38086998 -0.43317413 0.112712815 0.744607 -0.9257207 -0.39082125 -0.9005922 0.51938254 0.1864423 -0.88031787 0.7380445 0.41367796 0.32449096 -0.4981807 0.12988336
AATCGC 0.6224967 -0.9380894 -0.47310722 -0.8724723 0.5311429 0.09325467 -0.91593194 0.8239349 0.6004722 0.46927324 -0.50969434 0.13912481 0.7342866 -0.9331645 -0.42470336 -0.887789 0.5318191 0.096787326 -0.8928377 0.7817704 0.514915 0.517936 -0.521545 0.123872995
AATCGG 0.7175055 -0.9440123 -0.41981784 -0.9036799 0.51987994 0.2126967 -0.84851164 0.6819858 0.2643808 0.37114638 -0.46929854 0.124295376 0.77974564 -0.88988125 -0.44362772 -0.9305373 0.5136295 0.29657736 -0.8812256 0.7450649 0.3809225 0.26237327 -0.5486608 0.13286763
AATCGT 0.6798317 -0.9210938 -0.53047156 -0.9256333 0.4927165 0.19878578 -0.9181286 0.83613867 0.65374964 0.49950397 -0.53239274 0.13763496 0.7684147 -0.91646796 -0.4812172 -0.9325408 0.5078387 0.20667256 -0.8964116 0.794239 0.5401328 0.52730745 -0.54098433 0.12796193
AATCTA 0.64956486 -0.95535094 -0.46445012 -0.89183974 0.54974955 0.09822625 -0.89482206 0.7691582 0.36627865 0.43889278 -0.4901065 0.1382862 0.7235724 -0.9255194 -0.48610902 -0.9159883 0.54474664 0.212201 -0.91607654 0.8154729 0.52817285 0.38114747 -0.54487324 0.14633389
AATCTC 0.6333868 -0.94142747 -0.5416369 -0.9098319 0.52619207 0.10064558 -0.9351393 0.86648 0.7188682 0.5271307 -0.552264 0.15426762 0.72348 -0.9387833 -0.50639945 -0.9147102 0.5432408 0.10877354 -0.9225641 0.8409792 0.58725226 0.55799717 -0.5668386 0.14301518
AATCTG 0.7008729 -0.950292 -0.4497898 -0.9003849 0.5307348 0.09223083 -0.8955387 0.7786162 0.4379854 0.4768863 -0.49130362 0.13514496 0.7485163 -0.91359013 -0.46511 -0.92534554 0.517266 0.19008164 -0.91430974 0.81884176 0.55951595 0.42086816 -0.54592603 0.13605691
AATCTT 0.67764926 -0.9337492 -0.5181116 -0.91310024 0.50767094 0.09163487 -0.9312492 0.8632182 0.69333947 0.5391879 -0.5591891 0.14444043 0.7421237 -0.93195397 -0.49227294 -0.92411774 0.5200519 0.10090448 -0.92242867 0.84479845 0.6156717 0.5755488 -0.57266957 0.1357731
AATGAA 0.65542305 -0.9402039 -0.3583842 -0.737336 0.6231827 0.088985816 -0.81500304 0.6136279 0.13336192 0.30517474 -0.45897028 0.1090401 0.7443271 -0.90694684 -0.35619155 -0.8591627 0.53405744 0.17380646 -0.85454875 0.6829947 0.3239763 0.24581856 -0.5103051 0.12914163
AATGAC 0.60272676 -0.923794 -0.46506688 -0.81472176 0.59361607 0.087052174 -0.90376234 0.7949245 0.5190147 0.41362736 -0.53174895 0.14601515 0.7276679 -0.9165613 -0.40249103 -0.8327218 0.56673306 0.0868006 -0.8749301 0.7445658 0.45877302 0.46801937 -0.5351736 0.12288016
AATGAG 0.70416534 -0.9453376 -0.38786253 -0.85657454 0.5379376 0.19757597 -0.8264066 0.63701576 0.21492282 0.3123052 -0.45985484 0.11685086 0.7748688 -0.8861928 -0.40560764 -0.9080488 0.50968915 0.2773756 -0.8638838 0.70611066 0.3322746 0.1942099 -0.53895503 0.12872598
AATGAT 0.6613342 -0.9192982 -0.5048936 -0.89439124 0.5057942 0.18351528 -0.9082002 0.8125635 0.60596544 0.45369813 -0.5233231 0.13424125 0.76044667 -0.9145689 -0.45340088 -0.9059604 0.51150703 0.19054836 -0.88348776 0.7662839 0.5123843 0.4887283 -0.53048015 0.123023435
AATGCA 0.6407318 -0.9549719 -0.43098322 -0.853705 0.5830321 0.08318635 -0.8767786 0.7277419 0.2631046 0.38398954 -0.48614797 0.13091066 0.7189176 -0.9186666 -0.45563686 -0.8952913 0.5605284 0.20029432 -0.9044954 0.78540117 0.4269814 0.32012334 -0.54405135 0.1468421
AATGCC 0.611115 -0.9376296 -0.52489746 -0.88334423 0.5568959 0.08825225 -0.93017995 0.85172915 0.6558559 0.48741326 -0.5503302 0.1561847 0.7174771 -0.9341071 -0.48331246 -0.8880485 0.56692636 0.09320755 -0.9129977 0.81842816 0.5295719 0.52316254 -0.5650587 0.14065328
AATGCG 0.69068605 -0.9480331 -0.42632908 -0.8610809 0.5634955 0.073063076 -0.8834883 0.7504154 0.3792566 0.4281482 -0.4914928 0.13178326 0.74632716 -0.9031995 -0.4366856 -0.905269 0.526154 0.16792332 -0.90450585 0.79440814 0.5013904 0.37001628 -0.5476647 0.13715181
AATGCT 0.6617319 -0.92590886 -0.50032014 -0.88106847 0.5358603 0.07408201 -0.92523867 0.8480154 0.64784324 0.49719757 -0.5617747 0.14622182 0.732643 -0.92435503 -0.47332704 -0.89778477 0.53740287 0.08030506 -0.916249 0.82977885 0.5859792 0.54027534 -0.5748253 0.1352356
AATGGA 0.66938776 -0.9428116 -0.3694691 -0.7971561 0.5647346 0.20823321 -0.8032046 0.59953815 0.16501427 0.3354545 -0.41118318 0.106353715 0.76342976 -0.9141801 -0.36968142 -0.90173644 0.49743077 0.31166214 -0.8463046 0.67269003 0.34524098 0.26617467 -0.46729448 0.122127086
AATGGC 0.62324554 -0.9330377 -0.48324424 -0.8583966 0.53350973 0.20212728 -0.89950097 0.7924853 0.5630949 0.44861528 -0.4823916 0.13501468 0.749415 -0.9267431 -0.41698104 -0.8788234 0.5178446 0.20292346 -0.8649673 0.7318647 0.47748294 0.49888933 -0.4822966 0.11639864
AATGGG 0.7225397 -0.9263317 -0.40362397 -0.8517054 0.5387833 0.31238857 -0.7989237 0.595709 0.09505485 0.27119726 -0.47954842 0.11946837 0.8047696 -0.84290075 -0.41608107 -0.9207017 0.51050425 0.40974718 -0.84322643 0.67454743 0.22405009 0.113366194 -0.5577296 0.13173053
AATGGT 0.68806666 -0.8944104 -0.53560245 -0.9069411 0.5099005 0.3034522 -0.901906 0.8058131 0.57763684 0.4548176 -0.5453787 0.13926616 0.7951746 -0.8858598 -0.46123835 -0.9137698 0.5117066 0.30595508 -0.8640113 0.73743093 0.45623818 0.4809983 -0.5426726 0.12618932
AATGTA 0.65935725 -0.9493553 -0.473882 -0.8921345 0.5418434 0.20062035 -0.8770814 0.7352292 0.3034019 0.43567845 -0.44998324 0.1339974 0.73967606 -0.9122203 -0.4886453 -0.92553204 0.52886 0.33604324 -0.90208215 0.7874108 0.46978673 0.36399588 -0.50557303 0.1410317
AATGTC 0.6402748 -0.93316966 -0.56080496 -0.913721 0.5164679 0.19942509 -0.9279369 0.85417336 0.70469457 0.5332176 -0.5130211 0.15076433 0.7378176 -0.9297925 -0.5133944 -0.9222107 0.5282449 0.20980929 -0.91082597 0.82023466 0.56059366 0.5649445 -0.5215417 0.1385372
AATGTG 0.71215236 -0.9431122 -0.45602572 -0.8903939 0.53446543 0.19756272 -0.87577856 0.7403076 0.37138614 0.4628417 -0.45706618 0.1317504 0.76538485 -0.8917456 -0.4616864 -0.932266 0.5032672 0.31965885 -0.8976345 0.78536075 0.500473 0.3936457 -0.51048124 0.13013542
AATGTT 0.68252766 -0.9209222 -0.5355998 -0.90754414 0.5083225 0.19465555 -0.9220215 0.8463389 0.66966945 0.53515196 -0.5257044 0.14203158 0.7541141 -0.9188235 -0.49858958 -0.92503715 0.5115502 0.20656766 -0.909282 0.8207933 0.58657837 0.57341504 -0.53204775 0.13147347
AATTAA 0.6545848 -0.9466974 -0.35559958 -0.8233626 0.5748729 0.096532755 -0.8277757 0.6397017 0.19149934 0.34657514 -0.4487551 0.10870985 0.74492985 -0.9268321 -0.3746155 -0.89692247 0.53193647 0.18849303 -0.8710996 0.7178766 0.35953575 0.283941 -0.5147944 0.13076138
AATTAC 0.60361 -0.9386991 -0.47151914 -0.86825556 0.54955834 0.09594649 -0.9164051 0.8236376 0.58629 0.45511916 -0.5242056 0.14190695 0.738278 -0.93184084 -0.40785366 -0.8808119 0.54558295 0.09716524 -0.8839456 0.7654023 0.47994724 0.5052301 -0.5316109 0.12217027
AATTAG 0.7076964 -0.9436552 -0.4154928 -0.8828264 0.5408118 0.28275838 -0.8311081 0.646784 0.18096556 0.35029963 -0.4554873 0.12049623 0.7824601 -0.8922626 -0.4374246 -0.9251069 0.52499485 0.36661574 -0.87198555 0.7229651 0.3152474 0.24054147 -0.5352467 0.13573906
AATTAT 0.66890246 -0.9236122 -0.54083794 -0.9177616 0.5155647 0.26945743 -0.9167561 0.8305275 0.6356168 0.4989724 -0.5210163 0.14279394 0.7773184 -0.9172461 -0.4741441 -0.92275494 0.5230864 0.2724436 -0.88457006 0.77030075 0.49429432 0.5264828 -0.5235747 0.12816155
AATTCA 0.62839675 -0.9548211 -0.4599077 -0.88774586 0.5586979 0.11427432 -0.8917842 0.7605777 0.33060762 0.42313278 -0.491709 0.13770102 0.7156446 -0.9263901 -0.48063573 -0.9167064 0.5508264 0.23132268 -0.91547334 0.8119766 0.5093377 0.36236963 -0.54881907 0.14807749
AATTCC 0.6108991 -0.94135004 -0.54449207 -0.90628815 0.5378304 0.11835384 -0.93647325 0.86790663 0.7304566 0.5198898 -0.5546982 0.15639068 0.7185206 -0.9385215 -0.50189674 -0.91246325 0.55124754 0.12424283 -0.92064726 0.8364521 0.56734055 0.55406016 -0.5675463 0.14420769
AATTCG 0.7006213 -0.9483198 -0.43132073 -0.88815546 0.5495821 0.107623145 -0.88411206 0.7546235 0.37670112 0.4552702 -0.4958239 0.13152237 0.7555088 -0.9132567 -0.45075744 -0.9230137 0.5281026 0.20932864 -0.9095544 0.8067515 0.5183818 0.39511108 -0.5531115 0.13903606
AATTCT 0.66751426 -0.9331319 -0.51724035 -0.90530276 0.5286351 0.10865515 -0.9318563 0.8629262 0.68542016 0.52971756 -0.56671524 0.14824392 0.7504689 -0.93028116 -0.47923785 -0.9176291 0.5340814 0.11507732 -0.91709113 0.83391875 0.5829824 0.5703067 -0.57572913 0.13731878
AATTGA 0.6807016 -0.9497133 -0.3750256 -0.84827745 0.5600516 0.07706386 -0.85097885 0.6842885 0.26953384 0.38689697 -0.44848895 0.11598518 0.75503045 -0.9310814 -0.3970081 -0.90519655 0.5265754 0.17219163 -0.887795 0.75356895 0.4267166 0.32857272 -0.51254433 0.13294344
AATTGC 0.6373046 -0.9416303 -0.47739068 -0.87956965 0.5351591 0.07764698 -0.9219514 0.8369314 0.62096024 0.47667143 -0.5253737 0.14248294 0.7456047 -0.9367163 -0.4288052 -0.89331764 0.5369593 0.08095413 -0.8990771 0.7945678 0.52361083 0.5244026 -0.5369941 0.12716092
AATTGG 0.7314211 -0.94337285 -0.4291115 -0.9056367 0.526598 0.2162489 -0.8546809 0.69399774 0.26889127 0.38088813 -0.47670063 0.1279151 0.7883809 -0.88894916 -0.45248994 -0.93180263 0.5193479 0.30284175 -0.8857114 0.75447065 0.38730982 0.27340075 -0.5532573 0.13589028
AATTGT 0.6928343 -0.92041993 -0.53861755 -0.92722726 0.5003877 0.20362172 -0.92150086 0.8431628 0.6651675 0.508148 -0.5397723 0.14166437 0.77732784 -0.9156467 -0.48776 -0.93338776 0.5137339 0.21106635 -0.8995681 0.8006035 0.54204714 0.53482336 -0.54684615 0.1311595
AATTTA 0.6659773 -0.95438266 -0.4682725 -0.8923254 0.55608153 0.084800534 -0.8994297 0.7796172 0.37921324 0.4422409 -0.5073383 0.1421779 0.7360774 -0.923944 -0.4880198 -0.91735214 0.54805773 0.20404902 -0.9190471 0.8225742 0.5407863 0.38364926 -0.5584557 0.14890532
AATTTC 0.6505195 -0.94017744 -0.54412293 -0.90979105 0.53367496 0.09028354 -0.9379302 0.8728451 0.73147 0.5308372 -0.5696247 0.15806979 0.735354 -0.9374214 -0.5080749 -0.91508883 0.5475716 0.09736852 -0.9253704 0.8472874 0.59393924 0.56144184 -0.58225226 0.14636649
AATTTG 0.7139699 -0.9507128 -0.45433083 -0.9028322 0.5361195 0.08140805 -0.89909023 0.78619134 0.4405933 0.47878212 -0.5069282 0.13843322 0.75731546 -0.91466993 -0.46985793 -0.92669016 0.52315974 0.18274707 -0.9172357 0.8250353 0.56505144 0.42009354 -0.55910605 0.13934003
AATTTT 0.6892075 -0.9344602 -0.5236834 -0.91540354 0.5141086 0.082891785 -0.9344803 0.86995953 0.7060223 0.5439698 -0.57383907 0.14855711 0.7519512 -0.93226606 -0.49518394 -0.9253064 0.52520007 0.09130232 -0.9247907 0.84983826 0.61783415 0.57878417 -0.5855712 0.13920581
ACAAAA 0.5954437 -0.8369894 -0.3652913 -0.07750012 0.85364026 -0.19767405 -0.78764933 0.5767263 -0.31598985 -0.10868354 -0.75156945 0.1252705 0.7253536 -0.71723515 -0.2902616 -0.47402698 0.64794236 -0.14414613 -0.8166757 0.62883186 0.04808722 -0.23999073 -0.7303441 0.16083503
ACAAAC 0.52745926 -0.75228465 -0.4862153 -0.38328817 0.837398 -0.17582041 -0.8972191 0.78893846 0.18609326 0.08087163 -0.806933 0.20163314 0.70180017 -0.73173666 -0.37230775 -0.3691731 0.76409954 -0.19339262 -0.8573127 0.7216211 0.19545063 0.17533104 -0.7783328 0.15695207
ACAAAG 0.635425 -0.8474398 -0.36506483 -0.36150283 0.74809545 -0.1748928 -0.80185324 0.6044756 -0.13930744 -0.15302975 -0.7329112 0.13993147 0.7423146 -0.6334669 -0.33548063 -0.6086448 0.59419644 -0.14438325 -0.846757 0.68968004 0.0779206 -0.3975283 -0.760032 0.17059906
ACAAAT 0.57943064 -0.73666555 -0.50088865 -0.55761826 0.72583836 -0.17159216 -0.90446216 0.8125539 0.35503626 0.071678944 -0.7987911 0.19828703 0.7340582 -0.72193676 -0.40251875 -0.52074707 0.66693205 -0.17200804 -0.86951035 0.74844193 0.2759839 0.14912899 -0.7767484 0.16716684
ACAACA 0.5674424 -0.86106366 -0.39540106 -0.46464476 0.79184777 -0.21429285 -0.8472747 0.68265766 -0.13541998 0.021436147 -0.74464124 0.14760518 0.6813863 -0.6786873 -0.38267207 -0.62135214 0.6609271 -0.07746609 -0.88054144 0.74947566 0.074641414 -0.12453909 -0.75929785 0.19202758
ACAACC 0.49471873 -0.75939214 -0.52939373 -0.61842656 0.7758715 -0.1754302 -0.92832494 0.85400665 0.38882148 0.16830325 -0.80183256 0.21886843 0.6800547 -0.7453019 -0.43143535 -0.57500446 0.7224841 -0.19266468 -0.8966374 0.7956721 0.2578771 0.25601575 -0.7817669 0.17988385
ACAACG 0.64320976 -0.8570572 -0.4093063 -0.45921734 0.7960071 -0.21794231 -0.8556415 0.704376 -0.015857711 0.07289254 -0.7596551 0.15570782 0.7370737 -0.6784029 -0.36834723 -0.67185295 0.6307625 -0.14272673 -0.88332415 0.75971615 0.20084962 -0.067888096 -0.76496917 0.18318449
ACAACT 0.5804533 -0.7450117 -0.52158654 -0.58774394 0.7778778 -0.18627942 -0.9260516 0.8555091 0.4439447 0.20116858 -0.81360114 0.21555199 0.7112164 -0.739845 -0.43743002 -0.62056094 0.70867735 -0.21018808 -0.90763175 0.820406 0.38801304 0.29110795 -0.7936751 0.18270078
ACAAGA 0.61923397 -0.8923628 -0.34696305 -0.4290093 0.7584824 -0.13048513 -0.790866 0.58134025 -0.14788741 -0.02487957 -0.7010716 0.12171662 0.74412584 -0.80477667 -0.30435735 -0.7278796 0.585684 -0.06059593 -0.8318041 0.6521543 0.13805151 -0.18157038 -0.70661205 0.15156578
ACAAGC 0.56578904 -0.84918946 -0.47153935 -0.67186576 0.7274666 -0.12656538 -0.9025295 0.8004174 0.377258 0.18736464 -0.75998396 0.18090239 0.7308116 -0.8341295 -0.37076855 -0.6681886 0.66030115 -0.11856917 -0.8630815 0.7311633 0.32503486 0.26797864 -0.73374224 0.14318314
ACAAGG 0.65319747 -0.858841 -0.3670562 -0.506016 0.6733205 -0.119590566 -0.79713327 0.5998358 -0.14059079 -0.1736664 -0.7111905 0.1396495 0.7650933 -0.6412276 -0.36159536 -0.7039265 0.57820714 -0.058810346 -0.8460709 0.69206476 0.041612048 -0.453759 -0.75701636 0.16634744
ACAAGT 0.62171745 -0.7638054 -0.5051134 -0.6865312 0.65198314 -0.116692565 -0.90284985 0.8115868 0.37010503 0.10180788 -0.7799173 0.18680945 0.7675076 -0.74555737 -0.40780902 -0.63736504 0.61847335 -0.10723046 -0.8621695 0.7371537 0.25756675 0.14919716 -0.7604049 0.16128807
ACAATA 0.5890207 -0.90154874 -0.41900545 -0.67907685 0.699257 -0.16395858 -0.85996795 0.7061409 -0.02488173 0.12226209 -0.7158074 0.14870872 0.70911485 -0.77327555 -0.41710204 -0.79900455 0.61279684 -0.029963097 -0.8922495 0.7717514 0.17175221 -0.04189983 -0.74648595 0.1799622
ACAATC 0.55280364 -0.84142107 -0.54031605 -0.78910744 0.6711942 -0.13989973 -0.9318277 0.8638932 0.549459 0.2978204 -0.7683431 0.19811837 0.7130162 -0.83192366 -0.45521495 -0.7867097 0.6389361 -0.13582188 -0.906419 0.8151661 0.38070524 0.35683706 -0.75338596 0.16886394
ACAATG 0.6671796 -0.8917983 -0.41815177 -0.652967 0.7121013 -0.15235561 -0.85975724 0.71393305 0.07597967 0.16159438 -0.7275695 0.15147623 0.76106143 -0.74671066 -0.3916807 -0.80598414 0.5890816 -0.054762308 -0.88738644 0.7692134 0.26064473 -0.0024384325 -0.74800515 0.16879763
ACAATT 0.624562 -0.81839544 -0.5291061 -0.7521622 0.6861495 -0.13455896 -0.9275402 0.8612776 0.55275226 0.30627584 -0.78083223 0.19413117 0.74151486 -0.81241196 -0.45406586 -0.7786763 0.63529 -0.13349605 -0.90957695 0.8261068 0.45958477 0.37666422 -0.7637065 0.16803569
ACACAA 0.59021926 -0.8905177 -0.32244557 -0.54120064 0.7340551 -0.21535484 -0.8056259 0.60641754 -0.09105389 0.027008146 -0.69240355 0.119203515 0.70948005 -0.8036612 -0.30000815 -0.7449638 0.5986916 -0.17604491 -0.8484218 0.6826566 0.1461074 -0.11733435 -0.7181414 0.15560907
ACACAC 0.5225301 -0.8455083 -0.44522598 -0.72675955 0.7039137 -0.20470275 -0.912595 0.819321 0.40722305 0.21383837 -0.7528013 0.17806369 0.7048983 -0.82577074 -0.34909272 -0.7164502 0.6512207 -0.19673628 -0.87452817 0.75231993 0.33751848 0.28675562 -0.7350388 0.14212954
ACACAG 0.62521094 -0.8647927 -0.365534 -0.5553373 0.6843717 -0.121073134 -0.8096419 0.6186821 -0.1168915 -0.03754342 -0.70228463 0.13645147 0.73738384 -0.67932993 -0.36114573 -0.7219526 0.590633 -0.07814457 -0.8572953 0.7089172 0.061779823 -0.27677903 -0.7501696 0.17232178
ACACAT 0.58047396 -0.78773683 -0.50912684 -0.7381646 0.6606994 -0.11957651 -0.9141737 0.8311323 0.4215757 0.19990425 -0.7700059 0.18986209 0.7440787 -0.7690198 -0.40772593 -0.69678974 0.62292475 -0.112984814 -0.87326443 0.75626075 0.29473564 0.25742134 -0.7492834 0.15956572
ACACCA 0.5280078 -0.89630115 -0.39594597 -0.71402395 0.68722737 -0.22229904 -0.8672253 0.71724033 -0.00086463103 0.12297523 -0.7096085 0.14728856 0.65098935 -0.7686839 -0.4071373 -0.7998545 0.6220332 -0.12605591 -0.9014684 0.78858614 0.18461797 -0.029036094 -0.75226575 0.18538414
ACACCC 0.4759615 -0.83519286 -0.51153195 -0.80164057 0.66081005 -0.19620475 -0.9351063 0.86729336 0.55568093 0.27667922 -0.7622091 0.19476208 0.6654377 -0.82450587 -0.43116263 -0.7872192 0.6414737 -0.19899307 -0.9094342 0.81831723 0.3644876 0.33560848 -0.7548304 0.16822308
ACACCG 0.63926136 -0.8818924 -0.3859674 -0.66269785 0.71373683 -0.21997246 -0.86174446 0.7166073 0.07579426 0.15364312 -0.7259602 0.14790057 0.73426986 -0.74430436 -0.37383318 -0.79924244 0.6035922 -0.153165 -0.8943797 0.78151196 0.25920996 0.0046397396 -0.75527436 0.17719142
ACACCT 0.58545643 -0.8128815 -0.49681234 -0.7635913 0.6894219 -0.19978681 -0.93248945 0.86820894 0.54986435 0.29103428 -0.7820818 0.19466454 0.7230674 -0.8034935 -0.4190024 -0.7777328 0.6423421 -0.20373799 -0.9118268 0.8287037 0.44295236 0.3646065 -0.76750326 0.1686607
ACACGA 0.6359824 -0.89454603 -0.34593505 -0.5303223 0.7593103 -0.2178068 -0.824612 0.6410564 -0.06371837 0.05000565 -0.7172129 0.12866707 0.74642986 -0.80695194 -0.31826556 -0.75443125 0.6106837 -0.1617975 -0.8634401 0.71159184 0.18027735 -0.080799915 -0.7314387 0.16289565
ACACGC 0.57713956 -0.84784836 -0.46761826 -0.71117365 0.7329547 -0.20430951 -0.92060214 0.83667046 0.44003212 0.22431225 -0.7749866 0.1886499 0.7329633 -0.83170974 -0.37350684 -0.7148153 0.6719979 -0.20070781 -0.88836426 0.77841204 0.36532113 0.30318457 -0.7537235 0.151903
ACACGG 0.67104155 -0.8722216 -0.37322685 -0.6306318 0.6717713 -0.17225687 -0.8315406 0.6591352 -0.028340546 -0.0034815061 -0.7185475 0.1451792 0.7665191 -0.68368965 -0.3746594 -0.7598144 0.58750504 -0.13507669 -0.87295836 0.7398866 0.12146621 -0.24798237 -0.7657419 0.17287794
ACACGT 0.631474 -0.7882253 -0.508191 -0.76568437 0.64660156 -0.16759472 -0.9209357 0.8470192 0.49003544 0.2160307 -0.7814113 0.1892591 0.7651306 -0.77349085 -0.4199494 -0.7499941 0.6134689 -0.16380331 -0.8905191 0.7893254 0.36167952 0.26948813 -0.7648608 0.1649368
ACACTA 0.5985057 -0.8971098 -0.4181758 -0.6961658 0.71621984 -0.2308759 -0.8806357 0.7458816 0.041176826 0.13894461 -0.7360839 0.1584643 0.706926 -0.7567303 -0.42332572 -0.789147 0.6342681 -0.10761663 -0.90776724 0.8034809 0.22328728 -9.058243e-05 -0.7642876 0.19028032
ACACTC 0.55968785 -0.8274087 -0.5257015 -0.78107333 0.69253147 -0.19914909 -0.9393624 0.87747383 0.5711466 0.2885649 -0.7854895 0.20559931 0.70765173 -0.8191736 -0.45036367 -0.7757237 0.6617358 -0.20548043 -0.91867393 0.8370916 0.40057972 0.3447261 -0.7742064 0.17829743
ACACTG 0.67221326 -0.89412224 -0.4131374 -0.715849 0.7045261 -0.23417369 -0.8831718 0.7579283 0.15896995 0.19155084 -0.7401428 0.15969713 0.75455976 -0.75084805 -0.4011273 -0.8181594 0.6066862 -0.15629447 -0.90682024 0.80725414 0.3138756 0.04574344 -0.7658154 0.17915268
ACACTT 0.6304223 -0.8193846 -0.50789607 -0.7837061 0.6795295 -0.20753862 -0.9374703 0.8790208 0.5920544 0.323352 -0.78951997 0.19683555 0.7368949 -0.8135305 -0.44270205 -0.80446815 0.63800675 -0.21561071 -0.92350173 0.8508806 0.49138656 0.38313746 -0.7784026 0.1743966
ACAGAA 0.6221197 -0.8973547 -0.36867225 -0.37187326 0.7888987 0.058383167 -0.7821768 0.5651593 -0.1550575 0.08895768 -0.67335325 0.115749 0.7408349 -0.81519437 -0.315349 -0.6854218 0.5986644 0.14445682 -0.81332314 0.61772436 0.1524791 -0.010059025 -0.6618424 0.14210904
ACAGAC 0.56214374 -0.8511795 -0.49033707 -0.613246 0.76288754 0.06801191 -0.8915633 0.77506083 0.33623073 0.25894165 -0.7300333 0.17546122 0.72010875 -0.8388066 -0.38968414 -0.62188756 0.6884835 0.05555927 -0.8501528 0.70628047 0.32453522 0.34070298 -0.6988023 0.13680717
ACAGAG 0.6716638 -0.90864205 -0.37254712 -0.6505429 0.6447026 0.11253696 -0.79233104 0.5850098 0.011249971 0.079241104 -0.6420195 0.12452237 0.7649866 -0.7706172 -0.36578095 -0.8031196 0.5445006 0.1862223 -0.83673793 0.6657612 0.17002034 -0.13307533 -0.6890096 0.14171556
ACAGAT 0.62759024 -0.84536105 -0.5051206 -0.7784161 0.61043733 0.10758983 -0.8963243 0.7947559 0.48459694 0.2937209 -0.70835704 0.15745208 0.7565012 -0.8372293 -0.42577595 -0.78365386 0.57734454 0.1138832 -0.86213845 0.7333428 0.40432703 0.34597087 -0.69068253 0.1380391
ACAGCA 0.61092687 -0.926652 -0.41344386 -0.71771526 0.695994 0.02391238 -0.85262585 0.68783194 0.054922223 0.23473066 -0.6601256 0.13536887 0.70902 -0.8305215 -0.42176542 -0.8188702 0.6127949 0.18067685 -0.8849629 0.75216043 0.2326879 0.12779263 -0.69172376 0.16408968
ACAGCC 0.5621443 -0.8794185 -0.53358525 -0.80180395 0.66904414 0.046032224 -0.925845 0.84624743 0.54247767 0.37769803 -0.7164102 0.18155459 0.7084644 -0.8728594 -0.46226543 -0.801331 0.6428601 0.0445928 -0.8991416 0.7967939 0.411078 0.4342128 -0.70480645 0.15460959
ACAGCG 0.6737176 -0.91970164 -0.42267245 -0.72232646 0.6949158 0.02082337 -0.8630104 0.7155712 0.1980244 0.29108772 -0.6739717 0.14091921 0.7506134 -0.8153202 -0.4043312 -0.8415823 0.5755575 0.132706 -0.88676065 0.76359856 0.3575108 0.1946539 -0.6942321 0.15352482
ACAGCT 0.62780285 -0.86282057 -0.5191493 -0.7819591 0.6658934 0.034009796 -0.92141575 0.8441962 0.5662884 0.39419246 -0.7275248 0.17512944 0.7279694 -0.861464 -0.46271628 -0.8165917 0.61948174 0.031851035 -0.9070631 0.8166392 0.508726 0.45976052 -0.71431714 0.15292275
ACAGGA 0.6222959 -0.88982034 -0.37205118 -0.35744885 0.7679561 0.10713653 -0.76491654 0.5422695 -0.18801145 0.037685394 -0.6664707 0.11678495 0.75660294 -0.8097054 -0.31271073 -0.7229594 0.5707242 0.20232715 -0.8004959 0.6010149 0.13743699 -0.09043874 -0.65443236 0.14060877
ACAGGC 0.57501674 -0.85772383 -0.5009223 -0.6379276 0.73908067 0.10925445 -0.88647026 0.7710309 0.35138786 0.24381873 -0.72593457 0.17422235 0.73850936 -0.84500206 -0.39406577 -0.6297504 0.66670156 0.10482142 -0.838112 0.68998206 0.3132091 0.32542613 -0.6909972 0.13525154
ACAGGG 0.66914165 -0.85720634 -0.3895712 -0.4530147 0.6635016 0.17920184 -0.762326 0.54456943 -0.18543266 -0.103092544 -0.6631893 0.13312969 0.78466284 -0.63923365 -0.37682515 -0.7041588 0.56476593 0.27761507 -0.8131542 0.6357256 0.007218796 -0.3749659 -0.7082868 0.15218565
ACAGGT 0.64504075 -0.7676142 -0.533526 -0.6678124 0.6443586 0.18952124 -0.88520545 0.7785859 0.33022195 0.18955402 -0.73829854 0.17487785 0.78401726 -0.7500136 -0.43174747 -0.5960671 0.6131088 0.19837289 -0.8327367 0.68773973 0.23521669 0.22978579 -0.71314305 0.15104029
ACAGTA 0.61217934 -0.9060842 -0.45260835 -0.66414 0.7001614 0.07719955 -0.8436845 0.67738974 -0.04014939 0.21325155 -0.67626506 0.1424311 0.7329204 -0.79832965 -0.4379949 -0.8287512 0.59566617 0.2492797 -0.8771917 0.7431906 0.18070272 0.08145367 -0.6968931 0.16608192
ACAGTC 0.5784349 -0.8598764 -0.57865745 -0.7910796 0.6745812 0.09662043 -0.9247168 0.8509667 0.55519456 0.3849127 -0.7333036 0.19053486 0.7330868 -0.8517457 -0.48377284 -0.7981496 0.6316645 0.10143894 -0.8930038 0.7918671 0.3862367 0.44483277 -0.7078068 0.15942504
ACAGTG 0.68149316 -0.89233947 -0.45156422 -0.6032023 0.72630596 0.09651866 -0.8422179 0.6830833 0.044246968 0.24219202 -0.6935331 0.14558607 0.77572435 -0.75372654 -0.41088226 -0.81129456 0.5764267 0.23388197 -0.8699996 0.7373169 0.2618029 0.11139115 -0.7005661 0.1552225
ACAGTT 0.63550615 -0.8278646 -0.5689297 -0.7242992 0.70407486 0.11262962 -0.91802603 0.84337467 0.53434974 0.37667406 -0.75130254 0.18948758 0.7525695 -0.82352847 -0.48666915 -0.7544441 0.6445932 0.113116235 -0.8942109 0.79873395 0.44601843 0.4498372 -0.724347 0.16029398
ACATAA 0.62246704 -0.91958946 -0.34039322 -0.67465067 0.68049634 0.013172321 -0.8029396 0.6040812 0.022839596 0.19849816 -0.6228136 0.11226456 0.73764974 -0.87144715 -0.32816675 -0.83962107 0.56635463 0.10189362 -0.8439158 0.6741225 0.2384118 0.103583016 -0.65034336 0.13939591
ACATAC 0.56535023 -0.89950716 -0.46570906 -0.7972743 0.6480309 0.016894933 -0.9091227 0.81333774 0.49246806 0.35254174 -0.68466705 0.15973105 0.7291334 -0.88714385 -0.37657365 -0.80786145 0.60614514 0.018920874 -0.86851174 0.74315107 0.40754247 0.4199513 -0.66545504 0.12884188
ACATAG 0.6716576 -0.9129499 -0.38694695 -0.7654845 0.6029677 0.16744888 -0.8021603 0.6047355 0.013913934 0.17823862 -0.6159656 0.124259286 0.77275 -0.8099279 -0.3941307 -0.87386245 0.55000526 0.24488127 -0.850186 0.69151264 0.16814777 -0.004138318 -0.676476 0.14755775
ACATAT 0.63760763 -0.8736507 -0.528063 -0.86664987 0.57431877 0.16163951 -0.90959954 0.82186836 0.5388589 0.39109623 -0.68508416 0.1590823 0.77332383 -0.8622818 -0.43972513 -0.86414397 0.56047493 0.16512977 -0.868176 0.74714863 0.40715048 0.42819944 -0.66765994 0.13783358
ACATCA 0.58651274 -0.93510777 -0.43503124 -0.8336267 0.62024546 0.012245841 -0.877486 0.737321 0.17931592 0.31509677 -0.6414546 0.14157848 0.6977445 -0.87708664 -0.4500301 -0.89285314 0.5839957 0.14742474 -0.9063019 0.79731846 0.3689407 0.22221887 -0.6847714 0.16191772
ACATCC 0.55757964 -0.90837115 -0.53890824 -0.8740981 0.59397876 0.029291535 -0.9352935 0.8684829 0.67257667 0.44348556 -0.69285434 0.17243898 0.703086 -0.90342855 -0.4768406 -0.88096964 0.59115386 0.031593513 -0.9141361 0.8277912 0.4903471 0.4895732 -0.6892223 0.15390591
ACATCG 0.68065053 -0.9254674 -0.41254562 -0.82295644 0.6207365 0.018294774 -0.86977154 0.73283976 0.26323682 0.35859904 -0.64381117 0.1369246 0.7562285 -0.85518444 -0.41657913 -0.89944607 0.5563212 0.12203063 -0.8987274 0.79003805 0.41886935 0.26607606 -0.68269503 0.15086834
ACATCT 0.6392018 -0.893793 -0.51369464 -0.86337763 0.5941985 0.027451493 -0.9301366 0.863613 0.63910836 0.4600375 -0.70094556 0.16454986 0.74474204 -0.8892683 -0.4579683 -0.88353866 0.57431936 0.029508447 -0.9121778 0.8292613 0.53621924 0.51435703 -0.6929306 0.14777751
ACATGA 0.65823984 -0.9183683 -0.36653754 -0.64689696 0.7155893 0.02134116 -0.82132065 0.6370174 0.0413514 0.21632913 -0.65216845 0.12148755 0.7627283 -0.8624787 -0.34827167 -0.8313694 0.58167326 0.1292625 -0.8575578 0.70060885 0.2660669 0.13229583 -0.66523486 0.14639194
ACATGC 0.6053597 -0.8935212 -0.48814914 -0.7735575 0.68664175 0.029183825 -0.91521776 0.8262436 0.50567913 0.35825354 -0.7111734 0.17052597 0.7467205 -0.8836034 -0.4025042 -0.7920595 0.63301957 0.027968258 -0.8812959 0.7662702 0.42640045 0.43051377 -0.68789434 0.13860373
ACATGG 0.70448315 -0.90535676 -0.403898 -0.7667328 0.6127752 0.13124514 -0.82271266 0.6428897 0.06587849 0.19245508 -0.64409524 0.13463347 0.78836864 -0.77424514 -0.4122469 -0.86264163 0.55523026 0.21519196 -0.86249715 0.71807253 0.19666131 0.00034172813 -0.6993991 0.1498183
ACATGT 0.6680012 -0.85044914 -0.53673226 -0.8540889 0.5837226 0.12850215 -0.91393685 0.8333709 0.56136334 0.38760546 -0.70867217 0.1626876 0.7812095 -0.84155726 -0.45914045 -0.85804045 0.56709397 0.13413519 -0.882439 0.7748816 0.43887678 0.4266904 -0.69293934 0.14520948
ACATTA 0.6360642 -0.9287559 -0.45460814 -0.7958733 0.66550285 0.010266576 -0.88377815 0.75163895 0.17139518 0.3115886 -0.6732474 0.15073563 0.7327447 -0.84901965 -0.46323535 -0.87180746 0.6032417 0.18039186 -0.9072887 0.801312 0.35478246 0.2228632 -0.69962996 0.16878942
ACATTC 0.60962313 -0.8918917 -0.5552054 -0.8479152 0.63997686 0.035076037 -0.9370584 0.8726687 0.6508242 0.44141158 -0.72209865 0.18568322 0.73024124 -0.8875378 -0.4932569 -0.8568326 0.6213145 0.036002953 -0.91789156 0.8354526 0.48737344 0.48668405 -0.7117821 0.16348238
ACATTG 0.6995409 -0.9242044 -0.44619387 -0.8093383 0.6497796 0.011650299 -0.88525844 0.76260996 0.28399512 0.36684304 -0.6726398 0.14924341 0.7665223 -0.83517414 -0.44100523 -0.88839126 0.57150483 0.13980599 -0.905631 0.805085 0.43071744 0.27572444 -0.69773585 0.1565813
ACATTT 0.6641313 -0.88193923 -0.53571665 -0.84793407 0.6235419 0.027061844 -0.93335855 0.8705474 0.6438336 0.46654958 -0.72300094 0.175658 0.7508493 -0.8793051 -0.48404962 -0.87162995 0.5950759 0.028646031 -0.9198497 0.84368634 0.5509795 0.5170638 -0.7126589 0.15689072
ACCAAA 0.573053 -0.84067076 -0.34367266 -0.18614897 0.8271329 -0.21555206 -0.7838712 0.56904113 -0.27870616 -0.10131051 -0.7323349 0.12123617 0.7007747 -0.71473265 -0.2834563 -0.5118115 0.63480276 -0.17584375 -0.8169504 0.62861574 0.046110153 -0.24962413 -0.726366 0.15914166
ACCAAC 0.4990553 -0.7581461 -0.46192345 -0.47522753 0.8066648 -0.19943294 -0.8962827 0.7860405 0.2121036 0.09519572 -0.7902724 0.19406515 0.68579805 -0.735342 -0.3506258 -0.44428363 0.7336096 -0.20715594 -0.8547856 0.7161965 0.21426624 0.18093286 -0.76425624 0.15147921
ACCAAG 0.621981 -0.851372 -0.35206643 -0.41338032 0.7265234 -0.1464214 -0.7945932 0.591287 -0.13678665 -0.13383698 -0.7149599 0.1340524 0.73061234 -0.64893335 -0.33076173 -0.6385089 0.58878094 -0.12056076 -0.84242946 0.68081164 0.06925755 -0.37961647 -0.7507491 0.16797625
ACCAAT 0.5654847 -0.75511163 -0.4888851 -0.6183286 0.7018608 -0.14664543 -0.90301216 0.8081593 0.35712263 0.10473822 -0.7830075 0.19054191 0.72851163 -0.7382811 -0.38969013 -0.5739108 0.64827 -0.14446992 -0.86394274 0.7374121 0.2759205 0.17443043 -0.76156074 0.1601204
ACCACA 0.53301406 -0.8734166 -0.37549 -0.5660892 0.75089633 -0.22734866 -0.84627527 0.678242 -0.09926034 0.043940824 -0.72217906 0.14145982 0.6484878 -0.7113273 -0.3767436 -0.6843043 0.64716136 -0.12349268 -0.8836336 0.75330985 0.08823438 -0.10974558 -0.75352746 0.18757391
ACCACC 0.45618364 -0.7878946 -0.5025277 -0.7008609 0.72984844 -0.19918175 -0.9279124 0.8511862 0.42272958 0.19341983 -0.7802974 0.20404679 0.6564946 -0.7729851 -0.41093546 -0.65719634 0.69104004 -0.20874307 -0.8960849 0.79241085 0.27946612 0.2679881 -0.76697165 0.17008783
ACCACG 0.6346712 -0.8635678 -0.38638046 -0.52358305 0.76964706 -0.21634078 -0.8504459 0.69367766 0.010043379 0.091005296 -0.7417325 0.148275 0.7272235 -0.70189744 -0.35677683 -0.70967686 0.6197809 -0.16151749 -0.8820794 0.75621074 0.21226464 -0.053829137 -0.75823104 0.1788919
ACCACT 0.57034636 -0.7673338 -0.49462745 -0.6533621 0.7477631 -0.19320925 -0.9250449 0.85226077 0.46570197 0.22377078 -0.79822993 0.20321096 0.70708966 -0.75976664 -0.4126617 -0.6757342 0.68415266 -0.20922709 -0.90532994 0.8150863 0.40402263 0.30682746 -0.7808905 0.1735658
ACCAGA 0.591309 -0.8588672 -0.367392 -0.22590527 0.8116552 0.011939271 -0.7693324 0.54893684 -0.2706109 -0.04078248 -0.7028173 0.11960293 0.7322102 -0.75893676 -0.30026877 -0.61833066 0.6043521 0.09470432 -0.80108684 0.6039837 0.07597873 -0.17445582 -0.6843035 0.15037692
ACCAGC 0.5354094 -0.8145037 -0.49699032 -0.543652 0.78855217 0.0226429 -0.88996094 0.77720875 0.26961985 0.17613648 -0.7608236 0.18640494 0.71618813 -0.7982908 -0.38162094 -0.51668346 0.7132893 0.014119104 -0.8404035 0.69419533 0.245784 0.26756853 -0.72524685 0.1426418
ACCAGG 0.63115567 -0.82470953 -0.38861495 -0.28733656 0.7123724 0.05570162 -0.769796 0.55784667 -0.25220135 -0.1631354 -0.699519 0.13848235 0.7572185 -0.5744761 -0.36323145 -0.5968719 0.5894463 0.1377407 -0.8193281 0.6484344 -0.02953717 -0.42567664 -0.73509926 0.16614063
ACCAGT 0.597342 -0.72101104 -0.5356263 -0.5443597 0.6984341 0.06699443 -0.89165866 0.7911312 0.26931283 0.11989306 -0.7734567 0.19374058 0.7575426 -0.69826865 -0.42415583 -0.43623796 0.6554919 0.07552836 -0.83809286 0.6979927 0.17181455 0.17522193 -0.74608415 0.16218595
ACCATA 0.56095064 -0.8811936 -0.4405454 -0.5555269 0.74512696 -0.024178322 -0.8428298 0.67492485 -0.13416599 0.12818305 -0.7088401 0.14558455 0.6946919 -0.74493575 -0.4193947 -0.7595791 0.6223892 0.14550902 -0.8773272 0.7436188 0.10400923 -0.008230873 -0.72259927 0.17830731
ACCATC 0.5139565 -0.8218433 -0.5724937 -0.72523665 0.72435594 0.004033432 -0.9268246 0.85350734 0.48730397 0.30605924 -0.7651563 0.20440106 0.70052654 -0.81098026 -0.46547434 -0.7133801 0.67128104 0.0050692703 -0.8913111 0.7878771 0.3049144 0.38208473 -0.73683816 0.1674552
ACCATG 0.65146923 -0.8619704 -0.43780276 -0.46448004 0.77372915 -0.003002393 -0.8381859 0.6766936 -0.0524777 0.16057785 -0.72735023 0.14847307 0.75668967 -0.69875795 -0.38884145 -0.7332221 0.6036326 0.11710649 -0.8687351 0.7359637 0.20137602 0.023141185 -0.7279404 0.16845337
ACCATT 0.5959918 -0.78492004 -0.5628575 -0.63754404 0.75669724 0.01922733 -0.920839 0.8486001 0.47859395 0.3046631 -0.7858521 0.20524791 0.7347672 -0.77776647 -0.46868756 -0.6532059 0.6897324 0.012648825 -0.8935913 0.79826534 0.3866505 0.39435154 -0.7567107 0.17071906
ACCCAA 0.5284902 -0.8535923 -0.33171642 -0.38249892 0.79193485 -0.21944182 -0.7976263 0.5931338 -0.23431692 -0.06270294 -0.7148593 0.12048399 0.67106456 -0.74657357 -0.29462326 -0.6299242 0.63238394 -0.14387324 -0.83317494 0.6577398 0.037895367 -0.19969343 -0.7203306 0.16225925
ACCCAC 0.44984746 -0.8001362 -0.45845634 -0.62753415 0.7699091 -0.2033489 -0.9082719 0.8101553 0.28401938 0.13665956 -0.77210677 0.18939881 0.67026055 -0.77706045 -0.34485978 -0.58630395 0.7058367 -0.19667388 -0.86151725 0.7293853 0.22675487 0.22407062 -0.7461554 0.1458258
ACCCAG 0.5794184 -0.8360958 -0.38686636 -0.38310722 0.7214696 -0.034808226 -0.79422486 0.59266263 -0.23830734 -0.08310037 -0.7039112 0.13777143 0.7081168 -0.61297524 -0.36855307 -0.6215461 0.6068906 0.025742622 -0.842623 0.68389684 -0.03295127 -0.31777498 -0.7433676 0.17678499
ACCCAT 0.53022015 -0.7448009 -0.53500175 -0.6305746 0.70405 -0.02874941 -0.907478 0.81760806 0.31614754 0.16665265 -0.7742877 0.19930544 0.7198014 -0.72237724 -0.4164315 -0.54168916 0.6551151 -0.022802211 -0.85615605 0.72628665 0.18918379 0.23109354 -0.7459975 0.1625853
ACCCCA 0.4422473 -0.8668336 -0.4246276 -0.5698966 0.7605851 -0.21735644 -0.8653872 0.7112804 -0.13807172 0.03454329 -0.73728776 0.15469791 0.59189653 -0.69798857 -0.41406387 -0.70733124 0.65215486 -0.05536596 -0.89483774 0.77510035 0.073466234 -0.105629236 -0.75502884 0.1949597
ACCCCC 0.37739182 -0.78113407 -0.5387658 -0.69061166 0.7414811 -0.17799646 -0.93285495 0.86119515 0.47762164 0.18604411 -0.7864352 0.21171616 0.60989213 -0.77104837 -0.43876916 -0.65577656 0.697897 -0.18271631 -0.9016504 0.80238867 0.2410596 0.2678609 -0.76847374 0.17751592
ACCCCG 0.5953273 -0.8455447 -0.39690188 -0.46615672 0.78181714 -0.20472713 -0.84718084 0.68970925 -0.09213682 0.07619264 -0.746907 0.14813757 0.71266353 -0.6781021 -0.3658851 -0.6988954 0.6315017 -0.10285637 -0.8818263 0.75795513 0.15293528 -0.06245461 -0.7567842 0.185717
ACCCCT 0.52774245 -0.76348233 -0.51913536 -0.6432452 0.76561975 -0.1808264 -0.92989427 0.8623007 0.45974514 0.22107923 -0.8051211 0.21221432 0.70430636 -0.75079536 -0.41612834 -0.63636136 0.69984907 -0.18592964 -0.89981776 0.806735 0.33933645 0.3193229 -0.7789111 0.17520122
ACCCGA 0.59680015 -0.84183645 -0.35790777 -0.2561316 0.8343616 -0.20601177 -0.80822676 0.6145316 -0.24076764 -0.055409368 -0.7478709 0.12958914 0.72824013 -0.72732705 -0.3038268 -0.584862 0.648427 -0.12997067 -0.8405886 0.6736514 0.07499362 -0.17538369 -0.7368169 0.16974305
ACCCGC 0.5285913 -0.77951765 -0.48317418 -0.53275955 0.8175592 -0.18675485 -0.9132538 0.8225934 0.29384932 0.1280481 -0.80434287 0.20439631 0.7127428 -0.75851667 -0.36699057 -0.51128745 0.74479556 -0.19204435 -0.8720917 0.7505671 0.24932721 0.227359 -0.773515 0.15831801
ACCCGG 0.6451521 -0.8352343 -0.38606733 -0.41410413 0.7257878 -0.10772297 -0.81330293 0.6279787 -0.15896766 -0.07361949 -0.7291078 0.14689533 0.75506496 -0.5996667 -0.3702248 -0.64179593 0.6057705 -0.056464218 -0.8575035 0.7128615 0.032736477 -0.31315565 -0.7640226 0.17789553
ACCCGT 0.600178 -0.7324366 -0.5291254 -0.6271806 0.7086852 -0.10272749 -0.9147457 0.834632 0.3850535 0.1591822 -0.7958478 0.202868 0.7550692 -0.7135472 -0.4222945 -0.56964105 0.6576518 -0.09826054 -0.87456065 0.7608216 0.2614315 0.22669727 -0.77007365 0.17059422
ACCCTA 0.5459143 -0.8663207 -0.43070072 -0.5361335 0.7831447 -0.2281136 -0.8722984 0.7291309 -0.1033087 0.05760833 -0.75893354 0.16093399 0.6771161 -0.69283384 -0.41976762 -0.69536734 0.6647824 -0.053387877 -0.9002237 0.7885232 0.11781872 -0.067862876 -0.7682991 0.19910683
ACCCTC 0.49299875 -0.7784806 -0.5448322 -0.66700536 0.7678038 -0.18671331 -0.937905 0.87330604 0.4900565 0.20522922 -0.80952746 0.22174731 0.67992073 -0.7690359 -0.44787502 -0.6428463 0.71697444 -0.19619471 -0.9102853 0.82062393 0.28796804 0.2858086 -0.788077 0.18574876
ACCCTG 0.64970005 -0.85350627 -0.4208788 -0.5004819 0.7920691 -0.2201343 -0.86868757 0.7313805 -0.004464077 0.113325275 -0.7675015 0.16131818 0.7484855 -0.6771301 -0.38477433 -0.7179609 0.6365611 -0.11169983 -0.8952449 0.78540635 0.22089513 -0.015796294 -0.76947486 0.18778875
ACCCTT 0.59126645 -0.75979984 -0.5277342 -0.63401246 0.7771472 -0.18972588 -0.9351706 0.87419766 0.5032878 0.24677497 -0.82007706 0.2183071 0.7270246 -0.753228 -0.43774438 -0.65861464 0.70839256 -0.20306091 -0.91424066 0.8341018 0.401285 0.33714527 -0.795755 0.18455751
ACCGAA 0.6019167 -0.84018487 -0.3581772 -0.13818303 0.8488916 -0.2005474 -0.7940111 0.587646 -0.28942665 -0.101517245 -0.75099975 0.1262323 0.7299256 -0.71918184 -0.29261166 -0.49801785 0.6538303 -0.14868177 -0.8245731 0.6429109 0.051762436 -0.23303421 -0.73565084 0.1640042
ACCGAC 0.5351377 -0.7610758 -0.47964767 -0.43559352 0.8326952 -0.17925797 -0.9026609 0.79952705 0.21566612 0.09058342 -0.8068175 0.20239396 0.70962065 -0.7393394 -0.36566833 -0.41406804 0.7602188 -0.19440928 -0.86196613 0.72999424 0.21195579 0.18290706 -0.77795154 0.15733808
ACCGAG 0.65211976 -0.85758317 -0.36302042 -0.42957285 0.7349588 -0.14058997 -0.80646443 0.6117546 -0.11771275 -0.11350447 -0.72589916 0.13913825 0.7566362 -0.65628535 -0.34096852 -0.65385675 0.5948968 -0.10898793 -0.8511108 0.6965073 0.08309202 -0.3525397 -0.75683796 0.17015323
ACCGAT 0.60158265 -0.7615645 -0.5003022 -0.6262321 0.7120144 -0.13899171 -0.9088773 0.8201288 0.38432387 0.120659314 -0.7915018 0.19516368 0.750491 -0.7464966 -0.40191767 -0.59197295 0.65550655 -0.13780807 -0.8723318 0.7527727 0.2947948 0.1922764 -0.76819515 0.1640469
ACCGCA 0.5738372 -0.8756786 -0.39366224 -0.53821653 0.7789416 -0.22174475 -0.8571531 0.6994832 -0.09700965 0.037853766 -0.7439928 0.14948384 0.6883019 -0.71289146 -0.39009708 -0.6764562 0.66398907 -0.08827374 -0.8900201 0.7663221 0.10149346 -0.101295255 -0.7625132 0.19295686
ACCGCC 0.5093753 -0.7890408 -0.5198922 -0.6747596 0.7623601 -0.1865636 -0.93296605 0.8618962 0.4396594 0.18860373 -0.7993115 0.2145459 0.68927366 -0.7762326 -0.42705205 -0.6374701 0.7159545 -0.19986238 -0.90281504 0.8053913 0.2849651 0.26714474 -0.7812432 0.17807636
ACCGCG 0.65914696 -0.86696863 -0.4009448 -0.51623964 0.78708935 -0.21553582 -0.86101955 0.7138696 0.018253032 0.09327245 -0.7571203 0.15508716 0.749452 -0.70306194 -0.36764532 -0.70998126 0.6318688 -0.14120631 -0.88856 0.769053 0.22174135 -0.041527472 -0.76474595 0.18287173
ACCGCT 0.59941155 -0.7692143 -0.5075921 -0.6390574 0.7683694 -0.1868895 -0.9296843 0.86152893 0.4766254 0.22626734 -0.81039524 0.21093468 0.7246659 -0.7633871 -0.4255523 -0.66866875 0.70114684 -0.20640753 -0.91097486 0.8257088 0.41020092 0.3108924 -0.790432 0.1794472
ACCGGA 0.62006015 -0.8719991 -0.35754883 -0.34038523 0.79163945 -0.085294865 -0.7888101 0.58127576 -0.20163064 -0.034706853 -0.7133505 0.124074504 0.75500697 -0.7794822 -0.30323792 -0.69174457 0.60037464 -0.0029461982 -0.8251165 0.64439243 0.115547985 -0.17486764 -0.7050262 0.1549782
ACCGGC 0.56940085 -0.8319912 -0.48699403 -0.6227692 0.7667495 -0.079302266 -0.9031144 0.80364907 0.34609643 0.1806129 -0.7716217 0.18883644 0.7392502 -0.8155687 -0.37616286 -0.60945964 0.69300985 -0.07590997 -0.85870874 0.72631186 0.29429495 0.2710321 -0.7385758 0.14641693
ACCGGG 0.660878 -0.8313566 -0.38210753 -0.38553432 0.69861925 -0.050616242 -0.7907007 0.5922629 -0.20647393 -0.16678342 -0.7165738 0.14412752 0.78058624 -0.588177 -0.36691344 -0.6514162 0.5905301 0.02839043 -0.83818436 0.6809879 -0.006374595 -0.4333461 -0.75386816 0.17113669
ACCGGT 0.63320833 -0.7305536 -0.5266819 -0.6170695 0.68374854 -0.04314979 -0.90265805 0.8126443 0.32441065 0.112250514 -0.7865713 0.19668235 0.7807892 -0.70772564 -0.4185867 -0.52966887 0.64373845 -0.032170743 -0.85446364 0.7262914 0.20514494 0.16567864 -0.76074076 0.1664062
ACCGTA 0.5938584 -0.88682854 -0.43780017 -0.61909395 0.73139447 -0.12368705 -0.86086243 0.70920026 -0.07290892 0.121565275 -0.7282607 0.1539504 0.7234389 -0.75501615 -0.42376402 -0.7894486 0.62214744 0.040261354 -0.89165807 0.7718004 0.15160994 -0.023224894 -0.7440949 0.18375413
ACCGTC 0.5602723 -0.82812685 -0.5616426 -0.7575482 0.709666 -0.09590189 -0.9339942 0.8687015 0.54329735 0.30043852 -0.78046525 0.2080998 0.7252417 -0.8179854 -0.46382204 -0.7555675 0.6618361 -0.09123776 -0.9049267 0.8133803 0.3514059 0.36967176 -0.75615466 0.17386237
ACCGTG 0.67695427 -0.87172306 -0.431963 -0.55779463 0.75153434 -0.104833275 -0.85538995 0.7080854 0.00840753 0.15744051 -0.7398225 0.15495971 0.77516454 -0.7133096 -0.39338842 -0.7749763 0.60207176 0.015077074 -0.8831451 0.762993 0.22936882 0.0066909394 -0.74601203 0.17263487
